var network_data_string =
'{"biases": [[[-0.4735334756048343], [1.9212583165253203], [0.0784256806802659], [-1.5630600935037713], [-3.2716009585102106], [-2.0049442114099905], [-0.32601563757963864], [-2.007995052035066], [-0.17287168321316118], [-1.922861983514353], [-1.865992809132191], [-1.3457713564683362], [-1.4852156025159304], [1.1731869835050748], [0.2606799778168183], [0.1294256725547983], [-1.4361428336503415], [2.6585189795951973], [-0.896335479469174], [-0.5213837128450258], [2.8597221271698943], [-0.1940125326569713], [-0.011099618449900392], [1.0174161645324682], [1.4121887492675016], [2.1396457467027465], [-2.1243693932557246], [-1.6330858052097843], [1.5232510606642014], [-0.9784652266836474], [-0.06481447798136085], [-0.7144018139439211], [0.8015452594406303], [-2.234824952346748], [-0.6558855316776802], [0.6341607192722528], [0.6277822645641575], [-0.0792595455427388], [0.17484810520782054], [1.5655210588531874], [0.7912019375204323], [-1.2887167599002693], [-1.4634714335283838], [-0.9584733954648014], [-0.967207606389389], [1.444092620011097], [3.1036833812709586], [-2.030100927474696], [0.2508736351842637], [0.9086872691058693], [-2.0305662740261177], [-1.8962798161444259], [-1.4739107981705686], [-1.2632797588225602], [0.08470966045197625], [-1.185553032313072], [-1.0178507896943965], [-1.1578371550459001], [-0.8618825181639495], [0.7752329143126958], [1.2106581321088192], [1.8228823093923696], [0.36894441538281475], [-0.35870308935737777], [-1.9598491389656032], [1.0820316448414886], [-0.9919960668459761], [-1.2720734782318899], [-0.6848973559338021], [-1.1397192548471966], [-1.3230841323613602], [-0.7020891935442868], [-0.1521509638611813], [-0.7790967261434165], [0.7089177391865571], [-3.124206195149818], [-0.38315954603502356], [-0.3391600710066187], [-1.0628402732628222], [1.5346150113586738], [0.4103680389291947], [0.9594790801514353], [-0.43725747362615075], [-2.4286331494130895], [-1.547527009569342], [-0.5123186534197276], [1.686901805313329], [-0.12936982197892766], [-0.8533588705703514], [-0.1443318336998627], [-0.5106434459508303], [2.376156143884622], [2.718814556661046], [0.6170324976845151], [-1.0607848725050169], [0.8983435398537023], [0.7795843077067325], [-0.6152825047435685], [0.6662175297422248], [-0.901994619254421]], [[-1.7823478014453344], [-1.726374223625016], [-2.105942235338152], [-3.5688633455017285], [-1.2014534502582375], [0.6507181583205135], [-2.4635985676016903], [-1.0357475626148418], [-2.000061040803504], [-2.366272083344827]]], "weights": [[[-1.2422508203629068, -0.6944760606456566, -0.490515401372261, -1.1350452520696253, 0.19657527521294435, -0.3551403537537707, 0.7532412857678602, -0.7208602300213366, -0.519605437062739, -0.4292198661464647, 1.7277449838064827, -0.5487924337727907, 0.8430342889302445, -0.7920679913473156, 0.9946394719090785, 0.3519719214033578, -0.6913052048411598, -0.6067064240417598, 1.0069218538892575, 0.23115200350415838, -1.199179142258557, 0.22104594357935906, -0.16396436133926295, 0.050015411429330255, 0.2630145538928288, 0.37715667970245104, -0.6976695649289171, 0.37005969845387826, 0.7345000087255671, -1.50790685938664, -0.33177185353557903, 1.2861840544810321, 1.5517201127407123, 0.45504685370399167, -2.8168250032037454, -1.4984642494113605, -0.9170165141790076, 0.4991551831529328, 1.2508604108663564, -0.04743744672129246, -0.2703162363539704, -0.554566168301132, -1.2957978523489695, 0.4795373538897544, -1.2792143739530122, 2.1000847808170704, 0.9975284486319802, 0.03458107754763278, 1.0459191662062757, 0.5996734338595929, 1.6669803013755071, -0.10495339462373982, -0.7980207241786612, 0.4811313794095001, -2.3604396561617, 0.40920391168265213, -0.31482228615455493, -0.22492765446911914, -1.529983660919013, -0.3843694746597636, -0.5822092064843783, 1.607516745757801, -0.3014756495997656, -1.1168461855052714, -1.0892549609111342, 1.9593906316620977, 0.4796864206617134, 1.5156840291005838, 0.5262898437887505, 0.21060354546890891, -1.1142025787517422, -1.3409699778072084, -1.0115111972020174, 0.039393684508987455, 0.6218516086731447, 1.2124416252660133, 0.11191219057959459, 0.6492647002844018, 0.4567024744303708, -0.7531130825689799, -1.411550078999015, -0.5096386569407311, -1.1202445705721094, -0.8166517121585438, 0.7977811426326014, 0.5724433236535155, -0.6924440347031459, 1.1762304755728197, -1.2520157524031674, 1.0397657595841516, -1.641647565857011, -0.8700522527992138, 0.46491097742651205, -0.2114008787840587, -1.6518359597794476, 1.7374333943224267, 0.24381542757955266, 0.09606118319987257, -0.5787418937053105, -0.36119647830662377, -1.3901963823900867, -0.8994926323661527, 1.0744417531399655, -0.912765676596861, -0.0006307550380460609, -2.249757357815474, 1.4018956712531556, -1.2499647633937354, 0.42409707714728134, 1.1120856071780676, -0.5254282588121095, 0.7090566114113279, -0.41834763096444744, 0.10274528583861918, -0.9839879230622662, -0.5727879686759503, 0.525092534721955, -1.3194778409679957, 1.9903607291612597, -0.29132846532591644, -0.9829869287204226, -0.7536319511717836, 0.5876489393327542, 0.9595042421722729, 0.1801674708158782, -0.6520575463616255, 0.5696227946764397, 0.428890580571724, -0.7128964051542347, -0.12731160392105764, -2.6187738695227987, -0.9120258428377931, 1.430784786496602, 0.5739472759061445, 0.2877349008810504, -0.0022411832213322176, -0.46595083165186724, 0.29118352630151234, 0.43702844740384267, -1.101240459650822, 0.5717311563205997, 1.4086745103098777, -1.3407691345934056, -0.17748069044827347, -0.4917224707136446, 0.4656519479752243, -0.8877776007650058, -1.3033369443544962, -0.14735936596607474, -0.7256337341708233, -0.8474194431474876, -0.1949745176419764, -0.818445245579949, -1.0557478035810355, 0.1436438893257064, -0.5137739721191783, -1.7411690266829507, 0.05977898320269036, -0.36244705775259656, -0.6247273592528876, 0.47791241764322545, 0.19474966269782087, -0.3597417109605331, 0.3491208467244162, 1.6994489706488336, -1.4179527878859803, 0.5822572046657143, 0.5476898526517523, -0.38711289334162974, -0.08017005331877984, 1.6171648100972928, 1.2358060509451407, -0.4449310055081785, -1.351045609360908, 1.1659685842960812, -0.2958243800741228, -0.3454886035275895, 0.3230686837756949, 0.9005281349276754, 0.5974267496988426, 0.6712887586080509, 1.4912382769436927, -0.7526980107928817, 0.48550525190527616, -0.8482862397891735, 0.16685013991305914, 2.611877570062018, 0.17585145315880435, 0.8501245023979924, 0.7351610468181947, 1.3887523790593341, -0.02650474418609118, -0.6605335407018387, 0.7035318544146089, 0.513958788037797, 1.1282931504345757, -1.029601410218105, 0.4345128556674661, 1.6378514523836134, -1.2552512610084352, 0.049747327449891944, 0.8640874268764471, 0.18759873315881578, 0.8391442471160528, 0.03552361122701747, 0.8677006549067741, 0.40240968607936806, 1.1167502259978574, 0.4892243256620828, -0.7430149177422439, 0.009091620416532286, 1.1801873198975292, -0.46517537680581544, 0.06905783409783182, -1.3679003215913699, 1.2945872447643907, -0.2795322770821126, 0.07071247417741842, -2.67240571093928, 0.10152315865505211, -0.8229990538605524, -0.26556502132725046, 0.35296011655281767, -1.1478307432450232, -2.0459143736019088, 0.746132180398288, -1.2522867867746998, -0.961056522166762, 0.5453103566735317, 0.47134620204425637, 1.8190004844836367, -0.9931192907396795, -0.2531830601370297, 2.6856290846364543, 1.9777988934928894, -0.8244591687917904, 1.468150053430702, -0.14305767034975625, 1.181922465557345, -0.1250936289576957, -0.2798751507393113, -0.7641178748169564, 0.013926896139546703, -0.2517962743812785, 0.6059330508803851, -1.7439646984877988, 1.170371357147134, 0.994127196298271, 1.756435820977142, -0.3833395467952033, -2.079909844993494, 0.4616599507866449, -0.23612093630394082, -1.3366479255964883, -0.47806784256958124, 1.9548155170315495, -1.439076849296433, 0.8869763551093215, -0.5797138504866494, -0.24389135263508066, 0.4899169147144841, -0.0788992324699286, 0.9168666410581815, -0.9209342312509091, 0.5708515033313468, 0.861676360919153, 1.8535454397302435, 0.027217678219102377, 0.6525610561671262, 0.9325447311354677, 1.7243975610334688, -0.32910270457539925, -0.5240108185644106, 0.3116451802808505, -0.6767437207639514, 1.614656557083189, 0.4868468649218801, 1.356918147490831, 0.6127450646970567, -0.9728935794890694, -0.268874494747809, 0.0705253541280068, -0.44685009569691864, -0.21000673751385132, -1.3769950204793244, -1.3744031148013989, -2.5574984226049695, 0.5125203221971627, 0.6659439028428549, -1.5772516269029897, 0.29779740409953526, 0.2197776264542784, 1.1528368730390648, 0.7375423103278349, 0.8229533398466048, 0.43330921882166956, 0.11578834744068178, -1.4866996602299425, 0.8534852632865614, 1.1047779249402048, -0.6047910072356603, -1.441068759046262, 0.7832416933742002, 0.7792741212193262, 0.9217223886708205, 1.4939397917154495, 0.7154340375527942, 0.20029539666279816, -1.519562393201403, -0.5382836756462845, 0.6670386264580792, -0.9606027356324076, -0.9037578959079162, -2.048783507189253, 0.48434809595549294, -2.003300442135258, 0.15494463066169287, 0.1250680224648098, -0.13042646972108746, 1.2326034225902658, -0.4100268423649878, 0.45144969400373863, -1.1217280447431597, -0.5884189258394892, 0.9685164790411942, 1.7989185279105062, 0.6922174859191665, -1.0038178953699113, -0.9749710498492796, 0.3341130892657765, -1.291636954805813, 1.891461836607276, 1.2809059996266314, -1.1491860172455561, 0.8436934127375453, 1.3220860508125656, 0.7680666698916423, 0.43752944751820555, -0.021046431915259036, -0.5631382153692436, -0.4175250687099451, 0.39505528173373455, -0.22333865867819458, 1.11585843513302, 1.1257776603277179, -0.2806154840410454, -1.5378409782698472, 0.022060292227551802, 0.24018806046024863, 1.0202858202305496, 1.6611425168084943, -0.7216100262555517, -0.3164457899774918, -2.755899045252578, 0.28617743324172673, -0.35304917697072535, 0.7585591240510385, -0.5342818151194065, -0.0894147899313489, 1.040674168848437, -1.3452980814476516, -1.3540360025486826, 0.33097043150867184, -0.2306473106143664, 0.7436149396489493, -0.46057051396677684, -1.6288174833761317, -0.14198873613255808, 0.09632918524270556, 1.7412437048947884, 0.2803136654811464, -0.36728479473349973, 1.050566196703439, 0.9656752719248861, -0.6520595721519877, -0.2328705231400779, 2.0283337251257865, 1.0770528576808993, -0.47085169268019594, -0.2764321295617493, 1.325507253120505, 2.324719176364226, 2.211875446711265, 0.7751927679665666, -0.25001271237807315, 2.019642214226632, -0.5947688667696988, 0.671583819525592, -0.3964155472652988, 0.4200277033871142, -0.24146187975884217, -0.8923991846751299, 0.08517188236414494, 0.9718486617167593, -0.1445136783801875, 3.2818928021605167, 2.194610298122784, 0.42195623950654426, -0.6160710051511596, 2.0205938388666174, -0.7567925080491729, -0.15142659858527616, -0.5727412036903542, 0.9237087457778466, 1.2149805010043728, 0.6526638719068175, -0.22643467224256586, 0.6164431667299829, 0.8853627487208484, 0.7188505615635786, 1.063703891517401, 1.6086342541788397, 1.0995255853338761, 1.3175680787796284, 0.20578367523255567, -1.2728254800515824, -0.20216078544917288, 0.6887835412284877, 0.6441679362081313, 1.0931629966431902, 1.6855284181054444, -2.0207395380581143, 0.16808972740184971, 1.8279538946299343, 0.04607906067677626, 1.5515176858001505, 1.1356796840866739, 1.6692850848055831, 1.082585587076331, -0.5207278069580196, 2.3495211435937353, 2.9957914964616155, -1.9802976566333916, -1.1251015685071963, -1.0101950806410693, -0.4252843465796656, -2.0439992451508275, -0.053930392222155746, -0.12327874684364938, -2.3102218140804003, 2.4297255769280093, -0.244493436934725, 0.6750854457106686, 0.6546014174621235, 1.124671747384483, 0.25724530937697293, -0.35698627126760735, 0.5370955316300643, -0.09314395965353331, 0.16042291128765138, -0.6435202073532239, -0.05754627264415387, 0.1650960056918859, 1.5223380532705786, -1.2709687585225886, -2.8676337869322635, 0.6341681700398893, 0.7867634759505562, -1.9777267157681557, -0.916622411510976, 0.6066191168012486, -0.4736347016068714, 0.10448099682412526, 1.7029842726075017, 0.6968463907868323, 0.229380475440385, -0.1639353677850949, -1.4230285735104504, -1.1302471978774487, -0.8228670279024946, 0.8049036849482948, 0.07774963519212529, -1.128995944077017, -2.505119657412579, -0.29118193740074344, 1.2693258132017804, 1.847120556489779, -1.2137797242561235, -1.6263660452711033, -0.8262987465583317, -1.7786822779856142, 0.5546787428549671, -0.5113203090143712, 1.1412959323507614, 0.028103790723380602, 1.7841899197595126, -0.3086595622774709, -0.39883023323021904, 0.349495607314019, -1.009901844955681, -0.7229823835428235, 0.17480589417598183, 1.2286572909996458, 1.1779476437259588, -2.308218277009311, -1.3805785729077302, -0.9556434676397858, -0.09739648747451175, 0.35851472995012373, 0.7166198395226518, 0.5984176899878152, 0.5328906777718135, 0.057883824801148565, 1.7847325114517925, -0.17259381493040785, -0.03870335414326979, -0.2931684522274932, 0.21631796372327053, -0.10737844403950149, -0.14682204532633472, 0.3567938787227575, 0.9374282635272034, 0.8495659934284369, -0.43634700414930205, -0.6900915091423262, 0.02521836433163549, -0.6602793227698186, -0.24215946701209523, -0.8519484945096947, -0.4600569814537903, 0.2634237440017792, -2.169224939578898, -0.888223710437891, -1.2210250366445858, -1.691049151756813, 0.16096402825950853, 1.417955735700455, 0.02288315996741356, 0.37380254196398915, 0.2513081392489005, -0.5486747940810898, -0.012671256652744184, -0.0732882219583925, 0.011137719352015527, -1.069395609374275, -0.42975695161437094, 0.9472352840075604, 0.5372089910190765, -0.22025096655797158, -0.5466348353227041, 0.41534116881225824, 0.5119732158693608, -0.8421780883545, -0.8760232296228354, -0.9339084374128369, -3.311579344800143, -1.0013832889170116, -0.5198404328435287, -0.8050927496616239, 0.1974138479165148, -0.01444643099195974, 0.5513669081783201, -0.6120341329580032, -0.33372172797704913, -2.2360611639547145, -0.582856617943381, 1.5993249846185655, -0.04691414924022306, -0.07884198388013262, 0.09415582404111592, 0.4128105464208506, 1.0109120966355865, 1.923136817524242, -1.7670829580415972, -0.22607836692972166, 0.45291553272282004, -1.6258681886426998, -0.8709104648699885, 0.7093012617238288, -0.6888087466777393, -0.3930693319116826, -0.7827517782141225, -0.5694999304939878, -0.23269542837499632, -0.05015889223780169, 0.09170180990095989, 0.4861528103905509, 0.5658503464316057, -1.448382382232761, 1.4033175296605245, 0.7632033904717389, -1.3011485026280036, 2.3023595894925886, -0.872620181521298, -0.7979389491459834, -0.7485260833710541, -0.6197915063868624, 0.3517966281430286, 0.5105472016148247, -1.0913389305436503, 0.3214786814344057, -0.41196466884397137, -0.5884859861951415, 1.2354334202688046, 0.8396540865153386, -1.1675774696283776, -1.3430083556867012, 0.49534394136909027, 0.2872155314054344, -0.5247064357003568, 0.1415750424808999, -0.9630144122930182, -0.4999726415325599, -0.8009815259577269, -0.484796383349845, 0.23452592901268285, 1.173570173374952, -0.5426742431662687, 1.0041403959525548, 0.5264994918821051, -0.2844311563041651, 0.4504533058033544, -0.4946654435531705, 0.38456242032410376, 0.6041088793442655, -0.5846369741082571, 0.11444850819934659, -1.287775164275675, -0.44178840617761345, 2.157905384748545, -0.7866648714633111, 0.43672051188210137, 2.4855355386315265, -0.5113751573722572, 1.2073756350552942, 0.7224044414975407, -0.10565342360858981, -0.23871265562510133, -1.424446721737097, -1.81732208608549, -0.7881011882888715, 1.1879112372142993, 0.5197801431788642, 0.8924801810114792, 1.1576977070611125, 1.1502146706636838, 0.07114134544042014, 0.2676317926631037, 0.42439129544888304, 1.0273277323457228, -0.7446953371336094, 0.13442633288572442, 1.4459195751942528, 1.2799209714068496, -0.5553880465378915, 0.6558263035185627, -0.1551065780071736, 0.5545906772861405, -1.366734154173668, -0.8055242978857681, -0.050518618187134996, -0.2429310968324955, -0.9357454655433364, -0.05681418533145773, -0.49106578191394396, -0.9571595103746662, -0.3767755734988781, 1.4274130517494505, -1.127342548907804, 0.36334127101900027, -0.13193986384201947, -0.6318996823232139, -2.861687253266175, 0.8590570122907969, -0.3370980105504641, 0.2448483166498641, 1.495611429983004, -0.4457555707987538, 1.183571783677272, -1.5373370110275, -1.0609783774939985, -0.963855335928151, 0.682693435785245, -0.6561383325017679, 0.926141092180441, -0.28743006478440136, 1.0469504097489284, -0.6679550243389071, -1.524021985742901, -1.0283485929951404, 1.0398691445748602, 1.5165936067105825, 0.548315838820368, -0.4285045047870359, 1.131433243171676, -0.9254507644799298, -0.4488092759200899, 2.1112362153700004, 0.2819934595119091, 0.9727158649371531, 0.19244957908866941, 0.8000105975385605, -0.6868517016018212, 0.41977578712649527, -0.21664956540745997, -0.2255238336748808, 0.8246016342653266, 1.3425973215948404, -1.3990846857909176, 0.7426247807249404, -1.0417660944705347, 0.24520139556162754, -0.23260991615494342, 1.3178346817228375, -1.9821001333402704, -1.2466064109774846, -0.5476865692804206, -2.431628822586959, 1.8496267462993108, 0.7473257632410032, 0.38095307863444267, -1.08492861485282, 0.599385282203066, 0.8072902092855202, -0.8060258786470352, 0.7393097183887497, 0.5520260266048556, 0.6167754015394493, -1.81565006896479, 1.1332547014002776, 1.353028152595009, 0.4904060264765043, 0.8980547926457576, -1.317659784629516, 0.28801183428680777, 0.6644735097526665, -0.15056804331548918, -0.09436321219613698, -0.4388683538810654, 1.9067559095478324, -0.0942283290068883, 0.13391234828680704, -0.12257055700669327, -0.21548642003102347, 2.8663953129204747, 0.3786969029203862, 0.06954174436513288, -1.4159959266744446, 1.6748160646490835, -1.1888052147053294, 0.04171144975269692, -0.32507993631009746, 0.8731277157333714, -0.06439503474543548, -1.3288658446946182, -0.6355731688262348, 0.40264397966118604, 0.19151669079475794, -0.29781152277410394, 1.9249144950252748, -0.21884117355194652, -0.559262147113145, 0.03845198289895922, 1.4877414552978094, -0.5529860127795435, 0.08175953618580915, 0.6035580567271035, -1.0565279784773498, -0.37773678921937043, 0.37210384394550455, -0.02261854108652456, -0.6390631541933417, 1.2686923365485738, 1.6990696402124232, 1.8763456181025253, 1.0939374044572183, 1.2174119677095352, 0.4002466643062928, -0.5127087270261208, -1.2160765697624574, -0.34113410805418243, 1.5020320978367476, -2.137252845116205, 1.3258090370207718, -0.8913742647038698, 0.3370993278221397, 0.7445840840956972, -0.16119828460690475, -0.591110575871317, -0.8913063107102714, 1.366794502292567, -0.24264521710420853, -0.5897629225566088, -0.07141810001560121], [0.35949666506829336, 1.3210113475583556, 0.2725757675975596, 2.641345700392854, 0.6752843129293757, -1.0883102421479578, 0.3196636545445622, -1.0198500501735266, -1.0711511823189173, -0.5304731167775839, -0.36141175272298826, 0.30785537749091746, -0.19425425068813162, 0.5007242686543795, -1.3166465238641847, -0.539444358538675, 0.32680329513693984, 0.5703526711714583, -0.05180920494723556, -0.971252065465904, 0.931084603050063, 0.3602962468680757, 2.1703973147255686, -1.0564101014923344, -0.7532387000675507, 0.49619434698413856, 1.4910035987573549, -0.1863836522638535, 1.5411181667687874, -1.4943582382725233, -0.17740852686826267, 0.3980990475643322, 0.18176419946656164, -0.19920709148442836, 0.9325188462248126, 0.10104661809086796, 0.0649856733714998, -0.37858153562736596, -0.44085548833570465, 0.8631304150346428, -0.29584080122534834, 0.2095664444880952, 1.0557606373470012, 0.5889554540173186, 0.5687173874322135, 1.351108856236714, 0.7025594254802974, 0.018018717619791545, 0.4986830009004911, -0.831238252636562, 2.23810168105699, -0.32089728990098854, -2.0951672486851844, -0.25569902318648996, 0.029057370730120984, -1.1399210702754714, -0.6702071950527263, -0.24975468941473264, 0.2855832214107338, 2.313321506332949, -0.9299207134264417, 0.1625862953812214, -0.26559231987464055, 2.080821726498376, -1.36143216965815, 0.7890748604416702, -1.3662138942996678, 0.857869653071012, 0.7416346789356676, -1.0129523676522962, -0.6351746901629385, 0.442168892137019, 1.877946989000845, 0.23922460307606477, -1.644129318437501, -0.6447830201073558, 1.0274365852549712, -1.811768974877497, -1.341217590269987, -0.5158747366536209, 2.155249329498737, 0.7285235494535338, 0.08918933326984331, 1.9639257052148256, -0.5756858037251922, 0.4258321354042041, -0.40864443799051403, -0.10965960200503913, 0.047509410162321616, 0.6255275536083215, -0.6417487411705448, 1.3137997534467323, -0.7409454461441443, 1.794224541606353, -0.3008376144755254, 0.8100793797996033, 1.1713707754568228, 0.2933624591030192, 0.7121242122586157, 0.3798995202582728, -1.9195719299936622, -0.03769838399658701, -0.032311448643928396, 1.1421241940903817, -0.4896764675575813, -0.6511179553723279, -0.7624199809573899, 0.22683748866739026, 1.092297551136431, 0.3074681382918574, 0.10710505405056801, -0.5072426990029344, -0.36553437088897456, 1.2731243954943414, 0.7661050727672264, 0.19587420944966136, 1.6072257911064038, 0.01860419694062422, 1.844421070946993, 1.4201717487472008, 1.2425299920557604, 0.41309228466649967, 0.6664667605683816, -1.053597336903519, 1.3202493598004532, -0.13836173759588244, 1.6215420473301805, 0.9775422845802456, 0.7419239087866403, 0.7508110744010082, 0.7782604294451411, 1.290720930488894, -2.3291816619728296, -0.2375980783865161, 0.4062438371310648, 0.8506976155765501, -1.4220192271342589, 2.101417918804371, 0.23249024094411577, -0.8933745957034978, 0.7556899515388608, 0.3088234658149271, -1.0212536974928212, -0.37956458993681724, -2.1231767091613594, -0.5811245269090207, -0.5937937029774504, 0.4399955567607008, -2.5542044873274783, 0.3237311064747507, -0.21311207743113525, 0.6427520427259693, 0.5374004008055776, 0.4707841169076747, 0.3691946805846443, 0.8711291426560015, 0.6333047517600834, -1.576673477081722, -1.5333368614352858, -1.059336559669247, 0.5190079982399971, 1.4377466940399737, 0.3780114304930011, -1.4158489441020135, 0.6949089676469983, -0.07286336512691213, -1.3945761054213441, -0.6765033216392501, -0.6653614032551634, -0.6425133890209557, 0.34297587740353325, -0.20606246923602883, -0.5953798352846701, -1.8292601283582408, -0.847946298904735, -0.6778923485286832, 1.4475693887538112, 0.5627802862557983, -0.3856654812409909, 1.3841893447271143, 0.034878000026330715, 2.387432211275251, -1.1720873495979551, 0.38450509043849185, -1.5340829117734842, -0.21352456959931526, -0.8770517691365575, 2.05608173063023, -0.10297153902511451, -0.06915379950401791, -0.9414309407287004, 0.6013631682917762, -0.30060903604547945, 0.6981753633918776, -0.6899697506013069, -1.1954793579723557, 0.17271217644658415, -0.42293260622959555, -0.029951871855361783, -0.3463418426882606, -1.2905702848479828, 0.5479006490914006, -1.1186504724350195, 0.9228523303510344, -1.0022881618266273, -0.9568957443305789, -0.13322856368158995, -0.5359622605242944, 0.4635164747258078, 0.14033337729167064, -1.4684524633102132, 0.1723615466600601, -0.9776588575500744, 0.5530735090039153, -1.007593242529853, 0.4370739685884854, 0.4243621078064858, 0.3400670104209489, 1.5852137278340785, -1.5309883526199142, -0.9472073954065914, -0.4055942044536917, 1.1884592260349975, -1.002018796296941, -2.208116155413938, 0.38369507890355675, -0.3507374724835437, 0.05255559087249925, 0.7020082813711351, -0.7581934910707298, -0.21073081816080036, 0.6790653964982798, 0.3150988998819205, 0.9262851195204315, 2.3051615102212186, 1.9344688666060195, -1.4759252325360643, -0.03273021640335086, -0.5886564629586057, -1.9218850185348038, -0.08456572627597031, -0.8194673271347048, -0.7099181370101508, 1.7040760144313998, -1.6861935580477934, -1.2184743454193336, 1.2929611528112355, -0.7467682774505922, -0.18034971171074093, 0.6662197660857752, -1.094202119730532, -0.0769615596010157, -1.7967361957295174, 0.6757439612592216, -1.2587371704996644, 0.7100731497297188, 1.0833817639351437, -0.2391853538450489, 0.27325401262415616, -0.9976301050391466, 0.4712497040811685, -0.1092083334099916, 0.8627878678172931, 1.3958539692199374, -0.20722774467880742, 1.6667146412714051, -0.7681338420043167, 1.174485945129284, 0.7843740340445071, -2.0075468423544094, -0.26625290116220723, -0.49558904666411413, -1.2297427695622904, 0.4722739556679569, 2.8058080679417627, 0.8190010561130894, 1.6213354039449341, 1.14494730547418, -0.16768523363929172, -0.3498895902780406, -0.8387920590333926, 0.068634528928775, 0.4956596687697086, -0.23135833790961308, 2.0640756513598784, -1.8040197572553722, -1.2511649195572645, -1.9362680898969193, -1.9588205389458724, 0.882204028088707, 1.8283081115155813, 1.3721240077550259, 0.7919433260016047, -0.6775732759158403, -0.0747229483963001, -0.37531886874965387, 0.5784417898282643, -1.2774921396590915, -0.13813019971518023, 1.8375082199406363, 0.03494089403390713, 1.0020786729541273, 1.391392241149305, 0.7141804914531151, -1.2675778576506957, -0.6221600681356612, -0.4549744979092846, 0.6753085214328869, 0.12157274241115466, -0.9702727030419472, 0.24457603189742902, 1.0798249645050373, -0.24356232245187404, 0.5565927172956091, -0.5731125405995244, 0.7646970205172551, 1.6689372179424882, 0.95509570304912, -0.048890335251795335, -0.07729408329585791, 1.4296933565496441, -0.3719182693468546, 1.3043708626161208, -0.6628217407254364, -0.19401005598269125, 0.05867618699249959, -0.7461630633864926, 0.44524409099528467, -0.8852125995979098, -0.694194128365912, 0.9307047555024297, 0.8887752988002157, -0.1983576198206499, 2.653980445775424, 0.45017024395074823, -0.06788022291339846, -0.6711962854344959, 0.5148334304808025, 0.6641651019401845, -0.9427346027541482, -0.948458703984086, -0.46446395906121907, -0.4865515936505949, -1.2924697716142104, -0.9190053779565155, 1.7484983476414517, 1.9578513954320689, 0.43597608872558585, 0.9915813746620292, 0.9895065617478991, -0.8515653042916927, 0.45542451244459864, 0.586776650881574, -0.05368801012036076, 0.44079373830891416, -0.5423101660718359, 1.5668398392206153, 0.03322088636940733, -0.3247023285043704, 0.5169052274681524, 0.9389347912883672, 0.09329720638825771, 0.45020140754503823, -0.6412971946833121, 1.106790270095715, -1.0655087454854673, -0.4129481258327716, 0.7203640564288446, -1.149412568476133, -0.5033229553834356, -1.4667871673596415, -0.7413057812192715, 0.14899625896880586, 1.232691451767681, -1.6448014747667157, -0.31033095126651655, 0.22757981176392927, 1.2190995856480369, 0.3144509649532647, 0.6339596481460235, 1.6033837211554847, 0.09580966065590102, 0.36462613616244216, 0.044165441684095426, 0.24317358243691967, -1.2683585253217147, -1.211482935000462, 0.9332578843309938, -1.2479224986871702, -0.716523428761534, 0.4768925150156678, -1.0448359155508278, -1.5206658091126222, -1.3456858535019283, -1.8567795368581415, -1.0088303348303316, -0.8562874914425663, -0.45967451225523476, -0.9556485502805615, 0.3668541703439101, -0.727451685854221, 0.18450853233154782, 1.322334440862584, 0.5016178567791635, 1.0660201968667873, 1.6256466052919225, 0.09924799064356755, 1.1470794363645749, 0.8661913166695842, 0.05964739774520943, 0.24969503261323847, -0.8973247804531361, 0.3284675768857256, 1.3054757766807248, 0.6326922172978741, -0.12985454584149403, -0.8554920355821438, -0.7074368718778903, 1.2736803130307723, 1.4803729791548534, 0.7875181226283875, 1.383521566955209, -0.7729372957953332, 0.3295232592261573, -1.1782427998812268, -1.3021521687131679, -0.036191882214379356, 0.40285968433150626, -1.171372268029439, 0.9394784672138417, -0.9714262355727503, 0.4604755499387633, 0.5218469775507559, -0.35325758769653154, 0.6497334623724043, -1.0571099235624752, 0.7470596281392842, 1.249182479730937, -0.15005144648757174, 0.8054760909394901, 0.2396860663673728, -1.1100886353796742, -0.4012446814153335, 0.42017373755469606, -0.6752536033035363, 2.098636606056092, 1.859359473926523, 0.887925882655686, 1.436549939225143, 0.011931461397588711, 1.9208218012864033, -0.04270824055323292, -0.02441917603606321, -1.1542857127337474, -0.38030244011388015, 1.46176442502581, -0.04154179003299995, -1.4407467191492414, -0.9561479750184103, 0.18992043720081053, 2.3936852893089786, -1.7300136580546566, 1.2812834354803633, 0.5725403157624116, -0.5775713747374197, 1.5986476798722649, -0.9492312608112262, 0.9817917666471365, 0.20900831525812147, -1.575366974154604, -1.5082946637914305, 0.5098910613475917, 0.14600303132150763, 1.3521249494301155, -1.4715325558417525, 1.0107095173064051, -0.29385408793235174, 1.8158794413275372, 0.10900328922746462, 0.827836386523345, -0.4722696554121543, -1.0361940586349645, 0.33669609630277214, -0.9314205080999302, 1.8558514559967154, 0.012248611296486196, 1.0736160767450547, -1.0257051802459345, 1.741964264611749, -1.503152918027429, 0.375907954415174, 0.5499876154542035, 0.15998829927273106, -0.01713065542081087, 0.007289459337424658, -1.2346116573522024, 1.1464041259205586, 0.42486834514770805, -0.8559973538747991, -0.6462032219640447, 0.8266542605931544, -0.5553969509549931, -0.7839975700261917, 0.5795757694553154, -0.4330444801364925, -1.974646224539656, -0.7880120739240575, -0.8146803750957273, -0.1865227647950775, 0.061900962401999785, 0.5518381825260913, 0.2506133527296894, 0.07925361933196315, -0.6390590321340728, 0.47452029400378526, 0.4999813857756644, -0.10305326846901915, -1.4511302516350153, -0.2329797034822634, -0.7846180165146882, 1.4475762009709874, 2.07554559885678, -0.5000892083113927, -1.058286879677139, -0.4676188603179307, 0.4207781355731808, -1.5439963410369155, -1.409177737632854, -1.178804451568475, 0.15217281289491313, -1.5828508327112758, 0.8797510870080105, 0.2930943000975167, 0.3913615865391285, -0.13150526701628656, 0.55434304880929, -1.57830478976215, -0.28106076101183924, 0.4650489841211815, 0.8333093544779452, 1.1385586664854495, -0.8893831012977648, 0.42391955261105796, 2.0141721737121783, 0.4573908597439762, 1.788089736808741, -2.1137986940414413, -1.031401608811806, 1.9470976172779921, 0.2701134289906908, 1.574445594242014, 0.8923414787452069, -0.6301707882923336, 0.005853001268332357, -1.036991271201548, -0.21991546381898106, -0.05049412440582513, 0.4889222148953419, -0.387928673498181, -0.15571968636573824, 0.2845796095476259, 2.570136466764228, -0.1729182263303026, 0.2939143241256251, -0.008281300274828512, 0.0017652770244134925, 1.3017914023980528, 1.2285839638490852, 0.23754793252378775, -0.8433012123501692, -0.8449798055985073, -1.6582472652245803, 0.4743739254001976, -0.12085074305150768, -0.5320804352850934, -0.045632372071172336, -0.22958180226911715, 0.6262813284284754, -1.8207270671601008, -1.7478364186253965, -2.127814347175863, -0.6915221996999389, 0.18766883934207568, 0.228080766873716, -0.7119284920697336, -0.0018260543078903325, 0.7423473014415372, 0.958442969983615, -1.927160939291251, -0.6971210415349799, 1.7768649232731017, -1.454466238943601, -0.041570753405013615, 0.9885257508588965, 1.6360677225470392, 1.6749500417525418, 1.1847852516198039, -0.8082491553597883, 0.33699339705945536, 0.4582477653188831, -1.5952683561913898, 1.576523506637512, -1.0150056887539605, 0.35531795573428954, 0.1281274865539503, 0.4644237353645684, -0.7852469659780091, 0.41749976862492744, -1.6614484180250964, -0.9814680680873232, -1.106109750272498, 0.1065487933796397, -0.042716364854162685, 0.10415407768472758, 1.3926803133966348, -0.24542735107745905, 1.6687656240607482, 0.5918583220711632, 0.3676535173864379, -1.3376943847993683, 1.754776180451, 1.154589438705426, -1.003852797005064, -1.27561217402951, -0.4210355260389838, -1.2971163994460935, 1.0319330081644669, 1.268631192691611, -0.9041897779181263, -0.21132339839969988, -0.5098428558761675, 0.45422208530164576, 2.9797949861445403, 0.576527656657711, 1.1705199661133354, 0.39432268804975407, -2.2633906897600653, -1.9137436955245148, -1.2009792725300383, -0.29347072069670127, 0.7436457018481739, 1.5972225719179352, 0.4068709900947769, 2.074704749732878, 0.1510890036731728, 0.7531245804561213, -0.29819272376557726, 1.9520981171536231, 0.5814145055798824, 0.8544920539099441, -0.7729349159360498, 0.06004656741036866, 0.882639889398701, -0.6611981690673137, 0.29662807843776584, -1.2044824552253064, 1.4077930844960933, -0.4930796552651176, 0.7128353969653252, 0.3188722645403845, 1.068616216140772, -0.9693452161596506, 0.644076182415676, -1.3717393241839344, -0.3017158195315751, 0.6961273649992501, -1.9402935659188036, -0.5918052259599935, -0.4912139164233411, -0.403115746708485, 0.9338338387962386, 0.10533375745468322, 1.9170431364232274, 1.201601916141999, 1.0838210003982998, -0.12226570351981206, -0.15682111100582505, -0.5423820884313306, -1.1032491890378762, 1.8627066396782117, 0.2768955443498885, -0.3406335312843978, 0.19659224754205407, 0.2932455790042213, -1.002850854650889, 0.9975784219336156, 0.8000147826898738, 1.778325031555387, 1.192981185129062, 0.272534915119338, 0.07041571859409237, 0.13952299649318034, -0.07463133711725044, 0.055662977318458345, 0.30771145049439347, -0.5085276005960119, 0.8044856768375273, 0.7243365381255509, 1.10144635691763, 0.5969432771632692, 1.161922353443423, 1.2054942209760031, -1.7728955600072827, -0.940084018221862, 0.46504816698035967, -0.9074660473842052, -0.5606027117401358, -0.4221652158790682, -1.5228819860515086, -0.23961689855460053, 0.6635513387948504, 0.01373848898152446, 1.080909736181745, -0.7896671781349869, -0.29755242761421474, 0.2285959346126364, 1.0085600908269283, 1.3829683139673967, 0.7418169489524207, -0.3802418140284815, -0.08043422914633905, -1.1850868415443496, -0.17773419220747258, 0.9751866610597403, -0.2181045608631987, 0.7731264903577655, 1.579202378930941, 0.6767350314787408, 0.1824220119743711, 0.12523804500821556, -0.3233421752360064, 0.03612292424165419, -0.527181881783981, 2.5255618843395284, 0.45128583342669304, 1.6255511775634262, 0.5229521132795504, -0.1312178091511726, -0.5389438537746557, 1.8381888395989843, 0.9000840555721247, -2.0551019417834553, -0.8622742671919366, 0.20143509377535657, -1.2463824115625655, -0.304625211416831, -0.013132282027750344, -1.0959337857890166, -0.6400870243952236, 0.6629393880868641, 0.17725492914218902, -1.331355330038797, -0.038911592124186274, -2.4366325139234317, -0.3101631425801978, 0.10782576949267639, 0.7571379074758506, 0.659663195770788, 0.8724644784237499, 0.3143070393133339, -1.4570011021414624, -0.9368423783336907, -1.3534895407990357, 1.696238446862439, -1.9221917575768515, -1.8016284094893573, -0.22471068653221868, 0.4698184573673539, 0.05912442761366934, 0.34009578592208983, -1.7878418102488136, 0.018871437089328365, 0.699160790333966, -1.0227224177243224, 0.34379927763941953, 0.7648731383448077, 1.1827598339747614, -0.36351265653548714, 0.7282608171867436, -0.6012319655942903, -0.7501337311190733, -0.19924001616411077, 0.22402332175937917, -0.8106459864857508], [-0.9300472224243307, -0.1614644438955192, -1.510027943693183, 1.1411282069458315, 0.7618040031884666, -1.2345554378833208, 0.8680014721548703, 1.6221366618459088, -0.5350492391173692, -0.7841786527336044, 0.9988486513958891, 1.6760204773480636, 0.04602410187033708, 0.5529313488874882, -0.6321088244970428, 0.07311472123973478, -0.9215710670247221, 1.7105765313129886, -0.03203869916848303, -1.2182533759953469, 2.052623369210732, 0.04694460618890789, -2.35286405176393, -0.5836096200198032, -1.3499901572608815, -0.6597129962623062, 0.7820682675295245, -1.6242653744379985, -1.0756204476735822, -0.29703408036893775, -0.24399808402606044, 1.1045742048399843, -0.12789636144217326, -0.03452342848691442, 0.301251030781887, 0.001083787435981778, -1.2820875533916394, 0.9107450317905722, -0.14086556162034947, -1.1916823544377566, -1.7209745712583515, -0.27351122853477366, 1.220362507684652, 1.1996066958607026, 0.04017662511875643, 0.5428259415913086, 1.3547991610574504, -0.9966771427108951, -0.18026383036860205, 1.7150256525481382, -1.6245419612755503, 0.48911604974236705, -0.410906198551518, 0.6286266668499524, 0.06448018097191434, 0.6820928766107125, 0.8308440028925743, 1.1281704122205023, 0.4538105276297128, -0.5125349614376901, -0.271176076898968, -2.1152555534662603, -0.18052457084718107, 0.3363881214677019, 1.8131337862501713, -0.7561805361397157, 0.07589643021863665, 0.5972605976498445, -1.7348778574785748, -0.5043827632425629, 1.258847100834449, -0.9286936859208308, -1.6028360240951551, 1.856376200753807, -0.6901335300882325, 1.1765647760082558, -0.9214223826355067, -0.8395317090165767, -0.11893737334195072, 1.4047099730045804, -1.2408784547585223, -1.329315127309795, -1.5977763642805127, -0.77694608689061, 2.171472179035822, -0.8489241760513037, -2.4229954155253552, -1.3649033506926704, 1.7054140697485418, 1.3592577235082888, -1.5427543135344914, -0.2529956745383201, -0.6761476697157214, -0.48929763272306204, -1.8205111345399734, 0.4390444503029458, -1.0876591484289575, -0.2760147314187127, -0.17341837694437803, 0.4544688961306296, -0.8786666230018133, 1.5859965496448167, 0.8050529468802146, -0.34104022386114297, 0.39109581178475816, 1.5214310317149147, 0.8376375000961868, -1.8067456735606386, 0.8783939558182458, -0.8375892217396226, -0.6715590670604757, -0.7769105174282868, -0.07177845498908487, -0.03591800763598184, 0.35421239009129984, -0.8704110390696348, -1.2704435051710183, -1.0087283033612358, 0.6169040321393956, -0.9006334652972686, 0.3851898391963492, 1.3678405009000905, -0.5464891146441613, -0.2763567164414011, 0.9463725426446519, 0.20052938940779746, 1.1335697680881294, 0.08850506584444012, 0.44773561551686103, -1.5687311816728053, -0.5478728932687312, -0.7129445226006926, 0.725037617914968, 0.22447894171413954, 0.041627513545185436, 0.21666329890768485, -0.8555149947648873, -0.8675707396766656, -0.25695326708718386, 1.3773367727967363, -0.2749515161286583, -1.163414801239171, 0.9164710799987534, 0.8516106260839558, -0.4176328405696699, 0.2339206621379425, 0.5949746166725376, -0.06165065347560783, 0.23779121359558464, -0.004052239209659642, 1.5805261697150224, -1.1371251130150302, 1.9189579694047487, 0.5134710510422482, -0.2663604930316626, 0.2100224261425608, 1.2145451278240216, 0.8844726659827875, 0.6515294189734882, 0.32689683298670286, 0.4685166404502674, -0.8955253991795548, -0.4623251926479978, 0.422533755299074, 0.259138099047993, -0.012544961055202612, -0.30573751600713933, -0.2519441664381526, 0.17900991138966332, 0.6741899533039403, 0.534804244934007, -0.9423640226896877, 0.10330684769340892, -0.12034921783071013, 0.2422949024736245, -0.8814328925593526, -1.6962374165368284, 0.9023293184198453, -0.7921079484679947, 1.0000215712558265, 1.4646855965713832, 1.644134001636079, 2.0739699107445886, 0.7935144278951027, 0.6438411316988673, -0.1351836654981182, -0.42455833504582974, -0.14085063950571697, -1.6216857539479719, -1.3774233197317027, 1.450696669489258, 1.0064202517410925, 0.8784945211129964, -0.18344951402022555, -1.540149025585, -0.4260715097487547, 0.16348461784104024, 1.1389584579451277, 0.9270209458627553, 0.6967320620256239, -0.8457904018359185, 0.09708449531194067, 0.31854603334791776, -0.2911422645709801, 0.9051727320715148, 2.0080007433678686, -0.43823248949390736, 1.21354217755396, 1.1065333761406568, 2.0533263617509068, -2.2770193313504206, -1.9782897142549793, 0.9217201257664963, -0.39246865526914965, -0.3539005979705641, -2.2291373997304884, -0.5190833636619222, -1.6737998997993522, 0.49359088552935887, -0.41963332533554554, -0.23442077941113781, 0.8489042956684011, 0.08288496242640611, -0.8042860077019308, 1.5055903262416201, 0.30096235413147937, -0.9027189015101362, 1.0612470721743945, 0.7098453772539146, -1.3485212926365682, 0.20663407976903786, 0.3899830728702097, -0.47365282525975766, 0.1349366394383778, -0.33933884538386566, 0.541133873302869, -0.2534575469285186, -0.3375909858303148, -0.5704071520997909, -0.8783335995810262, 0.4129879814003585, 0.20911521714446832, -2.597342460032086, -0.1026876488033178, -1.0074317007306741, 0.17840059801459285, 0.07717953063716207, -0.606770588912216, 0.3330147226205772, -0.3848103920778505, 1.3888766484247954, 1.8957894662901065, 0.3323369112707234, 0.06069371776147825, 0.9191766076208041, -1.6214374104790006, -0.8510372520706498, 1.2437854953328422, 0.20074346367455173, -0.17761807848658503, 2.0705429197842675, 0.8273488913620031, 1.4615160849653763, 0.5324927721388197, -3.511473148227709, -0.7290655650482001, -1.1429356075826576, 1.6532495633216258, -0.8667672996853246, 0.6304075170470463, 0.8757066956558793, -1.4136269657497278, -0.13744065734009311, -2.301029557522157, -0.0016753513834351817, 0.6436948577858237, 1.4115243598086942, -0.5700627482812034, 0.35098044386664184, 1.8892852364512487, -0.05822844071881771, -0.5067253168922777, -1.0481802146407206, 1.6008850599773092, -1.358203952360582, -0.3975996201909077, 0.4917967925263395, 0.1457655173771861, 0.22136829287841633, 1.3838245819170716, -1.926209238151373, -1.3828400888460486, -2.6271588336297214, -0.6922785798178674, -0.34523668171242733, 0.198881808314725, 1.966712876158651, 1.0030669888784118, 0.2604223331548122, -0.034425714732992996, -0.5963139959505724, -0.3482572033385931, -1.3862648400499924, 1.0550205452135504, 1.4063870014895958, 1.2971809546732056, -2.160520516714292, -1.0124270715734627, -0.9206920714379924, 0.5519963296595116, -0.8029551449976119, -0.8520759710546841, -0.4106706841517688, 0.9660214610324674, 2.1309746605625213, 0.6856171841261155, -0.1421045093907849, 1.8735494518903195, -0.6491469086371529, -0.9974522725208746, 0.2988546814789437, -1.0925819363584028, -0.008596874886685629, -1.821458172347267, 0.472095196175339, 0.4510583101706908, -1.5734083987211298, 0.17901114284311537, 0.5834209658306226, -1.1829178076364766, -0.5943993186230282, 0.19914462491723817, -1.114617936449273, 0.051204325444090475, 0.4576796883679301, 1.137163340050343, 0.13909373813226114, -2.1367431623779667, 0.7946341740851258, 0.07788279774975009, 0.3137914335556819, 1.7398831248591264, -0.5834758635748408, 0.6764054531665531, -1.071872057164955, -0.4658768265303212, -2.501031329800962, -0.4375381090471564, 0.9645898796819083, -0.2771912440773105, -3.010653674051596, 0.6315477074571797, -2.1966776288734895, 1.2795729174846844, -0.47808052771133136, -0.5081495593614836, 0.38122742117101116, -0.9649607246081148, -1.3877899964984401, -0.41767468784431666, -0.4497978101776966, -1.9836853551698366, -1.575345439582058, -0.12748000786029517, -0.6467986058968139, -1.2181024350386844, -0.8949228656583292, -1.1887506985828176, 0.9209912666762182, 0.3695990188236997, -0.7225687637474586, 0.751573128112157, -1.1737894147098997, 0.07356210767819499, 0.6311907744323423, 0.5104187997093158, 0.5915575644149811, 0.0030983851756882946, -1.174716506252358, 0.9743603500380195, 1.3748387366422306, -2.5899665233699043, -0.2565027831562045, 0.3210220826899233, 0.5702058513781387, 0.15302831373173126, 0.4258938793409385, -0.801457088698791, 1.2694975532035249, -0.7842843839450403, 1.3843601984620462, 0.7391858742448351, 0.25187460194247774, 0.596464088218069, -0.41437841428668837, -0.21487827963639955, 1.9271642784296463, 0.12181420565389751, -0.7934225519029843, -0.9295647774290057, 0.5487910614673186, -0.5730926679390173, 0.09952829796437991, 0.005866557192007103, -1.8552623146191576, 0.40881798086907983, -2.3450647820362955, -1.1364141615523395, 0.40047696126862725, 2.5448958224064118, -1.8793058727483873, -0.7939371261529575, -0.640032407831877, 1.0259360586766941, -0.8767830092115994, -0.38095173294931434, 0.008497062760545697, -0.34564562174839103, -0.4571088564758438, 1.1012942939878512, 0.09630889433711379, -0.8182038154790229, 0.9622736515484552, 0.6888740890407719, -0.7958972892292271, 1.228173119630735, -0.548689919779484, -1.3316805620466594, 0.7275203242018614, -0.8927790755115291, -1.2927675505979108, -0.14913576226354, 0.8760588625504914, 0.2666141772768017, -1.3239755029599332, -1.6323167007629316, 0.9905777179403429, -0.15272464595256202, 0.11540881690146416, 1.033206102328689, 1.2942212271158426, 0.02205438600295442, 1.8268190483734152, -1.8003522965052634, -1.116550354819456, -0.6738622648549282, -0.6863212176966388, 0.33105267260416255, -0.00646569043546653, 2.057489261710052, 0.9994132536476881, -1.2794580581146755, -0.3596278579510973, 1.3691171085034413, 0.24173946910723823, -1.1963963209565531, 0.7123315466268303, -0.6862411039310927, -1.797667207077066, 0.49944781099580277, -0.440931109927678, -1.3898923991294727, -2.0029929749845072, -0.14536715342832005, -0.9804343012529588, 0.25939352741168203, 0.2786660317973813, 2.0482888894230635, -1.868934706859028, 0.3639231566228432, 0.3987102162851524, -0.8743694434613624, -0.3385258599627865, -0.26674316783481383, 0.9334151951908023, 0.5796224242374911, 0.4057244670596096, 1.3381637789388316, -0.46101383272570934, -1.1209682662437772, 0.6067965029273923, -1.2753312987310934, 0.6200332245876381, -0.15052287689117175, -0.9968589828387111, -1.716186087141529, -0.3494726304995119, 0.04407549280358728, 1.0931849225181922, -0.5634111227980719, 0.33128907938362734, -2.0394468294439645, 0.5778132289159518, 0.30527554264928786, 0.583409839387291, 0.004867424930838606, -0.1856099158527994, -1.2299880435609183, 1.561464312762297, 0.018404309891779727, 1.1792426910168583, 0.5578288307847871, 1.2379215466697933, -0.295687036281611, 0.48925720670771544, 1.372178549921801, -0.5676776957176876, 0.14007037422976246, -0.5407369937926858, 1.2213706447115675, -0.4371615885256657, 0.3265596489242094, -1.1321911209714755, 1.467637663095615, -1.0482968517678928, -0.6955308311006623, 0.10693708479457623, 0.45906629312174096, -2.002250696530988, -0.12941478822006525, -0.36755206624776887, -0.7148023129333904, 0.33245062856291424, -1.869130628203144, -0.45330643317706876, -0.030285312233411403, -0.5347379951989245, 0.738800709559327, 0.09178697560887489, 0.17446124722972292, -2.164959962882762, 0.2846178730843719, 0.996979532862058, -0.3010174059185798, 0.25275962217426623, 1.7412527020958894, -2.0253522217745785, 0.867599481217665, -0.19597051909561022, 1.1855089444529137, -0.37719433844594513, 2.3229667161067855, -0.24511671065162277, -0.32332605480513876, -0.0072423680560615425, 0.3463718148848801, 0.8286188611412496, 0.7069168730670046, 2.176997389953928, -0.016756726653040642, 0.01531032170605596, -0.36065301588101334, 0.006214877837261261, -1.2828850100813434, -0.17981966908293473, 2.1062880162745854, -0.7842416986713798, -1.3807362300087624, -2.1159583684694514, -0.9070809365798184, -0.485331749372747, -0.7894121805033749, -0.23056163015038966, -1.5426235389415115, 1.4065574315369194, 2.5038394520755602, 1.6234691058376378, 0.3546900127794278, 3.16518921130782, -0.05195891491904497, -1.866041875964737, -1.2130458420174062, 0.05654127363397379, -0.9839445395354828, -2.1493061144618406, 0.32889203002270173, -0.1712252507361535, -0.5731602852521318, 0.3699510654673729, -0.32548514680673407, 1.238287931662061, -1.4243319841572701, 1.4266702989197864, 1.3277883962611945, -2.544253933341077, 1.6471159277687912, -1.0320174247162346, -0.884664612535509, -0.9647679653864503, -0.8504531127543009, 1.0888645800574164, 0.2902951193309011, 1.4137098378928534, 1.7667937490279388, 0.6657336531093211, 3.1614206120918893, 1.781888654090866, 1.4563401907447449, -0.7461480698789781, -0.7984135616398574, -1.2672623593361847, -1.2995867341404177, -0.5524831770719363, 1.0371691152747184, 1.2890827109667682, 0.24618179657756237, -0.3255264872117121, -0.7250663621790161, -0.30327876022528943, -0.4467926220366467, 0.4707129852309475, 0.18500933722847823, -0.12298804873016493, 0.7171970746990601, 0.5787175968791227, 1.424250109813801, -1.3790748891971225, -0.29459229209382776, 0.5178624495367159, -1.8245510436962524, -0.35613408461514584, 1.0616118464919129, 1.2932303488553734, -0.5725717331173611, -0.684031414915716, -1.1702412427908846, -0.04634079687234846, -0.9630914770062325, -0.18649323373454224, 0.39606743642594827, -0.009917199668498246, -0.6039660428373791, 1.9265509828114846, 1.368282505488659, 0.2151979413759346, 0.000933641746331042, 0.8079262877983877, 0.26415940420742956, -2.1192708626163874, 1.125821830291508, 1.2825019784525855, 1.7100914215022311, 0.3011341157187247, -1.1474746250340673, -0.47165029791956953, 0.5356544470835084, -0.036837295944963946, -1.8686088160464545, 0.4500102755139412, -1.197352776469626, -1.0125580303400805, -0.0506246274234299, 0.5665574342107562, -0.06782907457812329, -0.4746454403950632, -1.2220942584911487, -0.37762049571968737, -1.167407262243939, -0.8240153059705407, 0.5868718581600745, -0.43392769078767696, 0.990048934979581, 0.6832309955120491, -0.5030423169897468, 0.42162808828295534, 1.029303843738761, -1.0465324236113902, 0.40685222157442463, 0.7763228287739956, -0.7409665443438157, 0.46918257873905655, -0.3394235700417964, -0.8517430713147105, -1.3250999903794303, -1.1754358364386208, -1.6109971317829224, 1.6210722056182403, 0.9067738943287503, 1.3248767964365078, -1.0697381125622654, 0.2728513623236055, 0.8352851061356117, 0.3945481622963879, -1.5534085415773375, -1.101375293843256, -1.200424144689066, -1.061341421965216, 2.3832126035873324, -0.9264655001806348, -0.367415796700456, -1.1180317916914257, 0.35767779664444665, 0.5271465213055164, 0.08156320132766148, 1.0979474548281507, 2.2167229245891837, -0.09779019614219579, -0.9547527656129079, 1.6718904508364978, -0.4148165338217561, 0.695418975526423, 1.6271289353259544, 0.7359600207712025, 0.8278596886914518, 0.477404250115325, -2.0659115829103025, 2.2303624011834056, -0.8559800867180397, -2.4011775125550794, -0.9832718926140627, 0.7077636750879235, 0.5349198668100881, -0.5243811103242494, 0.8314812663671922, -0.3302504001903715, -1.4323612516051822, 1.3268428858809254, -1.9014267135963268, -0.8753438767305629, 0.5905501052591589, -0.1963261723507475, 1.6465836768718178, 0.11407848198568948, -0.6364853061825756, 0.5623112669192666, -0.9223057190828043, -0.6008425575717349, 0.6522588155466436, 0.47956421129234533, 0.8566184804422011, -1.0331982801421207, 1.3778601528394385, -0.7469910184826626, -1.0836703804730456, -0.39267357293741717, 0.014510331371003472, 0.01642110427986778, -0.37722450439506433, 0.6327982556416983, -2.0795400922354026, -0.8905927295503528, -1.3917702040576216, -0.33103992563324003, -0.8352717896037297, -1.2599330652367604, 0.5058302150566372, -0.7534955232430505, -0.867947589547153, -0.05128955697562289, -2.231159492887455, 1.1036418131812247, -0.7467156847652197, 2.584528400590293, -0.1782580448887705, -0.5094127852269258, 0.12297276823528216, 0.4205498165522982, -0.33077923523826247, 0.4378364517349924, 0.32784705700854705, 1.203589303810481, 0.01622163953445202, -0.6908663986677407, -0.897639348942809, -1.417139152984563, 0.6663325796041608, 0.2708223735163393, 0.6184127115226927, -1.412878663093635, -1.265868126017644, -2.585104060167228, -0.00609271898231452, -0.4353095793014366, -0.3149321182817983, 0.7705313628892747, 0.6006637141187576, 0.3592032039938069, 0.02182592716049027, 1.2000893264183419, -3.6547808041488943, 1.7782056302567872, -1.57076720557868, -0.2659303487099059, 0.9560899095975101], [-0.089502099852099, 1.5185042333146646, -0.3192228447719505, 0.9222577024451802, -1.6013264454704579, 0.10357382322084865, 0.05600253025312022, 1.3275160043085301, 0.1702027643765577, 0.31785324075074856, -0.6054348062835433, 0.5099535613579173, -0.2289194409739829, 1.540069079732753, -0.39720502126028057, 0.8638513542907814, 0.6848957228968504, -2.487053868225287, -0.42694063580594827, 0.6223167019596944, 0.31237016878631213, -0.22321480347106792, -1.8939155211393708, 0.6127356015029184, 0.12085175305421057, -0.4690459811896843, -0.16403333593276426, -0.18339487735453028, -0.7360188951992931, -0.19442347402905447, 0.21571603463657044, -0.06402518912124129, 1.038166759488194, 0.4063282782005535, 1.2116543636869097, 1.1327915343350528, 0.7462906358454022, -0.3734465479517421, 0.9907094222510991, 0.7246175588922811, 0.2555459278779034, 0.7671113793695807, -0.6181981432051813, 0.5476584250105552, -0.6569575902163611, 0.4755231220634943, -0.8670836964691367, 0.517173491104303, -0.6058162425051182, 1.4260840765376444, -0.0030946267391038433, -0.08123014743697096, 0.22231762071176603, -2.1481586370048253, 0.47386629430803906, -0.8356966818860806, 0.26263072759049905, -0.22519431411923957, -1.340852328759446, 0.40896146373733105, 0.7271153252114618, 0.45991512700922205, -0.2307419729550076, 0.3195655315959903, -0.31895102654608065, -0.38911928542477986, 1.155617455875526, -0.44921022087259704, -1.3306551288636779, -0.8086927651110943, -0.2562241652132465, -1.0926526082912666, 0.7821511873800504, 0.10925345829852132, 0.9358442084101182, 1.7332263948048618, 0.052916662565190335, 0.090532516957404, 0.6181074493886967, -1.0918526374514568, -0.4227041644857222, -0.5774323080208714, -0.45682368938527895, 0.5092246534931272, -0.9669128833618444, -0.21442904364815968, -0.0421280601582577, -0.40375810254273653, -0.27832025234368823, -0.3813670048456334, 1.7981668365591932, 0.12262457260318284, 0.6941489171263667, -0.8324561780813622, -0.33979618319385174, -0.9910156541256575, 0.17778431483178234, -2.2701440022160426, -1.1523017650002014, 0.9860905836226579, -0.9956886515585287, -0.3959231502492298, -0.037977926322296664, 1.6335936791234442, 0.9691853270962127, -1.0725709055696828, 0.9586304351606075, 1.3001074038225757, 0.17694058395677414, 1.0304534425416993, -0.26822735279330095, 0.5928036874622941, 0.031193255765138324, 0.3019233523573551, -0.9809141663909798, -0.012545909598244368, -0.8888612291986028, 1.0705023422003759, 0.664699923325358, 0.7342809592488762, 1.1629997382981423, -1.8102997121961297, 0.21853647448711006, -1.5727395950541176, 0.5781969787475436, -0.22384966517527494, 1.955167818806214, -0.11968344298653415, 0.1530342070575797, 0.26399303853321415, -0.7804703236355164, -1.9728488268378326, 0.040049507073295326, 0.7412317058889637, -1.3190336627098058, -1.1268022406634568, -0.37448219906176455, 1.3916167212034907, 0.5333115319669721, -0.8256672559291514, 1.6671611117863097, 0.9228646195123504, -0.5317767443100514, 0.499792503638881, -0.5024070328157337, 1.2109797218438154, -0.984392957544393, 1.383363681503737, 0.6428687894292435, -0.5996994616679848, 1.027758431676351, 0.004022345249379449, 0.6035744200766958, -1.360585565394067, 0.11226369268684243, 1.5366703420094068, 0.5600898294208132, -2.0704307015725534, -0.7071767618728277, 0.935466569014738, -0.5590772089576835, 0.8533160132427421, 0.11933703803525747, 1.00976195080217, 1.8267754534605252, -0.21259125287069636, -1.1561377648354183, 0.2929290411355395, 1.1943727358255867, 0.9535889465912826, -0.5301789742922067, 0.472341586927583, -0.35878218389344047, 0.900546884369413, -0.6250847801443731, 1.2468782482464629, -1.5526348027059316, -0.6940744195032909, 0.6773091780388757, -0.23282188917295252, 0.675073327936202, -1.87896927778258, 0.9649208570809287, -0.6108549267352194, 0.2763661798641655, -0.30626134055552173, -0.19456566789279112, -1.024427823936449, -0.280214475014951, 1.6658972187522798, -0.43573884565544707, 0.6558228203369495, -1.7431138549514562, -0.05677548089899688, 0.43280738075825426, 1.0723305692297935, -2.1518428443769135, 0.6373020609537301, 1.4508130475277865, 1.0448472050438273, -0.5681544818806696, 0.9226754274630881, 1.0820090992920282, 0.6016874482153215, 1.5449795766271188, 0.4375109990730435, 0.23836551198096811, 1.704101429906912, 0.49098595675383533, 0.6190027077090893, -0.6300872350214699, -1.2267978719114605, -1.0722363892198925, -0.9095252715896686, 0.8521990756356819, -1.612277219080437, 0.3141265219587735, 0.008701688461228327, 0.3543060514002604, -2.273386973674998, -1.56143538095309, -0.12871046308015405, 0.5026407840854797, -0.3802717671544134, -0.8366381715316562, -0.18282085425457437, 0.810645088216141, 0.7624512614268272, -1.1214569240848091, -1.4471244061943076, -0.24141071848496454, -0.026269210504881037, 0.45674910974791594, 1.1947195870913279, 0.9847223850919785, 0.9038335137413963, -0.09199743363672276, 0.7930091217779198, -1.7612717420816826, -1.4261565601919353, -1.266586908146589, -0.5681352896151629, -0.4521296713063192, -0.20903600598857655, -0.5944675427156167, 0.6866468400183177, 1.0284511916542622, 0.3738301117910362, 0.6737319945977878, -2.159502988771516, -1.191214439193084, -0.0015429420225201364, -1.3249615961620154, -0.051825316686476504, -0.38354769493430785, 0.7169851014588999, 0.5928559025101126, 0.4647782141121781, 0.8282449712683023, 0.778522192397367, 0.3259985902668457, -0.1197630982686493, -1.986235891108893, -0.12796784759067945, 0.4118416664308757, -0.8366022516397249, 0.4010142597100277, -1.6283843391528519, 1.1581084907261774, 0.8133820591617769, 0.0838249678121397, 1.178582967232673, 2.5983473713122534, -0.3918595297884067, 1.256018576247382, 0.4848316919890699, -0.00752555616877047, -0.4763289642226103, 2.5081724376855576, 0.6532819032823708, -0.15386990920509472, -0.09091810402719622, 0.9172015733850952, -1.0762755925186063, 0.7417314941921668, -2.415545992660332, -0.17592815718220295, -0.7273179853672237, 0.8844391288197284, -0.3978164651600536, -0.04398842244597346, 0.47787403431089637, -0.3174455408315077, -0.6129097506743869, 2.215748872812261, -0.5765887305856883, 0.14937484234686724, 0.9763460117439643, 1.8094839606877826, 0.3206467184121103, 0.5009915409963792, 0.9030638000681482, 0.8205619708980474, 0.22654206780022382, 0.8570772300602373, 0.9160445825959778, -0.25766046851555335, 0.03409686414588375, 0.10517087831226977, 1.7749215493988526, 0.1663791383647771, -1.0213887680686908, 0.7316231703324733, 1.3588342140360175, 0.41003866181830323, 1.6665211088676741, 0.2231749982863735, -0.6730452706452396, -1.5136583043947647, -1.0965339888642078, 1.3778657036771491, -0.7109416564965277, -0.6815045462439907, -0.7350550060938639, 0.19168902147986924, -0.10314404253338287, 0.2702837771393951, -0.9052557521248357, -0.3175194165825098, 1.0220420780635702, 1.3876339415233863, 0.3827660712774421, 1.5049240584021664, -1.5438225026277155, -0.9400960988429388, -0.022657720910425037, 0.7049410452415429, 2.0351630515726167, 0.08520262766699893, 0.5120114820153835, 2.67161939339362, 0.4552281524394869, 0.7729457873400171, -0.21870555172209816, -1.0244495013113109, -2.456511038995614, -0.17585667484476933, 0.7891137158863821, -0.9295856942538171, -0.37255688610248844, -1.4487047243427402, 1.1963888199990704, -0.3367153642221107, 0.9373713996913364, -0.7862359692316169, -1.0946051667557917, 0.15843095879391247, 0.41171342758527035, -0.694851698210796, 0.7697571056743181, -1.1168608087249416, -1.6299639301964237, -1.8751387834525175, -0.30071465115278534, -0.9120218718078617, -1.182539922205545, -0.26120068547380126, 1.5379007306488819, 2.077248487310456, 2.4047065735900075, 2.2382243178225307, 0.29792201708658034, -1.9873497119406436, -0.6368658535207435, 0.13569540695611074, 0.10231658644266114, -0.6507624848951439, -1.1706011316371074, -1.6324610633642695, -0.3767680888708429, -0.4604845879114271, 0.8750688206972244, -1.1128441546779664, 1.915121858128241, 0.23251415903298014, 1.227628087802995, 1.2693796605345082, 0.9163683369417429, 2.287254362402473, 0.3559521380010395, 0.047120320057158153, -1.972534037431755, 1.1090722394991708, 0.6628842959119774, -1.8861282908412478, -0.19794182941091173, 1.6799561823838216, -0.1398686850507978, 1.9375222472334415, 1.965184044717362, -1.8058897616349283, -0.7816061406526473, -1.985376368578926, 0.4639305165006629, 1.4314323790258587, 1.051660040294844, -0.7041501963898894, -0.0764789125845595, -0.45612135741130305, -0.12738886277772338, 0.23686560638453943, 2.2319032973881145, -0.5006992800414585, 0.9616609536708611, 1.1104297970562174, 0.7075139571992298, -1.452060722968754, -0.05580616510521718, -0.5870830184714859, -0.07107857217630494, 1.0516419493910185, -0.19562357799899538, 0.4105922726088351, 0.24880897117454043, 2.3292127600055967, 0.4261285967650603, -1.36564496272609, -0.6770979500711202, -1.2621520763938774, 0.9358049361478029, 1.3843001841797915, -0.8698654310647683, -2.26938775561473, 0.3831076007726489, 0.029623526848820164, 1.5584359431454515, -0.06129403745706627, 1.2021486170721212, 0.10731389812719472, 0.6782545182134364, -0.45826866840214714, -1.0891858540492123, -0.11124289642104099, -0.14978547815765855, -0.9688113289049315, -0.4297053498554345, 0.25648651920548926, -0.2102871437799328, -1.6134980548670204, -1.5036491711589632, -1.7755901200010202, 0.9496837487728679, 0.6085438932145473, 0.576250411756634, 1.3656577616742474, -0.5178240609070311, -1.3199050176070781, -0.01744542872779367, 0.5323961374737503, 1.0464379451211525, -0.5073069805659515, -0.445814651817821, 1.1571461079870262, 1.5501645968490458, -2.9352958374128164, 0.9667220803827428, -0.4211286903164288, 0.6757318650065711, -2.1983209207827112, -0.9393716094235712, 0.3500388297699042, 0.5692278463063417, 0.3524236180798966, -1.251201644761761, -1.4641202174768704, -0.5524961946431948, -0.5834855483532919, -0.887545114324908, -0.878079371930918, -1.3301863176773123, 0.6615780765542806, 1.019531618278993, -0.1246832931342815, 0.48121364644145487, 2.364079110941543, 2.1406907593881894, -0.35798958233189043, 1.3226860681956358, 0.5063109930300803, -0.9072113588345369, -0.7515880754477254, -0.6192621565603034, -0.9108462541494402, 0.37108565795610277, 0.328068062171567, -0.4854629317145063, -0.2951641289919642, -0.1217675393897347, -0.7560080493449141, 1.2780451305493123, 1.993511123959967, -0.7725218161094707, 0.3317781637135862, -1.1287411166682828, -1.7260077422577358, -0.1313077953884201, 0.77846922649366, -1.0622892109230573, -0.5150309462112738, 1.8345618339788994, -3.361640840928905, 0.8748872011873473, 2.002575375571481, -0.5712232656201794, 2.845700715531494, 0.46555613744260765, 1.7530845535508839, 0.3877397033397101, 0.29927353981705224, -0.12414061968287474, -0.791431624723506, 1.0540946240370908, 1.0194456835276002, -0.16890423512414826, 0.07476664115588376, -1.7918851578443906, -0.22029005141827318, 0.0015936554924519443, 0.5056690013069846, 0.07636639249851238, -1.1198973057695298, 1.3961753227287084, -0.9069602524346525, -0.9292746545179118, 0.23345535298463313, 0.23902980288524636, 1.7822735166556416, -1.0778644738565755, -1.3101067694799613, 0.5968966143371536, 0.9761133354212661, 0.6559430079072969, 0.4821940337315708, -0.09770092672974526, 1.2207566778435541, 0.1037742976118464, 0.198565570165851, 1.1855798830566149, -0.4824307831933823, -1.2266402613831529, -0.909239077446546, 1.3467455514766282, -0.8534579525090077, -1.629732256957278, -0.7084309250328998, -1.1219371682705463, -0.40070696114486115, -1.4370779669036564, -1.1027838921585882, 1.5195248708891662, 0.2889735270782776, 1.0650066401113458, 0.8555439676424286, 1.071236516061908, 1.755344296236833, -1.9945865096421331, -0.4375366632229507, 2.043021104548119, 0.4563492208271492, -0.06272545650912147, 0.43588377090581143, 1.1523213979321791, -0.45570983671115095, -0.3686305375128766, -0.6054802953594413, -2.23148507910994, -0.32241241535238596, -0.6014418084718643, -1.2369588391217445, -0.5481892324848759, -2.8830244699485683, -0.9249893537321793, 0.09922570446942866, 0.5643861328257181, -0.7961717413763609, 0.4422988833548281, 2.0211451741444177, -2.2042845764405103, -0.04995534222974443, -0.7130260631579285, 0.832636541984318, 0.6782218382860626, 1.295471450488675, -0.23420573339893885, -0.9273101814580397, 1.1316669662281171, -0.8800380369474559, -0.3750156221173006, -0.3367256420232797, 0.26138640912855143, 0.3656806631307668, 0.17518013444711023, 0.12221196258460737, -1.0282733121466023, -0.4629349508095102, 0.0164122111734169, -0.05820994407629172, 0.2569982051562898, -0.4895877967334445, -0.2338349226487123, -0.0861582963942989, 0.7815443991370473, 1.719371160755139, 0.5907909678385053, 1.285003257309291, -0.5359418198666139, -1.6773604686671697, 1.2122607241497567, -1.072754757555822, -0.6129433961572641, -0.9944116841764994, 0.19635607550396347, 0.5103120135119561, -0.6456621953762673, -1.0127250599722888, 0.0484805522511892, 1.3961802232304439, 0.13774502159482346, 1.4845862699335426, 1.2043657909992933, 0.11294453807505318, 1.020055701914681, 1.7901867683403967, 0.5196064032128035, -0.31290270552241534, -0.1560211855316074, -0.9267786557648137, 1.784642793785349, 0.8049482392936388, -0.23198673883898083, -0.01705986295734747, -0.5086870647931023, -0.1938801260963841, 0.18860289075960715, -1.534985408149428, -0.2143180896527998, 0.2646079073322191, -0.9114149359596302, -0.27367717550202686, -1.1564438195629112, -1.5099308866298564, 0.15054840942701092, 1.1002428977251666, -2.184743644567874, 0.12017593565386406, 0.3922282865016943, -1.2320589284927306, -0.046029193303267886, -0.8200655960513658, 0.15970155697801203, 1.0429422811393594, 2.067848460437183, 0.2280600374716782, -0.538952982826951, -0.8706836118921772, -0.8857063121351652, -0.14602094423242803, 0.9060459706736743, 0.46277054219397906, -0.07937009035059236, 0.8151757774886246, 2.2254519821198153, 0.7288779626483749, -1.0142033515039577, -0.6208570552981028, 0.8652757018797663, -0.4897729930185023, 1.8037927074314892, -1.8558924824266312, 1.1463023286178988, -0.278083266527542, -1.363839033748623, 0.10217267220741486, 0.4715370492010404, 1.671866676679076, 0.49761462980503496, 0.5214868091892919, 0.04522517796855767, 0.02413282570194481, 1.075230638324819, 1.3861834281981087, -0.10798195438728521, -0.7042387675907545, -1.1334220349072217, 0.33106285860129536, 1.320625128230357, 0.15187721150181996, -1.460034490491476, 0.09829699288129673, -0.9408879550389225, 1.1483876051441035, 0.171239539530306, 0.9679969939919902, -0.4979660316268487, -0.10185361472226338, -0.7273416994169626, -0.9184846320856265, -0.9089346421548182, 0.08107293020367556, 0.27965323998275404, -0.3928210824973337, -1.6471780790423056, 1.0584978424255622, 0.5282627065353565, 0.34637693212783793, 0.13407113849923644, 0.7796786584774263, 1.8933803485113203, 1.508281532861507, -0.04307959319303052, 0.7713869891955966, 0.6598844825379958, -1.228312565511902, 1.1140872269984963, -0.16695490045198905, -0.914236915760374, 1.569944973474385, -0.3638954272825497, 1.5943226349044255, -2.6377150288895206, -0.7161450329066876, 0.1475980006532537, -0.26255245743388045, 0.01712611226783619, 0.9130791629873255, -2.4899387600749825, -1.5091288278268475, -1.24253264745503, -0.5523745685123582, -0.9541691764468936, -0.6270837306342699, 0.6296593518448893, -1.9838057319061013, -1.006135953293518, 0.24697992890909937, 0.19726483212171483, -0.10815077143067042, -0.2624274821009594, 0.44357481453937586, -1.1788073703963269, -1.528159934585443, 1.3345137761354255, -0.10491248777511207, 1.1503230870795342, -1.2583993018713604, 1.3819278190796884, 0.604461492119518, 1.0855976051667289, 0.3516184206326052, -1.3857392763955951, -1.0550163374651422, 0.16143401702772472, -0.180662178927987, -0.8880599784076598, -2.437752045917208, -0.33944650495979445, -0.6831467730572232, -1.086294372357345, 1.97123441557165, -0.7244798022857294, -0.212783815391649, 0.3998664125323677, 0.42555983676396264, 0.4379940115630788, -0.07028713838785025, 0.29615415530282824, 0.3280850331059615, -0.1505723464659891, 1.2280121643095692, -0.6284326495636229, 1.2038913884446534, -0.5268391051072048, 0.42041495573764753, 0.07777932180472899], [0.8570534311896353, -2.2683127319322103, 0.6549781174835256, 1.1750931186518458, 2.6043824413174477, 4.118626851877304, 0.1347970593189259, 0.29816614097272204, -1.9576558045819645, 0.541002431393391, -0.12204839416839108, 0.6212184325865638, -0.7219090008216534, -0.872424388762594, 1.782403438467154, 1.4945913389679994, -0.39543819063056357, 0.4400623029364596, -0.8568982188955238, -0.8235233451981872, 1.343953449414342, 0.27884369698102573, 0.17263552858281797, -0.21006287066232068, 0.6103543868833645, -0.9902181969176564, -0.7867220864051565, 0.5614799121935337, -0.43347479708550285, -1.6036096361589733, 0.7434780421495525, 0.9196700583146786, -0.2288258768966763, -0.5165313329452197, -0.09874550332607226, 1.7631817142646142, -2.2514944235795973, 0.12172904477957157, -1.0288845522555845, 2.7583691714670433, -0.04593400647456981, -1.5080195078551355, -0.2341783335196268, -0.18556541377070038, -0.13651781050292208, -0.4529658035388722, 0.8593743740243396, 0.8428481787187123, 1.1071629743990066, -0.060669366351347495, 0.06363804761660227, -0.2578566983720724, 0.010543302075519857, -2.0111096715642596, -1.1427634805452551, -1.6344514268298616, -0.19334664025887155, 0.2293427298648924, 0.6364652231430319, 0.8301882641636424, 0.5635087682776697, -1.1383023296078734, -0.5060956193409614, -0.1205686708611067, 0.6476164506911893, 0.6112337883158594, 0.04645435129307716, 1.530454862977206, 0.5868886257118112, -1.5051440744272129, 0.4265061153872673, 0.2413409057028562, 0.6822565262071442, 0.46510564835481827, -0.3281398047079593, -1.2924305178108504, 0.9395130302852566, -0.8100003056131322, -1.03271205801415, -0.1540489686809681, 2.2734731960977177, 1.3266603361079894, -0.5394562524218045, 0.8390140299369003, 0.04750290755412046, -1.6060435847433425, 1.1515359793342628, -0.39700619731876763, 0.22289535155687912, -0.08043928347413358, 1.3844987026118232, -0.34139513849423475, 0.4330067573617128, 0.828775456082975, 0.00923574349942235, 0.23089183550956832, 1.9961587256970754, 0.7711288098930035, 0.06792001729708706, -0.33132234344897793, -0.11084663951025905, 0.9196441689942944, 1.2838925351065766, 0.2869539692816517, 0.025356793813091735, 0.5639544186264631, 0.18042366714449856, -1.8587289696924327, 0.7962281411262174, 0.23342181920842042, 0.1229363805216728, -0.09596219482739594, 0.9976316541563526, 0.7896345422050483, -0.5596720423137437, -0.7951650715484522, 0.9816795415332891, -1.406370959588587, 0.11594011115279637, -0.400713290911259, -0.262059410431437, -0.5944911679824886, 0.15286128523220477, 1.5798843377162943, 0.5090390110399832, 1.7895167359057766, 1.1836193240830264, 0.7808057786478277, 1.7580325250458917, -0.003662660932489936, -1.5661193859631843, 1.498092371183737, 0.14659027476804476, 0.8701141329984855, 0.9182312784258939, -0.40578021156075117, -0.5253783681563096, -1.3652051779828813, -0.4186553560752139, -0.466086726279976, 0.623319514175761, 1.582231275041863, -1.0856527847067876, -0.6165568407056863, -1.2601133798691493, 2.741050097331291, 0.5360992903063619, 0.648089924033922, 1.5510324735086913, 1.7724884480601404, -1.3677486572600572, 0.5713805197450312, -0.5972265643038628, 1.8422871495725197, -0.1266714197279638, 1.2234598054452204, 0.49104240483975997, -1.406050557008267, 0.718868882339805, -0.27051101574313013, -0.7874367043809147, -1.0335702233659392, -0.7510900995556571, -2.157803836593474, 0.014818782624739815, 2.455041657792296, -0.5579770123141813, -0.1822203003918979, -0.6491337141604135, -1.2127145713265794, -0.6393686392278632, 0.7639717952326285, 0.9238108303415288, 0.04734420398050833, -0.0399626344336894, 1.5526702904332272, -0.9898318225784436, -0.5495021703190223, 0.22225986740250553, -1.8401988513962577, -0.8740260910381841, 0.22840202892707898, 1.9072542834314876, 0.9313490431998673, -0.28711931045942723, 0.40013472929649596, -0.08265039548658233, -1.068809759917864, -1.354855463284924, -0.12893731463806912, -0.7494238856017286, -2.007940819848175, -1.521153027855621, -0.47278665564593614, -0.6965763384727095, 0.9536592104062673, 0.4675118895803329, 0.3666324461672293, 0.7423301574638997, 0.3245418693910834, -1.3322643637503304, 1.393920979268499, 0.3874513876197286, -0.7835296780973081, -0.7006402179504531, -2.994617562173523, 0.3594490590728468, -2.7924889841153195, -1.5160345206861001, 0.5835884898310378, 0.13072265594166638, 0.021842549804910703, 0.19017423094514005, -1.8398034169616968, -2.0088727865730203, -1.752851485516704, -0.7345287167980132, 1.2272201842307144, -1.2463608884492685, -1.7185731147101664, 0.5350182901885437, -0.3863894793656143, 0.1327251136799554, -1.2969845025044986, 0.3340417673498839, 0.8151773992320923, -0.682559424312627, 0.24537408889512577, -0.05315674832479479, 0.40051948422621814, 0.1635489142505688, -0.6735586475541617, -0.5832708434689629, -3.269650050734967, -1.6867923911370764, -1.179661127248457, -0.6891092819111084, -0.4541571359217774, 0.8782600701177166, 2.9068806392188122, -0.6364119745803383, 0.7718510722511909, -1.984056161919412, -0.5336075340671734, 2.006358932928809, -1.9706651941997078, -0.36478344390219125, -2.567809980539927, -1.0115092647424817, -1.2643247278315792, 0.21239946377574245, 1.3566546199191314, -0.18516786540742963, 0.7164072585223487, 0.7321257975664097, -1.447880831334699, 0.6414621560489484, -0.6753490755839433, 0.10750097784760783, -0.24912394782739197, -1.5209806450199501, -3.1815832921540848, -1.2284036855270148, -1.0559289402599263, 0.18795622818647126, 1.0727766937654335, -1.000127899779348, 2.3232873107614136, 0.6197818518221461, -1.5097238226248662, -1.5782857750291392, -1.6927413975502388, -1.4336760968597777, 1.6602194835319934, -0.6772130611224723, -0.9707301151793258, -1.0309914831827867, 0.5087282967782728, -0.9643235981057318, 0.77217912189416, 1.7259776102341806, -0.32472336454280953, 0.921425138894155, -0.816479188633471, 0.18398323808134856, -0.12818235095275554, -0.9656557094427121, -1.2598661136062879, -0.5221124138708843, -1.1468266217834082, -1.1404826721923123, 0.34147505992159055, -0.21849924943366678, -0.003364114827901271, 0.9160707292490605, 1.2744589939596336, -0.6310956071340448, -1.6745757968209143, -0.9571967024162837, -1.2984079631469327, -0.04109731052216548, -1.087063402841815, 1.9258685875829609, -1.4780100479178562, -0.7171671256691587, -1.7060634668811048, 0.8065529585247391, -1.445689151159013, -0.38542103784948745, 0.7562175915255361, 0.506022645715061, 1.8786068369097073, 0.3480746720518087, 0.3317309867111254, -0.5557651822813807, 0.5796293146681918, 0.571576522891383, 1.111151965992541, 0.4680360110911043, -0.47096950550356065, 0.4337598742515606, 0.028981280191449917, 0.5478862159982657, 0.7552036065669198, -0.10135768278581926, -0.8844553048438782, -1.8593415868019973, -0.8118219645537277, -2.0119105123847025, 0.5940655040036402, 0.10323610219957324, 0.5951956982963809, -1.4680014337119045, -1.4872688163844885, -0.3184127963876951, 0.11767873596673126, 1.504936804546103, 1.0946122919396242, 1.728201774284804, -0.3256233583026884, -2.1601828514415975, -2.5979123535380446, -0.35421541458381617, -0.2669439174445306, 0.808355825588413, 0.8525633930563594, 1.1561375660887105, -0.35570837348015727, 0.011508901709540574, -0.11003395624959723, -0.7048860681146991, -0.43423392393103316, 1.1132907983337936, -1.6573119065338027, -0.8838445298799287, -0.5167113705562396, -1.272111798456445, -0.5213157076283683, 1.0911124715808023, 1.3069457563650135, -0.7060796848935551, 1.2409686002286606, 0.12796436151348073, 0.3135221502061386, -0.5516670069412062, -0.7477856615173847, 0.17325102777724705, -1.3212388785058076, 0.05337243702295104, -1.0748598771667028, 2.067474159225291, -0.34902210007234835, 0.04008580876233803, 0.38712470791490317, 0.3973398287331908, -0.06757870578152075, -1.1607862084458913, -0.3758897966747073, -0.00983390366479535, -1.7082224110323034, -0.25259772486834486, -1.5742560786259858, -0.31964777806538286, -1.987481617310914, -2.5871441949737433, -0.8386642051968759, 0.9767412615035158, 1.9315973150164214, -0.750702480444965, -0.002097239318410182, 0.04239228885110775, 0.8236114575778819, 2.5353164119571505, 0.10462487652488126, -0.5646841831095256, 0.6795270839063927, -0.2897245813592829, 0.04110680476340114, 2.106295970797551, 0.07543450082120583, 1.6726452642034992, 1.0510292424670715, 0.49546829867317593, -1.3243020020593714, -0.008312021752361252, -1.2665997666937656, 1.0681169906514854, -0.943857485849913, -0.10838754243527501, -0.8354032101705372, -0.13854546666997505, 0.80510154479769, -0.17127646679490025, 1.8876322119282474, -0.19043193611942266, 0.8515940232607143, 1.0830461479185503, -0.2691375144484799, -0.5292294486668735, 0.043308181119705594, 0.012446917927100228, 0.4596504838302427, 2.239837690244008, 0.7697042848792836, -0.4594052539412698, -0.296055228909836, 1.9030906566269017, 1.7504175350261297, 0.25102801672801145, 0.4288967094820425, -0.5351234921489676, 0.7874216209326345, 0.3150461538455045, -0.09742015855216303, -0.11158911143375116, -0.8942737999185569, 0.6193913995553232, -0.9448256491904069, -2.322142643196293, -0.5167981138159634, -1.0917713840712366, 1.5686995037629858, 0.8453804817543166, 1.8156529918699635, 0.4649520016499891, -1.9383259636946486, 0.5010549288638532, 1.6109086349434119, 0.05238069129663889, 0.5809827694705583, -0.07147613562174494, -0.8942958296032759, -0.1833993322684443, 0.9311232479050389, 1.2411461946778555, -0.3505464896620408, 1.2677258825954056, -0.903075573714314, 1.490753731684431, 0.11903968387447242, -0.9824044869975838, -0.9770480018482021, 1.0801510480405159, -1.3941822253542024, -0.2643884813650233, -0.4823710440925157, -0.9749449064163571, 0.7590468535665184, 0.2586916066757563, -0.22407101993302855, 0.13922493459914226, -0.020722712054793264, 0.1657450100395085, -0.0924978912532765, 1.8107160614478242, 0.1985604366491717, -1.1816795011751755, 1.3496131637949424, 0.0863916905064851, -0.05209542441268856, 1.346675826391856, 0.4310913666054229, 1.109858023983722, 0.884196666160736, 0.1547031694761096, 0.7474759309784327, 2.177986190754247, 0.5444725495494133, 0.6060486555401327, 1.099677958501231, -1.332137999597594, -2.608218742380928, -2.6341001896437195, -2.071349285436756, -1.741669642026857, 0.9191901325015807, 0.33869857995259367, 2.4423924897102065, 0.3935305567584641, 0.22175236103561252, 0.9990157652655216, 0.1688028968307662, -1.6773732758924207, -0.48953042132971836, 0.6863194142760806, 0.5407328227156312, 0.24933642180925034, -1.3095139415782804, -0.45242005664754914, -0.1361804410109991, -0.3985993673184049, 1.0871249971909902, -0.15364322981724116, 1.9442419889053069, 0.7708608857410947, -0.23605595031419727, 1.2034976865861813, 0.45827182585812415, -0.6418168404364367, 2.0572156153686847, 0.08641091926046582, 1.2039543292720152, 1.7665995535379124, 0.1966382703693576, 1.8238792713282428, 1.3679695794270932, 0.703573758263518, -0.7835696324923284, -0.837656329422506, 1.6868126185039556, -0.695565199316789, 1.867167691861202, -0.9404721950329055, 2.54901499637553, -0.6725245345102107, -2.3110266299204913, 1.2164343467545673, 0.21547887431404153, 0.019355565860508732, -2.238852409607848, -0.24332533976320625, 0.40053630910981286, 0.09430538761322176, -0.11882300554356019, 2.5560564313341008, 0.8407815974694132, 0.612675650003255, 1.550911532132016, 0.468190477174513, -0.34873941750556453, 0.9217701428020287, 0.5547154332573256, -0.2622322536794304, -0.6988564232322267, 0.0010917506012458069, -0.2083723210863325, -0.8980432300462737, -1.294145596181412, 1.205962415862612, 1.7310490169593336, 0.8750767442560877, 0.4896957483440656, 0.718978421830599, -0.8906393034770258, 1.018408958770252, -1.6343538851521282, -0.9843926673324784, 0.025301001281954925, -0.2679849456966782, 2.393598306597252, -0.9622403107498106, 0.3006773489182914, 0.5791073801984574, -0.5007961408860762, 1.9085446699471285, 0.9217752558486033, 1.0314815221252058, 1.18690736069811, 0.9366047582897529, 0.24730544643293714, 1.4645914181185016, -1.081141365668936, 0.5877766381211946, -0.930067933450278, 1.1616479519160368, 0.3143261136504033, 1.338328115000724, 0.43438749972247803, 0.21929268415939596, 0.09617954712881262, 0.567840383829074, 0.46841488857986163, -0.19507930500494614, 0.23041549790036767, -0.9305222796098213, -0.5899904811696053, 0.81336792394171, -0.30514177815561727, -0.015287682209035253, -0.016770947457702908, -0.40736475715644266, -0.021819436097854257, 0.5687086464935723, 1.4639239153200205, 0.2338137129754213, 1.244743760292803, 1.7427964890363428, 1.5512903875934885, -2.040550810387541, 0.5130645577766895, -0.7851430329469011, 1.2130223681658479, -0.1551470039151968, 0.049801317227314644, 1.3020045532605593, 0.8906546731203012, -0.3215891322174323, 1.17455180433166, -0.02554906972819743, 1.3859675850719753, 1.1923461121321988, -1.0094422842056594, -2.1603396046671635, -0.07109701580859862, 1.5679705034291074, -0.3696699254419286, 0.18037959670375686, -1.006969923409953, 0.8692188842519861, -0.4773655237356718, -0.6402236147649004, 0.1485359175343939, 0.21896366375754964, -0.15498644048039012, 0.7755675052683602, 0.16394407438601488, -0.042917467410117746, 0.11621761144421426, 1.1876663785065553, -1.2544914889170926, 0.3115156215778528, 2.551574585302919, -2.1092109199339983, -0.3312169913824826, -1.9871067292210065, -0.6470055921380267, 0.4805210854888321, 0.9495756696634687, 0.7002769293823126, -0.2074015526449222, -0.6077473170562281, -0.018752478879472508, -1.1965682143745513, -0.4227100333575238, -1.573990761701197, 0.7084729357347025, 1.6463978955518994, 0.028854794287057527, 0.4787251851608463, -1.8059590677207984, -1.317316456008301, 0.10557693074119111, 0.17802576796629158, 0.46293210311487365, -1.1403834143195963, 0.20048237735971342, 0.2996005403847036, -0.4237725882051935, 0.5330862946836459, -0.8059423858725003, -1.6302403900557534, -1.0920699286881546, 1.8932074930732676, -1.239279244637741, -0.7002136206521691, 1.0957702325736425, 0.24321270792541652, -0.38690306381991996, -1.0416755930018717, 0.8679704635467281, -0.10513153993969186, -0.6115235780871582, 0.36970823531498936, 1.1143802001929064, -1.815629201246928, -0.1158881012104254, 0.3651410311030108, -2.414357345888921, -1.4385456818996143, -0.9726828623377964, 0.7608216150438291, 1.843508626523278, 2.6635951711497987, 0.9191446542057095, -0.09794778528187592, 0.3368118813327834, 1.2130806941287375, 0.6278251011790507, -0.38326289322100354, 0.4610989413630282, -0.22372758955363645, -0.14889893178023036, 0.774662479480075, -0.13446283461077876, -0.19914161960317567, 1.528769642695016, 0.4509778006950428, 1.5111849658278023, 0.55717379164832, -1.0085318934592271, -0.9296983447994438, -1.0496801833117186, -0.8558926457468338, -0.5980008118563215, 0.4043757140496155, -0.008295655245310115, -0.8060526590796142, -1.1201287338092412, 0.11005510075438618, -1.5509084624319214, -1.693886487289549, -0.564384265730572, -0.2964697064401121, 2.170904557387088, 1.7362464095138335, -1.0533648829845905, 0.06118952475894173, 0.8039908669884563, 0.4862413310719746, -0.2364368429864169, 0.21330611449674977, -1.4898424323505528, -1.5681705290747712, -0.4448756528248821, -0.37563034199018436, 0.7938208426658386, 0.5607526141199534, -0.40166004093377755, -0.29058500212828464, 0.07953260160205201, 1.6146402965438367, -0.1424195216310387, -0.8753836724974328, -0.3392077936353811, 0.35670730679173807, -0.5742140544497294, -1.328276415475928, -0.1008226012116593, -0.13218891915303102, 2.2622595075155187, 1.3239496556394952, -0.48870902019119217, -0.5828208824712501, 0.3007443108889073, -0.3443190247666509, 0.34798464401048296, 0.4585321075884743, -0.46379566104517284, 0.04941287033764698, -0.9906001728534201, 0.1745794072181212, -0.40873395664605144, 0.49463722188139564, -1.6981352570343449, -1.999253551532272, 0.3242879040127526, -1.012756700668641, 1.6969114435016086, 0.1289363129426638, 0.7447962143480003, -1.020775730740677, 0.18134952535474927, -0.027777966364801173, 0.5360814266272996, 1.029050861847101, -0.044988364570139085, -1.817399457222038, 0.015358915340703579, -1.1598758011107317, -1.827292094358087, -0.6039478302852652, 1.6139665735065953, 0.6184640752361352, 1.1091126911338016], [-0.553425934462216, 0.31453046406137863, 0.7104460683036743, -0.19723493802451397, 0.5314820954268648, 0.8610099369627816, 0.07409027867909834, -0.181400634252642, 0.05417194066252224, -0.5228313210511064, -1.8199458273343343, 0.7864923139544416, -1.8285429757841685, -1.3865546515535956, 1.686890958699894, 0.3198959535076915, -0.37672957827970244, 0.6277738690950123, 0.5638937455971981, 0.45130724191534544, -0.0020875879557717427, 0.4918645406952168, -1.694403000069265, -0.4287804832561939, 2.6056120955749127, 0.20450485186416673, -0.014390341848579492, 0.6229606890344798, 0.28497276728633575, 1.2455395838897838, -0.20359587901905565, -0.9198308630753349, -0.5393041595078593, -0.9367749232280849, -0.6703314642153171, 0.7449485095460113, -1.4985453461831313, -0.10580083569390444, 1.1532106014031624, -0.1858890175796502, -0.8581652619628595, 1.2679213100755342, 0.20469290361365547, 0.9074966085266508, -1.695379211821454, 1.3915273268670851, -1.5833735647980407, -1.0008422728445427, 0.25967337540901425, 0.2282379546456784, -1.1407258277317507, 0.648813704605241, 0.5035180221500746, 0.9197143206542041, -0.22057956464593637, 0.5096643006455281, -0.9162918159865125, -0.22450884394873497, 0.7292102219216209, -0.809445632474868, -0.34246322163895987, 0.43190374953947025, -0.5985570823047163, 1.3967539917030918, 0.02154308625923307, 0.5662370951507169, 0.38541490957410407, 0.3754149604861196, -1.6771029935698463, 0.9761710672810084, -1.3474448739240268, -1.4670352205598662, 0.35748715827668237, -2.73465029141156, 0.7766532688913349, -1.2624136392496914, 2.1476615744222793, 0.9227733228394305, -0.2361393850449975, 1.0802852094807722, 1.102062563172492, -0.18707725351315485, 1.5331961395883942, 0.541015091250022, 0.707168869825895, -1.0711239823384828, 1.9064733160706366, 0.579754590433949, -0.3218256121784991, -0.6820400386164488, 0.5655539741686911, -0.10499806336872375, 1.3011517353489077, -0.40400641456578357, -0.11318286691707391, -1.8492092824529687, 0.23412974645480947, -1.2618285465025054, -0.2791969609034797, 1.0586066941078087, -0.7850022995072948, 0.18776373419181408, -0.038832065869325305, -0.34865651696596067, -0.7388958305990265, 0.8986590877879882, -0.5638544750082171, 0.05098627761958894, -0.5589051183840412, 2.027813302204378, -0.5154563128896104, -0.5666316103541245, 2.522248848588468, -0.38430391537111497, -2.1323350875567355, 0.001270200691319624, 1.0606025622750375, 0.4064121142817067, 0.5306059691294369, 1.4356388541368967, 2.1071780206614483, 0.42095549454313136, -0.2945497117258201, -0.4387020194719936, 1.2344607515467034, 1.7588229846779282, 0.3436868432358765, 0.06939463553414651, -1.4538028092385242, -0.30041221728422607, 0.49387901694547404, -0.3303711397808073, -1.0264522344017186, -0.6260728078707543, 0.1185034760838941, 0.0837004576223984, -1.2911745685790557, -0.14322473991621595, -2.2390402368413844, 1.3644923956079924, -1.7495091039248676, -1.3038099714935718, -0.9532526186741176, 1.1293208124366132, 2.02043092075766, 0.27382843336221213, -0.9242234610306999, 0.6322885318858659, 0.5804508527816331, 1.8955086509763701, 1.4679214830565694, -0.5209931281489227, 0.7467584061954127, -0.14131950994218295, -0.7924857806513227, 1.4517968049247503, -1.4124008929928313, -1.173075394289622, -0.42729260473849384, 0.23783220252910206, -0.7037256245609542, -0.45268806643174475, -1.14813321017316, -0.05644969130643005, -1.1672378890811863, 0.5184303992870196, 0.30294419056434724, -0.28786905643354443, 0.49774275334481216, 1.114174760751577, 1.9390515099002645, 1.22584504446458, -0.22775779589573922, 0.9274311727074122, 1.3649028469117528, 0.43574883386202085, -0.41860712184565985, -0.3592410433651686, -0.23192093471714942, -0.4315405926000357, 0.913118682699756, -0.3981031809908181, -0.010824659407790212, -0.2418674971636213, 0.3705009716640907, -0.08117333325723879, 0.4868077458598873, 0.13682530938582435, -1.007680449570901, -1.4526870858606509, -1.894240932105852, 0.417613602553327, 0.42410296028780015, -0.9164953198660798, 0.9541580367039599, -1.6800220775900288, 0.7168427393727657, -0.7549448999955946, 0.383940548514821, 1.3469728423422556, -2.2772031088779956, -0.7271002311548941, 0.9386169780081977, -0.19160918679430053, -0.7946530084534256, 0.9538243528008787, 1.2326446400647895, 0.07329522913418561, 0.31699991479498757, 0.2909742706285769, 0.08632674568554041, -0.37651966680938376, -1.2748805224448807, -1.0447096778998162, 0.7336189785692971, -0.6720644689037623, -1.0480834521437077, -0.6236394663203388, -0.9549017270668533, 0.12495946583333216, -1.8758084149392495, -0.07230790758756268, -0.5863706042927274, 0.9982659035590296, 0.23499212585899495, 1.1949008466148976, 0.7542881627122537, 0.8422704842742086, 0.28431380855290334, -0.5189021605638767, -0.11183333838687257, 0.7015757208665591, -2.4300625376175224, -1.1778051890789747, -2.7132179022917526, -0.1634906705345196, -0.861988046203349, -0.013524350072314348, 0.21938007978624807, 0.608755569472171, -0.5949179121680621, 1.48410996056228, 1.1782147852845444, -0.12028584563460273, 0.15650625071656427, -1.6232108779357926, -1.2801906741251574, -1.1043328525226541, -1.8475228021138128, 0.5175103674536119, 0.04999548689812775, 0.37128193099815804, -1.2594135599556042, -1.019553893952088, -1.1841072965756398, -0.34703835680418693, 0.942070939579341, 0.719823195719852, 0.42308996428755224, -0.8951609315755056, -1.5809595271192165, -0.08670999270916831, -0.1817258394026439, -0.4964586331688295, -1.3956536932414652, 0.03504597320828257, 1.011981500733022, 0.4845897507589183, 0.27914123750531494, 0.47899240846615077, -0.15371579169413604, -0.43234463321566646, -0.6883124585960938, 0.05147691055312872, 0.5708231787275984, -0.3232482247163625, -0.8717195557494029, 0.03140594806249354, -0.14198107455340578, 0.011607205834553956, 0.6294209387548831, -0.16441991551890095, 0.21445676751077392, -1.2212780643250305, 1.3334985481968988, -0.8019567300163127, 0.09237792566500304, 1.1275206124393253, -1.3070371703910033, -1.19481357012155, -1.1636614257948226, -0.39560022812434265, -0.0026974832043746766, 0.7883795099236091, 2.347515398603146, 2.0289664985942824, 1.1134549814315113, 0.33808940157613343, -1.4341091975673765, -1.2958528840596872, -1.815925894753299, -1.6872014132046684, -0.7042154328188495, -1.8302503352143702, -0.17762589891507857, 1.001945630889948, 0.11626830281313118, -0.6827879701347033, -0.25901120989680626, -1.6177675698175116, 1.103230731081839, 1.4515538286547216, -0.23273886176541744, -0.8702819066696255, -1.3484373838235673, 1.0250113526361846, -0.4490989125846039, 0.5365524465751571, 0.028947215683078554, 0.30999876350417666, -0.06959870999225001, 0.6120146372898623, 1.8142087437458407, 1.5084317139458425, -1.5668746493327097, 0.6932635566524957, 1.1185048572878256, -0.468209828184727, -1.281647989897694, 0.1962191556487852, -1.1161225086948159, 0.464900002094728, -0.8141261681956075, -0.37797827078483437, 0.43132114044625386, -0.8353469299566423, 1.0995714983484552, -1.8750743003558183, -0.36806178181897403, 0.43628778317180567, -0.18547814025572829, 1.2327320985413186, 0.3206277321762018, -0.35333917149445493, -0.5189237299414042, 0.9657013769346607, -0.2340142072330547, 1.7968479056187154, 0.571279055412821, 1.4469439930948937, 2.330827335690784, -0.1877403850345471, 1.6388265207237769, 2.0412589531875303, -0.9580215464023991, -0.8648501863802485, -0.47248573705167807, -0.4652755180280615, -0.733425032202875, -1.0916622875965325, -0.032295135392362256, 0.42387736664819936, 0.2682580945611316, 0.4795272101403229, -0.3259915194891114, -0.5714112439789164, 2.0102705584673055, 1.5719383891977652, 0.7725610022173037, -0.23983790091843332, -2.8883921311958654, -0.2127955594804292, -1.354073821143402, 1.1809394094635364, 0.6438106823883759, 0.8573992906039337, 0.8741663087536693, 0.3209776662063822, 0.6809800628301778, -0.9621227095639869, 0.797033428529517, 0.7295997459096556, -0.04397660121102812, -1.826962569154128, -1.0519041481576579, 0.7474052001560436, 0.5125270631923191, -1.2843236292877251, -1.314143636695372, -0.6305107917313824, -1.5877948601986176, -1.2975617043473195, -1.0670945320016947, 0.16811588314987652, -1.8602149745904355, 1.5512178586065388, 1.3341842711010048, 0.13076831633672367, -0.3115707963510072, -1.5808138701250174, -0.7991073636941225, -0.23419267847995345, 1.0751307388310485, -1.5561216957762711, 1.7935250575055328, 0.7933305178537697, -0.7981591127301124, 1.0486491707973635, 0.877043044686551, 1.1081094884789937, -0.859622437008089, -1.1606855312271105, -0.056060111321776955, 0.6363376228962668, -1.866753659226106, 1.871704570350969, -0.1432729846898735, 0.07521578535552158, 0.9840731965413639, 1.6714087652513208, 0.3176256209871018, 0.4038568886729906, 0.26569650046850873, 0.45924911541304964, 1.0580658493399224, 1.593279474754069, 0.2216804775058855, 0.07901430232046056, -2.0175567489430692, -1.8971248588497378, 0.336815812696324, -0.6023700731359289, -0.11634032117669164, 0.032804212981808606, 0.382688181074347, 1.5260423420565863, 0.19217817792784764, -0.4310279912421325, -0.38666883109010947, -0.8315273257382954, -1.4817640999289496, -0.7619517407273937, 1.3763028102063573, -0.5287321548360202, -0.3138435579403414, 0.9094535738333096, 0.44472117966206104, -0.49328946321781236, -0.0353975473858681, -0.24716325018318236, 1.675255201947921, -2.046419520854861, -2.1775369307235906, 0.7751301231157536, 0.12716600335510317, 1.1951599048678891, -0.8368198865427662, -0.34132229425725075, -1.482463699832805, -0.3729147891924814, 1.1450298059983608, -0.6827410128441516, 0.9670150688498363, 0.588853179533676, 0.2502681293997478, -0.4620322205777105, -1.449250761908694, 0.36318369739911865, -1.1783808792613533, -0.10006535583461974, 0.02700613101817325, -0.6454754326967221, -0.6047500359180643, 0.8598368728950707, 0.5561888624297621, -1.314810966290019, 0.7389866626210256, 0.26184837910886105, -0.4174236380175463, 1.3750246958310088, 1.2385484942831935, -1.2811206266009991, -0.6801617121986413, 0.6074258310596201, -1.0472940785648026, -1.1764327359896656, 0.3198691430362582, 0.16123017649449628, -0.1053811828015691, 0.9610299349751443, 0.14198842070223483, -0.9439688713163844, -1.134269995657833, -2.0300251577813966, -0.6326146922527456, -0.1795127037029917, 0.9976486821548035, 2.5268788186206836, 0.9429059610898608, -0.42083155253022814, -1.7242725013227145, 0.990704372849259, 0.18589901701475087, 0.1399150668605642, 0.41672978873074273, 0.22052644549178632, 0.01658153177779345, 0.3093658576844804, -2.6051887596139887, 1.5011114812314703, -1.4330127706831417, -1.6226078603710217, -0.8171774800058921, 0.2716838094337029, -1.8674231475424, -1.4892134799417531, -0.6385526221322894, -0.23021467922772387, -0.8027553212040294, 0.07854458883243762, -1.7314131687988217, -2.0277307857763445, 0.9592494675805009, -0.9529388567215863, -0.3500078975314605, -1.869758990948694, -1.086232495068811, -0.19452796433489994, -0.3597956728525036, -1.0870609668716495, 1.8603880387538658, 0.8514619662131132, -0.8022873992079645, 0.9232170000801067, 1.2778879723159342, 1.2231661640650546, 0.12471041278032051, -0.7004811646083243, -0.629219595170253, -0.7119176474395232, -0.6580486889151131, -1.797485314465751, -1.355739198671397, -3.492759520212701, -0.7053293310641088, 0.6017145693987709, -0.18663784968107605, -1.1367890649427852, 0.9054700691980815, -0.7070642574692377, -0.2291211683079841, 2.066322295598017, -1.805939550370862, -1.0996309114680636, 0.04935010795165728, 0.28686068328834424, 0.06888459717583703, 0.3986585067679432, 0.4310079311167767, 1.5607984511737292, 0.15990366448597684, 0.2010751708380072, -0.8144513492813762, 0.7446914609796529, -0.7476321706849722, -0.39821161622223933, -0.2743509990198618, 0.5814041980769806, 0.09407492108670985, 0.08837136643745923, -0.8836450668516588, -0.6266846557343598, -0.6296732569841575, -1.427809982245287, -0.429432735913802, -0.41915766867467447, -0.47857712067020236, -0.6307922529809866, -0.3745633405951671, -0.9079645882374187, 1.6464130983143888, 2.0003356692816943, 0.7536730477851232, -0.9661912853250044, -1.2397236888245984, 0.061604700350115324, 1.3133211177212778, -0.12237406314040274, -0.48851913713806494, 1.8335033592370857, 0.5157354881371018, -0.8974655978241955, 0.1405147993730984, -1.0917268920602465, -1.5601005060989894, -1.657934960464777, -1.5885975171308315, -0.4757805599764076, 0.010010853584422885, -0.7641847472641441, 0.8600955331276553, -1.9019875117997993, -0.1693903869824092, -0.05059085752320568, -0.4194132739942277, -1.0647862721791068, 0.8183594504089982, 0.6807143571464245, 0.40618613421524397, -1.6450001642722547, -0.011129317253706746, -0.2699704151848892, -0.6634118849854079, -0.007928120237361246, 0.6802850241975357, -0.5829613572270694, 1.6682255875661178, 0.5387819715778887, 1.2592337410475272, 0.6411754261676635, -0.4690871311740977, 0.7666767667150478, -1.7191322599044592, -0.07845591880119017, -1.4284901796615979, 0.24385921911746697, 0.28699296334739344, 1.1277890114836928, -0.9994797203099716, -0.5934029092478805, 0.45529350335048346, -0.6637600243787763, -0.7525490548501683, 0.29821895888233446, 0.03643577070685013, 0.4385554497840008, 0.0972127652213666, -0.841598338982893, -1.8924031300353195, -0.5565070510607628, 0.1013649880446487, -1.0998041974779162, 2.0473849261582626, -1.177512610685784, 1.943138824332268, -0.8002033685533659, -1.9671533612589625, -0.33635449630857944, -1.6075729081220207, 0.5936296248734064, -2.1803191242821125, -2.1778872034732957, 0.7297539176212019, 1.4641458674244052, 1.892333580964457, 1.0826561704003672, 0.727099066663306, 0.25366435548429, -1.7386239755665462, -1.279127333493338, 0.9495369170210999, -1.3251670407673586, 0.987857578243092, -1.7122473327737557, -0.5722946598065082, -0.21888123387156938, 0.7370789003706602, -0.4794017476504765, -2.2963339769427966, 0.10522599292384728, 0.1615352792047764, -2.2001139668576917, -1.0264635166282021, -0.060255496040670625, -1.9720643939884235, -0.9914111200761511, 0.3063374340869521, -1.324024749973499, 0.5663123785660767, 0.38186206192503563, -0.5343142995537711, 0.06050848162721975, 1.356556522519921, -1.5736271399997213, -0.33045661965910506, -2.1179798672620844, 1.5712329758284564, -0.43705044132722853, -0.5952196855147783, -1.423866187521259, -0.12991736754581082, 0.8836282681969593, 1.0502263006956398, 1.1304235299942615, -0.6713758338690077, 1.603974770761903, 0.15254275255298963, 0.4366800907575716, -0.7998648783177562, 1.006357440896164, 1.9811491752466919, 1.8501852330165491, -1.216542925297081, -0.2793479428431191, 0.7878282719738566, 0.3111859405609167, 0.3001428163648436, 0.9499573115440615, 1.4540862258432135, -0.3430861968260845, 0.7531764374090008, 0.09966131110411529, 0.36396818913968493, 1.7758934403080922, -0.28349409790173347, 0.16433329830568894, 0.5754777270734031, -0.5821782839737378, -1.0525009804751766, 1.4600730748775073, -0.1060666557326516, -0.8958023919936011, 0.8102919869367436, -0.417459456668507, 0.5349913872049911, -0.13285195950201878, -1.8847473240578323, -1.2848271680411765, 1.5347614334257842, -0.1331195469540136, -0.6817341309630036, -2.189704483113081, 0.842525252719429, 0.16129235005513198, 0.8732270269007472, 1.0651709628989254, 0.5061304513803077, -0.48633799461221544, 0.5599587791800886, 0.4630524745503332, -0.29459125810099085, 0.7626613917768464, 0.5382954713722279, 1.0113960899412364, -0.3990680772445206, 1.2535581268051625, 1.2320945711713267, 1.141513344616682, 0.04501977362455658, 0.7108100301388376, 0.3812787586450079, 0.513792926672599, 0.7235385098064641, -0.20244413408542558, -0.3316435667852593, -0.3532454922842023, -1.6890388737666748, -0.558947760118232, -1.6386662361289284, -0.5705360681580222, 0.29268012120250525, 0.7231810360275696, 0.6390660754966936, 1.6496975514496148, 0.8606756693517579, 1.2036527913882085, 0.13767524609211854, 0.15551994079038867, -0.7852014464823898, 0.3994335415127867, 1.8294482411463167, -0.36435579331721446, 0.9849192511335633, 2.110232553158153, 0.7834497805970805, -1.3829673831859275, 1.1613509383290834, 0.4738391909183573, -0.7244907449542158, 0.3273100453050728, -1.4475694950174032, 1.8658683903792002, -0.10720436540189988, 0.4501839553972751], [0.4783083268700511, 1.4659893136909778, -1.5699379180924578, 0.42873869758321487, 0.02684431350489359, -1.388702611761407, -1.0280085717441358, 1.1850517349312542, -0.8040530459505328, 1.0449446430237916, -0.3506100560560532, -1.4191946273564833, -0.28791495677972107, -0.5410704181170155, 1.089431821648525, 0.4120669054171657, -1.5882941011721214, 0.4082676594793898, -1.1711785118771296, 0.08119952003734675, -0.32365076890429495, 1.8909218764430316, 1.3341442099610226, 