var network_data_string = 
'{"biases": [[[0.7375658297356499], [3.1277179478166457], [-0.7370111940865479], [0.17701556371836485], [-0.5381113573079231], [-1.3017688262934755], [0.2581900596547413], [3.02954771221947], [-1.2677363913518622], [0.8942443554738058], [1.3245655036954471], [0.31051033285624113], [0.4635121429379652], [-2.5191659817611143], [1.819023212030638], [-0.0679760535541178], [-0.05355759924085591], [0.31660366736494433], [-2.37561900872676], [-0.9248722839966517], [-1.3515771197835922], [-1.017400606217562], [1.5800791598957769], [-0.5952278840287198], [0.8488678683244072], [-1.6926927598290133], [1.4527723393892022], [0.9390955441913013], [0.39505049034912215], [-1.1284507052430546], [-0.5876414442915971], [-0.38688296685004464], [0.6447697228765872], [-0.665910211620183], [-0.7261502211269445], [-0.5468576128199419], [0.6723576753266463], [0.20709697241230318], [-0.4019003819232886], [-0.7499228248686411], [2.14970386004474], [1.6920397215912177], [0.5379275217900568], [-0.4725257218508622], [-2.1258808984726056], [-0.4604067120164827], [0.10235438708654868], [0.9790107249801042], [-0.10184218869276719], [4.78216326184258], [0.3516936798493476], [0.10412270615949162], [-0.8787570291341026], [-4.052864855749342], [-1.1187159139895173], [2.4930951117474223], [-1.6252987976383875], [-2.4818455493067524], [-1.6389222108498056], [1.4001085875322952], [0.2782398891588843], [-3.0922397992331754], [0.07094696113611539], [-0.17773461470615498], [-0.8823639772528419], [0.5494880052763123], [-1.9238690391819897], [1.1820234840189103], [-0.7431301770637948], [1.7125575609411392]], [[-2.1472646317114554], [0.7383091339589917], [0.8938033459361377], [0.9280308140766109], [-1.4293171711701977], [-0.6517869771258444], [1.3478089158848852], [-0.9345500203723703], [0.35101068330254714], [-2.7091247363463715], [1.0127853736929815], [-0.5689694562054612], [-0.2339042246635169], [1.8610205937241917], [-0.15581726363891182], [1.5558448225485872], [-0.5196938459011642], [0.6508396281381759], [-1.4601246373654229], [2.001828798638983], [-2.8038913266807652], [-0.22001603819734775], [-1.395809264207019], [0.2653680048634742], [0.13056449302951847], [-0.897549152335294], [0.48031310276757594], [-1.2044406668593566], [-1.0693608131376273], [-0.5106203006576966], [-0.3204005245603435], [0.8568813466988453], [-0.009268916394261502], [-1.3177072193313166], [-0.6012410205173164], [0.08065985158944525], [-2.656426789470972], [-0.29599585182489546], [-1.3897459398512306], [-1.185638389284574], [1.1640068914255175], [-0.18194081959890943], [-0.5058134837999451], [0.3991780172733097], [-0.30224086478261525], [1.1785621844362355], [-0.4625152116489047], [0.028827005972608535], [-0.10096509861388539], [0.3139668176527228]], [[-0.42981736341598625], [-0.23277239188203794], [0.36413768838454], [-0.8299231349168288], [-0.2799292375825472], [-0.5323581605317472], [0.12042768645319353], [-0.8029288931843872], [-0.5499392759419686], [0.12557493290669713], [0.22242637756566563], [-1.6276060467206348], [1.0620668783379872], [1.5559028649992137], [1.287437260963998], [-0.465030933136493], [0.7578613544446777], [-0.2798796226746532], [-0.0973416765356857], [0.1477401380663634]], [[-1.8438296883284995], [-3.4059760767216183], [-2.045833253213832], [-2.3111977653919666], [-1.6019300478265177], [-2.172700450094989], [-0.0005288845707156224], [-1.5420203041309988], [-2.884765344813037], [-0.16304545122099764]]], "weights": [[[1.2400883480553546, -1.7481334544715332, -0.03544572770101355, -1.2355754094074678, 0.03580106598868063, 0.4843666505554416, -1.4045466870965606, 0.9270255162879228, -0.7691369991428366, -1.6447166178589556, -0.7521404558738946, -0.7623222344586238, 0.86549698862736, 0.8544962532693945, -0.4448891410053195, -0.33256006413897, -1.4430675921990235, 1.7961478231297616, -1.7231668209189617, -1.5801845953676503, -3.1678331732897678, 0.36913190941991253, 0.8824271718380502, -0.5754102295004889, 0.8198342267783741, 0.31367677706415215, 0.4057848361311773, -0.9534739651599661, -0.4956103134352725, 2.2221734331135576, -0.6449662897415588, -0.17194560074871604, -0.05620851110664175, 1.6390352541097624, -2.6520865905189472, -1.3955387358649542, 2.60123367444002, -1.6009300804783042, 1.0375476427346095, 0.051085757562131344, -2.548138475124046, 1.8179428146492835, 1.3641688573422142, -0.06673186341680262, -1.24077629806796, 0.771946358506471, -1.8416373769473138, 0.8670284401878492, 0.19747666179396042, -0.7645387249556731, 1.9020142129911697, -2.0874544945660305, -1.0340724157996855, 0.4690607944929558, 0.6847517448388648, -0.37264849063758926, 0.43179125642929694, 0.3278095849203879, -0.19338784144071303, 0.2737664908372018, 1.3853505045222765, -0.8127534223238234, 0.20578794121246746, 0.7027100485198036, -0.019793428853451443, 0.7104536207047217, -0.6992962662308622, -0.580441290147538, -0.933719564109657, 0.3850123473485155, -1.1909811572994669, 0.0986065833289733, -0.2908637525804476, 0.20053242382472813, -0.057869473702618544, -0.26908541857911483, -0.14096873651812772, -0.25441297989262046, 0.573747374224834, 1.6037973781821315, -0.5507389219942619, -0.4409267360168372, 0.35032892212423256, 2.3280178156839377, -0.47022488997620077, -1.1540056712806095, 1.503389369502183, 2.1394821800344586, 1.2613667388043697, 0.0859816600439781, 1.0161363370038254, 1.666949996155205, -1.4945613048239734, 0.6485904712178582, 2.7546195937048252, -0.48087147961998583, 0.7208393067699285, 0.9694205415939097, 0.4604549656841927, -0.6158535556751824, 0.3021004017744476, 1.5660531675179645, -0.42176829063516313, -0.7308813171289044, -0.05617386796417327, 1.2655842031717048, -1.0914561490358556, 0.20725853838299946, 0.16597621322759745, -2.558245427564231, -1.2181899999154189, -0.6130193860894181, 1.2541453566312015, 1.0391451083822687, 1.1969963249036564, -0.1182543023580859, 1.140732959351113, 0.6053458284800867, 0.16204131964418525, 1.8290507020244415, 0.6924791461201117, -0.28684090158560044, 1.8911785074524676, 1.327765171359703, 1.2423794155836712, 1.0246105313777985, 2.7060693000186284, -0.06379867920349663, -0.10511256824560404, 0.44802837486509756, -1.685865873725813, 1.878494818043002, -2.0651986755937033, 0.7262120637666167, 1.26150860667363, 0.4616314325060654, -0.514294194820098, 0.0665242126986224, -0.1528039394962977, -0.6183660823581493, 0.10944801068920958, 1.2390628283612255, -1.0822525668115852, 0.8614323882139642, 0.5396938833529428, -0.11642990060784718, 0.824929931174083, 0.2036933590509663, -0.9588111939908948, 0.6238966079097893, 2.2082917599108516, 0.31274852819767096, 4.169664471360842, 2.3221553029996427, 0.3871603966332947, 0.9239029309766547, -0.06538390062506402, 1.6479106063243976, 1.1983166903322604, 2.2568482499079328, 1.882384026000687, 1.5007943896363614, 0.6359435608324407, 1.043352384266696, -0.02816054669365684, -1.7981126382242882, -1.007232860934825, 0.37790054523907834, 1.245758930896426, -0.058393657772852166, 0.730312318549876, 0.18223486659065163, 0.5852012314244964, -1.0607197366459715, 0.5265425172813053, 2.5150131700145653, 2.069597501921295, 1.151681116003375, 0.718090079642793, -1.2061619635273393, -1.8914760450227188, 1.2654880105078288, 1.8185075273223714, 0.22374787606987478, 2.036845182538926, 0.36584905350962355, -1.151431109555148, -2.7386125419617042, 0.65386868948032, -1.286497488018988, -0.27595019513459423, 0.37028793496186835, 1.0865397056391144, -0.5829290093113886, 0.7464789272322316, 0.9134891087134736, -0.7318928911855226, 1.0474537803979602, -0.3110043902210476, -0.15896217941614607, -0.5153693319122251, 0.36916034376504153, 0.05115521240552194, 0.3317907005645965, 0.2670324939251086, 2.0888443445069296, -0.4257375005213645, 2.2242738455367075, -0.8476821981293703, -0.8612517518079937, -0.020499350237804026, -0.8545940474771854, 0.2892914881957122, -0.19642915502671432, -1.330084480601701, -3.2710038878145546, -2.4458203176649405, -2.3084659767595697, -1.5712756484734332, -1.3549598317177667, -0.834858105083187, -0.7268436647373794, -0.6780614672277785, 1.7996224630380961, -1.6652259710421558, -0.4680069666399711, -1.4945671290163665, -1.38546092926435, 0.5388420063336792, 1.9960049476916804, -2.3622595804186957, 2.0101471742673107, -2.8471223516135913, -1.092415676870304, -1.710182462722449, -1.8011988268236514, -1.2644891412116388, -1.4654536752761598, -0.3014870110985582, -2.0044102380294038, -1.6148427477295757, -2.776508982590027, -1.5171697029540276, -2.418526615284623, -2.8987574027216993, -2.4446425454689735, -1.8742458888336406, -1.2353006927138754, -1.7757268645050566, -0.21249813854286967, -0.15457819946931228, -1.929303695299213, 0.045201401040822084, 0.6268729290856601, -0.07318501712438785, -1.3603868793353404, 1.296100394620215, 0.013656949437002347, 0.14382624105771574, -0.8521189559439459, -0.09735739369564066, 0.41812903008221836, -0.8477178078507185, -0.5724481980129332, -0.6456390717001435, -0.7362984258283903, -2.7260025834542767, -2.1797245984068048, -2.744589592109882, -0.520359458815847, -2.540663172896853, 0.38756815395624206, 0.09837275279241513, -2.344774894714433, -2.444610861755857, -3.552089904496723, 1.9921126936107336, 0.5556717693398363, 0.04925111419484688, 0.41383840773025793, -0.1084554053708646, 0.40270472642597166, -1.2820285136362946, -0.037851309525482484, -2.3355536287277787, -0.04710196900678315, 0.44706539607147616, -0.5343239683956925, 1.1028389527510065, -0.7930083078154142, -0.8393031652183726, -1.9404907903040534, -0.9183571230922715, -2.2866254778829207, -1.4308932514298074, -0.6017204184531378, -1.9062510631935727, -0.651153643908594, -1.250889532630329, 2.2861112459993542, -2.167504876330561, -1.380098566479969, -2.2101289080190534, 0.574642781990378, -1.8006000095735029, -1.2360585203956902, -1.011607579657136, -1.9138920514441633, 2.013351885245767, 2.310333810503442, 1.020816452804409, -0.765676075357346, -1.7222783802022583, 0.502269063444546, 0.28474345796928185, 0.6377132797304919, -0.9680863895080213, 1.8349029949175533, 0.2219434775277183, -1.1651605503026956, 2.5561507766360063, 0.1910468419537991, 1.1318068444389349, 1.0012865940965283, 0.20908449733402487, 2.0069187826660877, 1.3347438196925472, 2.016256823239672, 1.0323362270382908, 1.2105743816363512, -0.2028310820672813, -1.3126632091300239, 1.7291546331942342, 1.230124746994135, 2.261902732379203, -0.5798834405296852, -0.4339772854926749, -0.6280910059854595, 0.21614910154300784, 0.893475747831969, 0.1557107308611277, 0.9522219281308933, 0.7850429333406618, 0.891155775020771, -1.0058511248912734, -0.9002204267351464, -0.5700338589049768, -0.33691388661504473, 1.2293838554101688, 2.981030744190996, 3.1434624944889826, 0.2926421711688044, 3.140386610815857, -0.24354727708906296, 2.6371481019535254, -1.0839866895518049, -0.9879039478846503, 0.43154006358962455, -1.2072111213257324, 1.2699783640840208, -1.3108216804511554, 0.6965110189539767, 0.6727285682525305, -1.7447368611171468, -1.2702893653314187, -1.064825488066602, 1.285957891724246, -1.5160150808084443, 0.9749637839878655, 0.8127264447771713, 1.3079232442300224, 0.06207328012636657, 0.13029679489228257, 1.2275688406245344, -0.008622712167297006, -0.3831975787470801, 3.3954163173996648, 1.7973280159798097, 1.7537895588112467, 2.7201736433253405, 0.6752265459138652, -0.8533783762417263, -0.6027706544162968, 0.8406015583312169, -1.372339365367515, 0.7530173916020302, 0.6510997147808604, -0.8819069155632832, -0.4644317633410294, 0.8024956138163816, 0.003039562063687917, -0.3033232180700365, 1.0177985936882008, 0.24826419485546275, 2.628439957084048, -1.921729153743488, -0.7822797914948378, -0.08568335731787864, -0.28823025621988463, 2.0419182800484337, 1.4197018662333054, 0.6710591504431561, -0.47196674956182544, -0.04051636970000253, 1.5184125227566692, 1.0117347897476612, 0.26430754245144444, 0.8359076072500764, 1.3237441366663496, -0.3145101288005692, 1.8332347087878256, 0.8432486938763866, 1.2456394617288529, -0.13348983581456456, 1.3164377519932664, -1.0749318824361531, 0.9000213838468186, -1.4506771008322694, -0.08842948263036782, 1.6176888772635398, -1.5301845246986931, -1.4043045941992822, -1.369195034771419, -0.13420737142227784, -0.42619677116947485, 1.2255676343924067, 0.5297469407572936, 0.775672333988919, 1.249800000703154, 0.5701524432986572, -0.04550674869723264, -0.23099182030656618, 1.0100493414152465, 2.418733207845553, 2.3224627912385842, 1.405837947969349, 1.7506148764610052, 2.208141622238361, -0.08286709390791286, 1.6124798131696065, -1.5256015647908083, 1.38848222262743, 0.8917273379482239, -0.4041563304303347, 1.0858760228556177, -1.0450024670606288, -0.573837678745936, 0.5300287868613709, -2.290695636084604, 0.7393726845034833, -0.5304128274593584, -1.259119158027671, -0.4389271785237036, 1.8168398011567044, 1.2127378046783455, 2.302810222037388, -0.6935910993311276, 0.9106547136152271, 0.48119768509761235, 2.017294217243801, 2.848269624682995, 0.034395226265884496, 1.4363522795145478, -0.2226307713430405, 0.404942704148951, 0.5459841398081658, 2.8381169759353937, 0.39766946571180684, 0.8544904494146645, 1.1367682633715237, 0.4377482089459818, 0.2683199275909704, 0.06536057403886518, -0.6233919187259046, -1.155779103968344, -1.2944806728830998, -0.7532409951576537, 1.1425954242943315, -2.3419520110103464, -0.9106916353883818, -1.0412635154607675, -1.0473582616827517, 0.896297924928258, -2.2180915868276827, 0.004142014587040228, 0.7237496723488195, 1.2291343256625016, 0.874391837100557, 2.7604907449418183, 0.5638422603790869, 1.5204322224852564, 0.05640468237784901, 0.10324609721688922, 0.8462690624958072, -0.23819082613851916, -0.682716575113308, 0.7767094654101413, 0.8822258984921022, 1.2033123233875702, -0.04222647532708776, -1.5062539661660461, -0.8111805642470267, -0.9901914680530487, 0.10736728149888033, -0.9964834064905069, -0.5090511777349983, -0.5840777124197057, -0.724068723659951, -0.055820063857073464, -0.10610511717882265, -1.1736243787945266, -1.72007598378927, -0.9148805991013065, 0.11964767401069501, 0.6171913309863708, 1.8313190465344957, -0.17593850864608698, -0.010025498958654823, 0.9538117842724062, 0.2649012325840059, -0.036580489046919934, -1.3117516789397032, -0.7822573245938867, -0.8750135904970291, 3.079463933811695, 0.6090906916771928, -0.40199465411915364, -0.35925903712987867, 0.8318129897235564, -0.10934435123020961, 0.6154074090195517, -1.8075608407150614, 0.24962937169707453, 0.5734177691236915, 0.8116579843691611, 0.08560701146390196, -0.9141296802080181, 0.2999844288919241, -0.010111418212205724, -2.0414624555045777, -0.04216884376557711, -1.2390964713394292, -0.47798970193899665, 0.18977951740820495, -2.126672258606715, 2.390963886680284, -0.9603623775447223, -0.5135450992795554, -0.11431974089782965, 0.6637936519457472, -1.3817505324168675, -0.10242484828267877, -0.0015202913429478752, -0.17865513751705986, -1.4217142656827297, 0.0930957138001833, -0.8424741379799043, -0.03532587557381944, -0.5377381048517418, -1.431222877647126, -1.8330835458570154, 0.07539255575395147, 1.0743964089763083, -2.0100031218527423, -0.4206307177767524, -1.554889317483699, -1.7942356280622904, -1.780830771780571, -0.20692927503047226, -1.17851233183295, 0.7514121597286749, 1.3072116438763886, 1.600376631517638, -1.882921270709426, 0.9839017339546084, 1.5850565046492027, 1.44522237591217, -0.009179515986055617, -1.1592864592304102, 1.2908017958856148, 1.8549698384341802, 1.9238767993294212, 2.618921478916227, -0.4259891092712569, 1.1327908164389502, -2.6635603240867276, -1.7954250145141022, 0.5709148253579558, 0.1073394022406193, 1.8599745652214787, -0.8778251722041931, -0.7691093225217526, 1.4600650782215951, -1.0562041684163592, -2.8823570384840016, 1.1213813027826403, -1.6110267787065884, -2.835415810231445, -0.09932935219537001, -0.4478857442138941, 1.7882427025420433, 1.1871079584231432, 0.5738751892552383, 0.6930483461534791, 1.0247015534380084, 0.5392353842480148, -0.638965294877343, 1.0208537031566132, -0.7371754298338892, 0.7267084175627576, 2.8624158299536107, -0.5806829498353522, -1.3560557624666516, -0.5849973769438687, -0.6475055281669018, -0.3075057243504544, 0.7012343162135783, -0.510596448741199, 0.36541150038485615, 2.1009306251846076, -0.25878932208442773, 1.239946547185359, 0.5992675642705115, 0.1828257983993285, 0.7941137650381622, 0.32296462812017085, -1.5974935126538177, 0.8788176845701131, 0.9585251069664152, -2.008986691164586, 1.2013973017296142, 1.542465259318718, -0.6645038872828107, 0.30975631184861285, 0.3664448851992281, 1.0035604172250936, 2.08328835491155, 1.1790748279507959, -0.7486154289163821, 0.4348184124457737, 1.2481868142665822, -0.25667468171676944, -0.6252446632179557, -0.0495780904490506, -0.15391605817354984, 0.2570363493769716, -0.4643888983168328, -0.7017659379407002, -0.40377801330560764, -0.10414640841034253, -1.7655897500410684, 0.8347779924858144, 0.6467685002745304, 0.26970428904190286, 1.5480895392574117, -0.48511913173403165, 0.5071531852317394, 1.103389242797804, 0.25545194868559484, 0.42175206870307275, -0.7464908465412526, -1.3079541163952382, 0.7132713328643313, -0.23421466045506686, 0.24255893269320591, 0.5594363295103553, 0.36150920663388053, 2.2950902283032506, -0.6882745101593203, 0.7021925556861001, 1.1923949814971286, 0.06668518949388953, -0.42189116763990325, 0.6351799338119224, 1.9477632752813652, 0.31937111244635225, 0.5029501256653275, -0.7205323855301123, 1.1336501381303843, 0.9850386352480323, -0.13357236279898757, -1.0791272985657345, -0.5223739398713214, 0.3762777741778039, -2.7859783533435754, -0.060761439901567606, -0.772558825250047, 0.3844369054961245, -0.3085822713752173, -1.4500746128830377, -0.27656216542169476, -0.33245894027529643, 1.1911377098705689, 0.4076514193854628, 0.21952347765930977, -0.4367665629248189, -1.2500370512495627, 1.8437720562259154, -1.956114894643606, 0.49374780699445675, 0.34255529104975574, 1.4279623876873504, 1.447579454756024, 0.8056846466277551, 0.8580018046611623, 1.3192610104700837, -0.5853077226169373, -0.480343815329137, 0.5027805757218324, -0.8924956141536969, -2.1859232333573644, -0.5712056193360237, -1.3034919260848383, 1.0057350796931848, -1.5664136218875029, -1.8890200785722258, -0.28841581201847905, 1.0232911210853426, -1.3527403551156536, 0.22445266313156842, -0.3853764191286744, 0.7712232417308136, -0.057430653046264844, 1.4332160544128627, 0.08414666147595994, 0.917824504256282, 0.8013500941138874, -0.3893410569423899, 0.3555040716892426, 0.5483447513713177, 0.5716249135689311, 0.43245060739276714, -1.3613343727816472, -0.5341372824491388, 1.0102360402280115, -1.1570383433724079, -1.5580011334235504, -0.9898698012735858, 0.924818568239989, 1.1983897165679323, -0.8820807210388137, -1.037298667195523, -0.5693559880868554, -1.0055893227251274, -2.542820607759513, 0.8143444000691551, 0.39416526178688066, 0.2158460550329363, -1.5673838967559415, 2.296153658872602, -1.49529610088343, 1.293675755588528, -1.3054281354228465, 0.25872520913851704, -1.5618408996561284, 0.22921529730251047, 0.5134314399555605, 1.236772513340911, -1.3922424458243585, -0.04164878885145048, 0.19181523306952866, -0.11430530231397379, 0.2719930503552469, 0.9704665481715951, 1.202630534130479, -1.1384830187048678, -0.47400838304562193, -1.3268846111140884, 0.44108030316672425, -0.8322062387833651, 0.7937330800194119, -0.22260966748120992, 1.647436866412749, -0.171613211976493, -0.39846813388321245, -0.33726831238664795, -0.0340388074264373, 0.8018310220266549, 1.1403846450309945, -0.8818494361811092, -0.8066653745168875, 0.1162966406980891, 1.3154294757013507, 0.925519968588485], [-0.7595806540283051, 0.5092220009249587, 0.4321014866343955, 2.0796954710636935, 0.21990852525013443, 1.4474519992157944, -0.26278846578140724, 0.26016481749215054, 0.2727345381076426, -0.23362364367295405, -0.1263903290997602, 0.10711967186593944, 0.34012934709375836, -0.9156145372557041, 0.882300505913867, -0.24714073277246365, 0.7841531835190545, -0.2608635945695208, 0.6904722879587282, 0.14425315654617135, 0.4382712560698494, -0.5754686673686773, -1.6443652617770468, 0.06942104437446284, 0.8534496843652052, 0.31860246613475796, 0.12446581342525562, -1.151110726996194, -0.7375712571698115, 0.23032021949539017, 1.13826806182392, 1.13895905274784, 0.15162901636739423, -1.969078954987536, 0.3697516226557202, 1.469079331906757, -0.877570680204592, -0.5177334049114151, -0.15066361714048973, -0.13608725229613197, 0.12180577195879498, 1.448751701275784, 1.1798129049788317, -0.47106163288537434, -0.3520537003906736, 0.3249647322409683, 1.5571912022541834, 1.4329902394659257, 0.7654350083931565, -1.6066590415177764, -2.173944619327445, 1.6739586741774937, 0.4947396427074953, 0.043215030321099746, 1.545088464042417, -0.8174805047580411, 0.14122783166176692, -1.8870381868182626, 0.06282223296494306, -2.2811316217577273, -0.3008751184869656, -1.7131150880773123, -0.5272220355329943, 0.29137009853622536, -1.1322369959272751, 0.4416232461310993, 0.6906505666429721, 0.11580256375390989, 2.05362418913104, 0.25312988370877637, 1.105949147765493, 0.5123562991361986, 1.8063896217382798, 0.6478866577468524, 0.05107028526855785, 0.5925504871655733, -1.2467832434368264, 1.2029964525394292, 0.609278599609248, -0.019778997165410733, -1.0303413794918923, 0.6347346343759409, -1.3553047363165969, -1.3117031862552515, 0.4103506679398039, -0.7705858870602965, 0.35221789500558814, 1.9505714911488132, 1.5219898149475148, 2.1652508322519584, 0.8953613822607052, -0.22541195156813765, -1.8274370295299018, -0.49896937082999193, -0.4328768391847992, 0.4046695187254156, 0.2850918933230979, -0.5947327648444733, 0.3771206860382676, 0.8771365948671291, 0.3395777733724932, 1.5863066911985357, -1.362054875272771, 0.49336114398570685, 2.2028473392402983, 0.028123698364170467, 1.029268914497223, 2.4437365181736457, -1.4666419573127665, 1.0109736002718233, 0.45445258623671725, -0.6935892615196035, 0.3167596352582569, 1.3872767815181162, -0.7353871047160071, -0.904128399832899, 0.3567318451875677, 2.1913926225272893, 0.14811893459299527, -0.5746430576420934, -0.24090269809444265, -0.7462024055062427, -0.7212196409772879, -0.0166094366635973, 0.994932216730979, 0.3770847649224313, 0.048358068262958145, 1.337902258925673, 1.270692133787112, 0.4582381498733076, 0.5949937663738296, 1.2042376745960208, 0.35675072409392555, 1.2268922685672883, 0.5536401527759736, -0.2580347364401935, 0.3897353552013025, -1.5972157336585804, 1.207890787505728, -0.018367642276692457, 0.42790320120888264, -0.07392006628438619, 1.4682569736691076, 2.4351566742078705, 0.1653797471777182, 0.12314366916441329, -0.4384111921347649, 1.0135704960576293, -0.4911544924077949, 0.16028522670048392, 0.8430640971574281, 1.161804473030945, -0.5937647200529969, -0.41224799324141886, -0.6462392631693821, -0.7168369657123314, 0.9955125326307389, 1.1131642671997883, -0.42891022526113876, -0.6794413102200869, 1.7792773860780269, 0.12019158838404122, 0.42343850960126417, 0.6904117386269674, 0.15883747160923042, 0.6180341034134863, -0.7450552672706101, 0.28139203954666203, -0.7505186359239021, 1.869657426020364, 0.4990469380354673, -0.04201506885390908, 0.1347511200998422, 0.519997955089809, -0.17561752547154746, 1.1410638985452444, 0.3837571529793228, 1.2140845561111322, -0.3881866126544287, -0.6039002588269794, -1.6675100306682653, 0.16412649163850918, -1.375218600314571, -4.200965216953897, -2.6616501508848556, -1.4285246928253004, -0.03338958677317056, -0.59671294539967, 0.9688271611068038, 0.6434374232925167, 0.8832065439141958, 1.1830064572365107, 0.33967121247899523, -0.0891841967604725, 2.2210888046094532, 2.0863991652928133, -0.9761331592101778, 1.3957148837820454, -0.07568400414370388, -1.1070906796661717, -1.3973464810478955, -1.5518998165231304, -0.09571814333946298, -0.9151011463456848, -0.8935491055331639, -0.7598064313568784, 0.7002966011223942, -0.3833388909260102, 0.16989972547312177, -0.13732560147717593, -1.4280431738996147, -2.9118514739617445, -1.7338046486203464, -1.6251168594342167, -0.7367452709856522, 2.1418951962301547, -1.743741460029311, 0.08502629434633065, 0.7911649448392126, -0.04315767680097175, 0.7935019600541583, 1.0691799527478258, 0.004296041091625242, -0.035629813564840525, 1.5129105554733817, 0.2075325823221285, -0.3801470156400417, -1.8326940168602723, 1.4230164721754153, 2.0106818852113615, 0.2543169459359037, 0.5735189861711629, -0.32628426706826846, 0.8374224477586723, -0.3350825792987567, 0.6766983823379142, -1.8508808804645969, -1.3539003315828153, -1.7932141557967254, -0.4795188124624087, -0.4689797907309671, -0.5328967883315263, -1.150242864684726, 1.2199990079324194, -0.39633370873412277, 0.07933069519654652, 0.5639043880010159, 1.1538965551922031, 1.4869072048128473, -1.473200397634727, 0.44928324788431157, -0.9685897797827673, 0.24100477454717725, -0.8014107697390704, 1.7895829993136583, 0.6245903843726005, -1.1308313466088193, 1.0782890293007834, -2.3931492709488555, -0.655703232275879, 0.04856872946364701, -0.6764904504703354, -1.562101620028463, 0.38535183110033644, 0.505085640183382, -2.1412186028647273, -3.0159731621764014, -0.634655856324085, 2.248397463072983, -0.31378610668239987, -0.5842962393398127, 2.478835914327047, 0.7830119409371777, 1.3113803544439278, -1.1351294179121871, -0.6117486805588787, -0.23995648626335694, 0.1714869585379493, 1.1246585465976715, -0.5450846848714989, 0.6733964371406722, 1.9369459190708154, 1.8394184208518798, -0.3886908536191029, -0.8819804531900466, -0.7616337686107945, 0.03942851253241084, -0.41654996687288126, -1.11931010640997, -0.2835925832220507, -2.406404735183055, -0.10677987229339321, -1.8888767732039022, -1.4267024639780055, -6.415680620050415, -2.367977791495836, -1.3487764122259398, 0.3224976655878529, 2.132461935966196, 0.6542551374461073, 0.6141976875526124, -1.664764059007137, -0.5513517252926279, -1.468174817433395, -0.24917688501985505, 0.6745937559993157, -1.536615404976192, -0.37213447174638653, 1.320077014766494, -0.25738593332105236, -1.7288534137548066, -0.9663875278713755, -1.6756654201495844, -1.1776045534326005, -1.5637560660644028, -1.2264291459195267, 0.3293372090820473, -2.321511896426007, -0.006654571364750439, -0.08715309154720881, 1.5956112271528144, -1.7706695033507416, -1.6643367333855639, -2.3533922942669294, 1.5148661337946139, -0.11272618507752445, -2.2257295955856002, -2.663385236115285, -2.6377108310412125, -2.2488472861168396, -4.6066200214094115, -2.5701193118591177, -0.6030971949170065, 0.8588997489437393, 0.6281105955678634, -1.6800353560669539, 3.427103779000214, 0.12956920631949043, -0.07976241920411069, -1.0027921433993026, -0.15307652289222642, -1.0589559305843375, 0.23292335972624736, 0.5064298614618133, -1.012932701691038, -1.4536903699385864, 0.3908425348468426, 3.3013983338100386, 1.1450325119521663, 0.545858025394285, -2.170058058945178, -1.2397681227582955, -0.6152339611626382, -1.6746924705655657, -2.3967840019189817, -2.3745207578970016, -1.5229395231195662, -2.0002245459744343, -0.571552760955524, -2.244461055031498, 0.44183491613944526, -0.39920043109360104, -0.46089146915931306, -0.011691522183864475, -0.26517879321625, 0.8264708630252251, -0.21940234855726126, 0.16938413477740097, 0.5150511568374788, 1.0696644440256255, 1.2717425622029606, 0.10989708936286978, 0.985325294988848, -0.8596270787237719, 0.446749943846094, 0.8399590191011945, 0.24404057914298388, -1.3181734593452825, -1.379940740849413, -0.4686007396676649, 0.4549029805732604, -1.0423570774977253, 1.7114858231954133, 0.13516898033783845, -0.7592814241660812, -0.9465222893618749, -1.4468907834980793, -1.2539078410496811, -0.2472876349978469, 0.27436134814410024, 0.7768836713205748, 0.5217905180976755, -0.22014678768604984, -1.772111328329206, 1.8397690906348518, -0.22792519328771463, 0.8168643982938908, 1.7576101153193118, 2.0705247986918374, 3.6956159830857906, 3.850399685585878, 2.7074319161712683, 1.534670024801734, 1.4082239764838926, 1.9548542175393906, 1.2447826680707794, 0.2994374973143707, -0.34756299032160143, 0.6262281546193791, 1.5045672357511704, -0.5617767789413759, 2.137105411765511, 0.6798630439082705, -0.6052989573367492, 0.3468088888514286, -1.2382367411193382, 1.547531580027139, -0.6631368749038664, -0.8261180516119049, 0.359779288416868, -0.1696879612523718, -0.012054381483469727, -1.3433471594751711, 0.7385005668521853, 1.2385813394713372, 0.38162017401420345, -0.34013347288371415, -0.6524545761866566, 0.3327017700769377, -0.168258989759367, -0.8379708394172591, 1.0013866988717155, 1.5168510672049034, 0.2447436729773766, 1.009842251443894, 0.8765188584188333, 2.9535376061550234, 0.8898054262604539, -0.08560644401352953, 0.07010983975898717, 0.8998450627509637, -0.5137762690923623, -1.3906739215709882, 1.236240251210864, 1.1165329030858309, 1.6907236738677713, 1.7744798855580908, -0.26442762360530103, -0.5705769923344008, -1.5280233909984078, -0.05158702248871225, 0.8607351927643698, 0.04882991218388459, 0.25633796646331003, -0.15426424711792527, -0.5704117141352504, 0.20712463824768806, -0.9711727685586403, -0.8113925797949817, -0.7453529882630947, -0.9802342857261853, 0.6228864917644343, 0.6205787064464222, 2.3079952524455747, -0.7010199756677981, 1.6258537109446654, 1.009495304235878, 1.437281815678016, -0.4258706952606861, 0.25900218131460256, 0.03835298360686858, 1.3784919320266944, 1.5003648455711343, 1.394907988217426, 0.6169992649759699, 0.5986886681615697, 1.875672621494129, 1.0089005290518764, 0.25049042968655977, 0.15220064975498518, 0.8786204024553602, 0.4403830337934892, 2.752679637680011, 2.745850208938741, -0.7178797559060235, -0.4726274287011343, 0.12337522341131259, -1.3338830702740714, -0.5841827104576292, 0.01926117638369741, -0.09613515847865782, 1.4696592299343079, 2.5314819506971236, 0.49697517228718785, 1.0099799522221589, 0.32243967437969295, -0.07097349672547963, -0.22797542064887463, -1.360500848722062, 0.7201711577195891, 0.40941451423003605, 0.5972984964668479, 0.43472668594893976, -0.22233281645635386, 0.007771701704877702, -1.455882974908043, 1.4406139077477254, 1.5073916665146252, 2.6367525154165574, 0.46267831995958647, 0.302756874305109, 1.6454246723533408, -0.07796364218747683, 1.8521935112849, -0.1614399998334244, -0.8219910843101965, 1.4814049742326156, -0.8519857993147015, -0.010345353408672141, -0.3710570626495349, 1.3922820434472785, -1.1675429172889475, 1.4024952886301136, 0.5800049452556585, 3.0276727636870127, 0.20891840027493466, -0.9005607081940895, -0.5318126961323192, 1.8992836756003173, -0.25443097559522826, -0.35038940088541964, 1.3519520855184761, -1.544408850129035, -1.110857381642329, -0.7102725810508828, 0.858216405477548, 0.5553078413095642, 1.0520942968595846, -0.40463612938001553, 0.1719581227746132, 0.527219093232859, -0.6373572476830263, -1.0995153200899395, 1.136105777039477, 0.8701531419447962, 1.2653864759126643, -0.7231558832003987, -0.5900550195403723, 0.45368336854833186, 0.48840575126187696, -0.34319630805755125, 0.7695651237521071, -1.3291299714287574, 1.2176998027869494, 0.45475707584292335, -0.12197019363055595, -0.5200445872932961, 0.29135885579574505, -1.7297364794487013, 1.2583363906583165, -0.09790499286037098, -0.08932590768122176, -0.3295427454984053, 0.8869028168149578, 0.87159886594241, -1.2213519992862945, -0.2099451480562918, 0.09698107467018649, 0.9652772799709515, 0.6943738979395965, -0.7982024619851539, 1.2597888197975056, 0.05019606849792522, 1.2331554989056481, -0.9669456828051636, -2.205625640718115, 0.9967780891127543, -0.8577003526222474, 1.3981677858763497, -1.0085223096975822, 0.9096846495355995, 0.25146550397209566, 0.6356587840718819, 0.12895344391318572, -0.2736993531180182, 2.001605563906225, -0.048796011455076886, -0.28789765622007274, -0.8404140110513156, 1.2388138090048806, -0.7149549395187423, -1.4209691424781035, -1.5756774887740015, -0.30915714308379205, -1.138201035997506, -0.33728331853741705, 1.6738626719302352, 0.9041901080730866, 1.0239365582186877, -0.22229674741413574, 0.08797746431941424, 1.039492410161734, -1.219488287915578, 1.1386426220198085, -0.6515494531497098, -0.8135340816934375, 0.561790493672736, -0.2042579696778396, 1.1697467929195438, 0.3317015124994847, -1.0848541273379395, -0.19867917745163086, 0.6518155228945026, -0.8669772699764197, -1.231083646577524, 0.8684668262484521, -0.8130245378240144, 0.8105109384403152, 0.7923530331046725, 0.09943064014720622, -0.6654488920505036, -0.5882550449830659, 0.6004154338145163, -2.528512153338341, -0.3366399164305576, -0.7873264202659888, -1.1711498105367242, -0.9449793517145721, -0.6811172964045397, 1.9148211082530036, 0.06252780105213748, 1.7318898557223432, 0.25895344918713337, -1.1510882221004572, 1.3290316260632546, 1.1377503489435792, 0.5441266757433472, 0.9283866476613221, 0.6710587485902079, 0.8111771082358137, -0.2411672590002953, 0.4939285796803482, -1.0297894774222314, 0.8340581673564359, 0.04452519440872574, 0.06248362759637836, -2.74535765377568, -0.3487440146562957, 0.09099519126153272, 0.6170486439185792, -2.71560478726794, 0.0719784334985472, 1.1863112435315402, 0.8725136990935607, -0.389905945741182, -1.2947367248097545, -2.0469668430785597, 0.7093402429033719, 1.003053416212649, 2.4518304422802095, -1.5108018087121005, -0.16729254884992345, -0.1240823552865706, 0.15785777204875556, 1.015003280508577, -0.1442237868451261, -2.0082776929857657, 0.6168295434943246, -1.4296499615375637, -1.1216673305391638, -0.2394388199779455, -0.1961050798043296, -0.73919005079342, 1.2382191633228785, 1.8319374964539554, 0.40780991822410007, 0.5993747584470085, 0.7295137313616512, -0.06787379131161747, -1.2054429933401027, -0.7621081427753004, -1.295943254567169, -0.2076162663038593, -1.058641929702317, 0.6743345915989692, -0.10386617856480383, 0.33588215494457635, 0.8659428250337119, -0.6442744557356744, 1.490785256587819, 0.06469335968792993, 0.2471033136737126, 0.2290534448431336, 0.9744665466490167, -0.00011781888657450237, -0.2700591103939865, -1.6820456053841302, -0.9868925989968153, -0.7097884105059868, -0.31847666863095553, -0.3679982109452035, -0.17064158053297313, -0.3153279934339357, 0.5872717904520236, -0.26463886508322193, 0.30733621306322034, -1.4479109086371016, -1.319464721581176, -0.5135335601750186, -0.5821981094678507, -0.2741337978725826, -0.9806628471245619, -0.9996964539923219, -2.887973956219626, 0.5198274458893521, -0.23518909447173314, -1.5094172009806108, -1.2861342580533233, -0.8715088723548431, -0.5919700584896211, -2.036865927574745, -0.8059776540043172, 0.23796331166189572, -2.9161810890007676, 0.1685796868219253, 0.17502442496395637, -0.7819234082500891, -0.619629035654326, -0.9928742641831695, 0.27097987935998286, -0.8764252695637916, 0.7632278472060579, 0.6145323151497877, -1.5414071953501607, -0.20001235100797427, -0.11949316715824342, 0.5332237228767003, 0.6267595759222421, 0.852110990272444, 0.3210162130932087, -0.33368959517270746, -1.7397031387320965, -0.8252857594649852, -0.45061736498626637, -1.2193088170685573, 0.7687405425026351, -1.6461057438461442, -0.17528511383180412, -1.17096850133685, -0.9644115693889205, 0.5782618084755716, -0.6028174965612492, -0.13531932888532955, -0.10580000973609754, -0.771384892028537, -0.32833264226711995, 0.8583422983578551, 1.0144158632375526, 0.31360281298370973, -1.3527927363294483, 0.18155170643606464, -0.4224814745167542, 1.2155352251811693, -0.5569057694530855, 2.0446958608314714, 0.2666688717452283, -1.6609374963322678, 0.15117032764984462, -1.9867921656852616, -1.463439383839627, 0.30693829342331125, -0.06880106693054336, 0.8123497362765076, -0.042405412467657846, -0.7679980279069885, 0.8505717557501539, 0.6845297926355945, -0.9279937469791404, -0.6163402158497211, 0.34031073864236744, -0.6301682841040117, 0.3678115311636063, 1.0361489566738018, 0.659638456512123], [-1.56052263023489, -0.7990063787124224, 0.8147069366856747, -0.1532885031580546, -0.8148885931850877, 0.6864223254248181, -0.3541885176829572, 0.1238975578005786, -0.41524051232307424, -0.024827345266961877, -1.0474131917729017, 1.1067742406323924, -0.7095556142878097, 2.166800813824345, -0.7028962438723991, 1.1902492118710974, -0.15378094850145704, 0.1799902970844836, 0.0258037258118783, -0.2275039435460258, 1.7683210852116142, 0.6639150631127729, -0.3718812005626819, 0.3111735633072268, -0.06777906623008242, 3.231324110593313, -1.8385319738093555, -0.05256947760471683, 0.06642587857642186, -0.6377096654996443, 0.622665870849899, 1.3446283784021318, -0.7834924681462025, 0.29936094540732455, 0.51718356281149, -0.525032476042879, 1.1477451551033393, 0.24380112217025096, -0.37957536015546817, -0.7740948215283725, 0.0984149929503875, -1.2068489507417064, -0.7800935985248741, -0.7270552218711249, 0.6510677198435876, -0.8433908242755281, -0.31189832227317354, -1.0716556146069491, 1.8633184516462737, 0.9800874978574878, -0.8899430778275503, 0.7578655068631281, 1.2356420103602583, 2.0395064309614774, -0.962107879493831, 1.115962375682306, -0.2367917139660865, 0.08757769825105685, -0.08936613895333365, -0.990600524899402, 1.2019237016117432, 0.061059599306226946, -1.5356422135634245, -1.053643717348287, 2.502393016311387, 0.5116254004195058, 1.0082241790049469, 0.4873682240171235, -0.5950460051913711, 0.21828026756676838, 1.0859348757810077, 2.4435363088735422, 0.6659149646009136, -1.2151175858484284, -0.41612882453409183, -0.3111742577033703, 1.27753749341632, -0.21901675953803582, 0.0737892102457229, -0.1182863732812926, 1.6158983114888508, -0.9454908000262414, -0.8270760756724905, -1.4291454920562652, -1.9431494592101097, -0.30536174747486405, 1.1615296401422806, -0.6473694164194664, 1.3157975420414496, -0.719788008961382, -0.9891865747592783, 1.5773137536824902, -0.1743085707409046, 0.7439459806896158, 0.40019009442091585, 0.624813683417305, 0.40270927048222915, -0.2723348061474778, 1.169580903601331, -0.7205731234712356, 1.7676689044751654, -0.627908836326035, -1.1690139760819755, 0.1809871051496414, -0.8572583549354386, 0.527272012213924, -0.2713587583481998, 1.9227743311941943, -0.2524572112786031, 1.502621481182322, -0.4484206585312666, 0.6278914606326527, -1.5492079654297661, 0.2249712306171976, -0.12371540600036553, 0.5284889883768944, 0.5122453910206152, -0.26056815988941306, -0.29230607993825536, -0.35020336389348466, -0.6004953538725719, -0.5123075461139496, -0.7573711680233123, -0.6855214004509158, -0.11804627488051452, 0.8243475948476949, 0.3166570839131178, 0.4273987058560553, 0.8564913142396607, 0.3196357845201129, 0.5638201317378029, -0.6695024111975476, -0.5891361385574756, 0.6192080440397856, -1.779567152028336, 0.3630122846918144, -0.3487192512021283, -1.131757547117908, -1.903771521803272, -1.0199787524020434, -0.062243008718333825, -0.2731918490828583, 0.6403182755412512, -0.17918135710277655, -0.6111510361006329, -1.1611791987669255, -0.1031531502734876, -1.8568408768751328, 0.9582698830462835, -1.4512304605351032, -0.4155320651444596, -0.9952491568601571, 0.5719326333294488, 1.1281941926324128, -0.5596054438522514, -1.2621201401673656, -1.8029200691335046, -1.06498891841309, 0.24531441458910616, -0.7703156334738127, -0.7331405421692928, -0.570023115023184, -1.874728830543054, 0.4342960106568626, 0.5274200106975179, -0.4508807246843096, 0.11574327814696711, 0.7835747394209872, 1.6296370832847271, -1.3660452216414525, -0.9126785049381431, -0.07213322000236527, -0.47293463082012854, -0.9913633220569659, 0.020798240544428304, -0.5316823784642579, -0.19124223919562447, -1.4146657201407682, 0.9840058685712018, -1.264628409803068, -0.8322545142526998, -1.6515089351145529, -1.2997196835478575, 0.1139105829007777, -0.07968951716359653, -1.0606256845634892, -1.2986691410239752, 0.38443190260369453, -1.2035244739452071, -1.9842380073953643, 2.0977182406264103, 0.41206302782836857, 1.2479072726527238, -0.3607953727031405, 0.08959974468151355, -0.27879647236970284, 0.9642471844542504, 0.08146255562961856, -0.8523801148487958, 0.9261216588566559, -1.1845487716574894, -0.45199457573273855, -0.1041012506092727, -1.283433942625323, -0.4989051413738688, -1.1293160486519174, 1.4749140017894458, 0.19694504102231297, 0.3383890945828437, 0.34497737643472715, 0.27556306269688063, -0.8707958219325118, -0.006757955007530015, -3.8217097315351345, -0.02102113088134633, -1.0100563245341871, -2.1254792710279773, -0.4992235749908948, -1.1764557516489367, -0.6876429186590827, -0.6391119423541861, -1.848223438299064, 0.32955114819085735, 0.5005343372474497, 0.6752647633629969, 0.7719938889674443, -0.3451947108019699, -0.6402144282090454, -0.8601442273424155, 0.495110683590206, -1.070086594314364, -0.8744630067219562, -1.592869133583052, -1.2282462043898552, 0.1382099777248958, 1.352366311084654, -1.095021682087691, -1.015741970341222, 0.18022420348209903, -0.8286200277718221, -3.028297452300337, -0.750810548953647, 0.4857977821997036, -3.7824324963979397, -0.9765237543713885, -0.05954566567488787, 0.9853644262468796, -1.8700508327906535, -0.12948962240235237, -0.32507403918616445, -0.0537896153293283, 0.2543058229866783, -0.9039174870756811, 0.8466492890379148, 1.6235765046874326, -0.19247790789192398, 0.7986221943914591, -0.5004758168891343, -1.8824914872964547, -0.7974660560626716, -0.5907848908485712, 0.6223557546866936, -0.6696070812162165, 0.24440490624695627, -2.0727515597430344, 1.1725186940953063, -0.7813650534107951, 1.5554153939820015, -2.287785209178115, -0.7408541948805248, -1.9176547657911431, 1.076214957227395, 1.7613474947257894, -0.3947635946725205, -1.016465138845404, -0.44161805027669115, 0.37491511312990117, -0.5491187666878347, 0.04874303436971028, -1.4356260310771796, -0.9261175423898911, -2.286057189823786, -0.8524486049193317, 0.38187778718654636, -2.385092842083613, -1.1391553505960181, -2.4533566821348045, -0.4875809630385693, 0.5559669834978596, 0.7638496157290283, 2.571763658114631, -0.48822786174164, -1.8670273812709124, 0.7451593452847664, -2.077844231860995, -1.846202767973285, -1.6063816053604394, -0.5322183323144037, 0.9557572890652729, -2.61799121341981, -0.2974478974991892, 0.812969354106194, 0.9684182391969042, -0.8231303252519157, -1.4050640138609876, -2.9871712929860057, -0.09426141538936059, 2.6988421219665257, -1.2668411180054582, -0.6305170493874315, -1.3714112350349557, 0.7485382382569203, 0.3417884514195841, 1.1950636122072296, -1.3276557070005026, -2.0283122923931463, 0.8660628665128055, 0.04697158262875482, 0.5105831259749385, -0.826365563764926, -0.36573052737049494, 0.12022114351344085, -1.717395420366538, -2.173332644939601, -0.17702642537002078, 0.5577141304562991, 0.8063585104259388, -0.34660337326349683, -1.8786218572644278, 0.5860108600712541, -1.018166786354257, -0.7165585444196114, 1.206885189328287, 0.40028175916747655, -1.7200058920739731, -0.4210650767422576, -0.308035014326514, 0.06092556774232984, -1.2196307652835352, -0.5255628920244477, -1.89237192665622, 0.5853084377536916, -0.9298098362238155, 0.86574141079705, 1.146323245474241, -0.20976879418975972, -0.26786834391288417, 1.8144436332298333, 1.991462258958254, -0.45471476354902357, -2.5060195151263613, 0.028303811744627174, -0.7104842269284178, -1.8084777592961438, -0.733044912852745, 0.9751359052030533, 1.6631138767235734, 0.35567135922845744, 0.8972537892722843, 0.28427163984049814, 0.10882245816391803, -0.11015457478663647, 0.39730671660306816, 2.752519859633326, -0.3544993661824455, -1.1650843773913133, -0.12086881022367327, 0.09242698254292958, -1.164605263469104, -1.4551903299252078, -0.2764312431265372, -0.8185422938764336, -0.5779363495157561, -0.8853152184473952, 1.5189811533468458, 1.7534575346936858, 3.050725784282853, -0.6900094184907071, -1.198762045182026, -0.32763864775656176, 0.6372510062728441, -1.617123639253668, -1.6880146111646852, 0.9328796208009184, -0.30440050347728814, -0.6145570742640949, 1.3522025424118866, 1.1934991263066042, 0.5568159063551206, -0.06912107838995883, -0.351519217599834, -2.4659753774231485, -0.769039022620334, -0.882224323041898, -0.9992304511936616, -0.31279150406812034, -0.026904145590484364, 0.36703044366910104, 1.5163913169920675, 0.7184719494502164, 2.2672022453463385, 0.03319911368330958, 0.40711340683236297, 1.453753901524976, 1.1030997848791617, -0.2856327103716795, -1.9208675645221183, -1.9670029508826308, 1.3457348917876801, -0.3393582768069817, 0.18019287296632955, -1.2100256827345854, -1.4646648414485106, 0.5881187596336465, 1.2877375213948765, 2.2708428685648885, 0.28225071750193875, 0.24156113683909472, -0.7124842498364171, 0.17056868442734263, 0.2909420813241022, -0.41756022909486645, -0.25650901453794794, 0.8108710186799185, 0.986865620434264, -0.07045494836793934, -0.9848217620083539, 0.12159469657532669, 0.22241624115934996, 0.09989805879678934, 2.760823988092747, 0.8003855350398019, 0.731016270880408, 1.3056450446187862, 0.23362348319722406, -0.5132926614384852, -1.4546213905298582, -2.376273651655571, 1.4672496501282413, 0.5777720058126584, -1.7956555024882745, -2.496734818004968, 1.7318311194933538, 1.8921194663090295, 0.06651528632340542, 1.1946711696502719, 0.9829700775205051, -0.6490222512237345, -0.09583929703006179, -0.8107257781804107, 0.023256521143633444, -1.0738320678489681, -0.293694671027581, 0.728483469924903, -0.5485613388829724, -1.3286373582695092, 1.4214854727032245, 2.7370442702367006, 1.1943901777707004, 0.610434305257877, 0.9846367971695422, -1.224209522858387, -0.3537191497029843, 1.4920435516276647, 0.293339607463268, -0.7942621143143153, 0.40142073682789586, -0.12609601012721147, 1.5243648397341971, 1.0539818229863038, 1.4748355793834091, -1.6222289158082301, 1.326555893687705, 1.5746114310869574, -0.06585590705866169, -0.13860901652328936, -0.8745624713842499, 0.9941983069762679, 0.7388780437041471, 1.3839274038253835, -1.4077491363453243, 1.1239832162797683, 0.31292702660735316, 2.2222903336500157, -1.5117380181875113, 0.660472913688605, 3.4136904181443004, -0.6887022442248629, 1.3343420498483909, -0.2817642534602325, -0.7618964072147841, -1.0399117820975043, -0.5180564999131466, 0.9438258901246779, 0.049222145032743775, 1.0200702300627384, 0.8816175686543428, -0.7499245075942422, -0.4042728105630744, -2.5954569861962757, 0.5054172487467476, 0.046621849633530825, -1.3375527455941436, -0.9060791388123947, 1.2793890828258125, -0.6230195300785429, 1.3162062975727644, -0.23319852397455593, -1.4761787536014168, -0.850451859468928, 0.10818682423851471, 1.8393559139711824, 0.22842149179371646, 0.27577166748966553, 0.0926089306519406, 2.6910304580205153, 2.484160953086573, 0.49361358855494636, -1.5307892235350389, -0.9019587427138062, 0.3043488020312829, -0.360526138303346, -0.7398952674792127, 0.8493712825361392, -0.32561436008040084, -0.5695554642343365, -1.9154669884429358, -0.24650987036616784, 0.29291418354354987, -0.5521739182092856, 0.8667698787558474, -0.6267200026590949, 0.8499251456893665, -0.2178603878817103, -1.9969554982925373, 1.9281535714342268, 1.110325545958433, 0.11459746805452228, 0.6825655731518404, 0.02597021966760555, 0.6844671086752596, 2.686468214061857, 1.718843938660561, 0.4801407721310266, -0.5687917372075629, 0.32044236059735254, -0.40830666686100614, 0.851111029972958, -2.2895337489905856, 1.0879314335131713, 0.24760358727435589, 0.6018894296937415, 0.342402946615778, 1.0881634625648133, -0.3782547612909629, -0.2644792525177751, -1.9619277241175515, 0.09401445219420626, 0.35433851976679925, 0.06765443405050832, -0.5019035760264524, -0.651661895841822, 0.5493958647213665, -0.5574906171516225, -0.9127278973873851, -0.8610583388898788, -0.4467072242703045, -0.10555651474953061, 1.0300670660862512, -0.9180645513291733, 1.3569218434829386, 1.2789315787854407, -0.1498900418958828, 0.6122726000604514, 0.20404455846711175, -1.8725323459869248, -1.894919044239807, -0.036171654927193736, 0.7086878741533597, 0.8026603155627875, -0.9048653318013123, 0.6908154640999026, -0.6887724611433994, -0.5934836137639589, -1.2601306198239135, -0.3837583401727622, 1.9417894980947503, 0.8246594404820689, 0.08584496573845413, -0.07660682468389016, -0.10413336938518342, 0.9169337053138455, -0.19839363485001305, -2.0756579657508984, -0.8790673818096102, 1.3567194237465674, 1.9805288556560647, 0.47416851931459286, 0.45066919545878803, 0.7737144385250948, 1.616730643978408, 0.3876934763353965, 0.28407795197608, 0.8328338592563523, -0.8709424188085934, -0.09048673417130057, -1.2465822602067615, -0.4413108560760972, -0.1888464166048209, -0.3981881495926154, -1.0019295645709108, -1.024031650798782, -1.773110124208342, 0.678803120994329, 1.7714160962031107, 1.7463496498429902, 0.47863878355035294, 0.5773035290951718, 0.43018263703568366, 0.4165684500573833, 0.28915761487435393, -0.23801087703063972, -0.48868917544068785, -0.8306563711003591, -2.218470968789059, 2.0084631837366245, 3.485310440017441, 0.03366284036091379, 2.17505403684361, 2.165633842440363, 1.4830956255677437, -0.2920829215782266, -0.1968619165768964, -1.4398595593182557, -0.15075675106119948, -2.190048614789711, -0.6053900443075154, -0.9248045525120336, -2.8338367412271555, -0.3736683695439767, -0.6900971220584337, -0.5279363609495165, -0.21950603211550873, 0.23807969986376395, 1.3389821484642344, -0.7382404304485128, -0.193955667231826, 1.7408350312022407, -1.1195851332570999, -0.781102049053033, -0.13768418852578596, 0.2264393885201155, 0.4184002483596828, 0.27550079067411026, 0.11784684346876768, -1.0417375969896536, 2.2874535580454873, -0.3929111501991948, 1.7617266159004192, -1.5498954706139652, -1.4965097405448897, -1.0388669709595968, -0.4859751972002395, -0.06568352619688218, -0.13830498422772974, 0.5722705992914137, -0.31969119654803807, -1.0502986890364163, -0.656971400552739, 2.8562355825923986, -1.9106538094611052, -1.0761216072132433, -0.49434060768908966, 1.490876231333442, -1.9676277347369098, -0.12053786583578198, 0.560584175280546, 0.1454621380271617, 0.652399100935824, 0.289179801727785, -0.9267374770030274, -0.6719773261188905, 0.6852561797833318, -0.19118465163715134, -2.1172711534633217, -2.521374129503211, -0.024014020578614716, -0.6999828169143307, -0.6338595417569096, -0.8169555040186147, -2.4527871599637687, -0.3808446828641976, 0.27059019567398807, -0.5987503406837325, -0.556055963266078, 0.6870205436400855, -1.169536951536072, 0.029197726678373077, 0.7758084785019354, -0.8193915352485188, -0.8697182615161977, -2.753048429362997, 1.0881318955405157, -1.8313001750849918, -1.1058729416668245, 0.49905917539496897, 0.01951372475091205, 0.3918298760146947, -2.0022195495806105, -0.3379131383958749, 1.1398896732288202, -2.0472996130578376, -0.8595483334056198, -0.4157148436308387, -0.6223078051513719, -0.6969821565921793, 0.7771232174641357, 0.39001271027671225, -1.1575437804072528, -2.3889215285401537, -0.8053263667378912, 0.09783401921532862, -0.36461287035832435, -0.46145766473111965, -1.3577049535917602, 0.19999500207950247, -0.13950202202855339, -1.3343446562787362, 1.3345181325034943, -0.07101378398856807, -0.8404653446568658, -0.11122418018006591, -1.2205995001038592, -1.239479863966859, -0.9193446438867293, 1.7533685107809223, 0.3562448844086039, 1.1875911056712225, -0.480403756784546, -1.0326481742838298, -0.06947838159532506, -1.515843085948246, -1.3592534469106226, -0.8915551900150906, 0.9635168226548366, -0.8607913518223035, -1.7262610963364737, 0.9666943288334622, 0.9516858805565539, -1.728805940130761, -1.9207399818715163, -1.9649634151959061, -0.2939119977987527, 0.7134859766103058, -1.2996319784652062, -0.553870038979615, 1.1928232491834962, -1.541777870107829, 1.0444928824108912, 1.5482178518089853, 0.3625453341274028, 1.5172408933102388, 1.992596741358709, 1.2643996082720084, 0.25292094059911974, 0.8023792011953663, -0.06700958023719364, -1.1159401721467062, 1.98037898771033, 0.49615809262164895, 1.2318009504634686, 1.2606825316163712, -1.2993065779722348, 1.6541856989813757, 0.8784468648894621, -2.853135604268645, -0.2790062821247317, 1.7631275448178976, 0.5919370587612222, 1.1933723000658865, -0.4124580018736528, 1.6948235709796537, 0.2429131707074193, -1.0344095774584103], [-0.28096097082580185, 0.30912898992689175, 0.185608225760212, -0.7589686058622022, 1.2690026103584309, 0.5161954990685353, 0.4743251850459713, -0.5579616346387769, 0.8108683947746822, 0.10945937232446096, 1.5817280773549673, -0.4179447500888065, -0.26704478525599334, 0.4861216848037485, -1.2269781358287595, 0.48801751821834455, -0.2603900532636391, -0.7184230483355053, -1.106786206772095, -1.5317607064617298, -1.071677470783439, -0.5684590410239149, 0.7884798201347741, 0.2969006996434724, -1.5638018462188863, 1.0951212754630095, 1.0570095349081763, 0.18090884925616024, 0.35708332462569975, 0.41939600443134006, -0.5469193629160066, 0.681056011190154, 1.0836737863263555, 1.8073342019479364, 1.2922069696255212, -1.7527505424283927, -0.7995628436286377, -1.3710968764745746, 1.7369279066317345, -1.241015569943684, -0.9449229290239858, -0.3302910065023537, -0.04607089977754006, -1.7089431721733293, -1.0709207354113142, 0.6761036968861529, -0.6092169110411316, 1.5383233012522868, 0.6921200843401972, 0.3497299255532066, -1.6832698712958407, 0.5633751844069559, 2.60835244782484, -0.5696976964381066, 0.5544853509436143, -1.5971772678294025, 0.34752935248193983, -0.5813004351576665, -0.46206750305110006, 0.43558862514308283, 0.6595188890240609, -0.9680209992576521, -0.06369923547941378, -0.9398840695658102, -1.6827444557058187, -0.4627078624276598, 0.29023655364385414, 0.35384858352158244, 0.9847057810985868, 1.081670504588241, -0.6512439730759638, 1.5238503903169884, -1.3641299754190603, 0.5777367893756754, -0.723649579163031, -0.34032480021925976, -1.1618950188211348, -1.7737361415230637, 0.6088973855401888, -0.5898302861872097, 0.39797904699915376, 0.2986750362328966, -0.16585704650706057, 0.1254504772640454, 1.2886712792292194, 0.4603662085433268, -2.0578787710636535, -1.0221589432412372, 1.034389349637905, 0.6171218660420777, 0.2044863303281598, 0.5611180863911401, 0.6789642718982906, 2.191199060776728, 0.5804231381546251, -0.2301091576263489, -1.2409485703829755, -0.4803667326605033, 1.9790691187882332, 0.8354356298190777, -1.377830040723509, -0.7093057299507607, 0.02350076204146453, -0.6144460195287649, -0.6278569934166879, 0.3748771785213116, -0.6026494815774437, 0.716136648833593, -0.2599865328613578, 0.7962528498927385, 0.38687984170933054, -0.030145868134816914, -1.4888624546346347, -0.6112606395755589, -0.3264612018268221, -0.28094405929505606, -0.28095049199112415, 0.315193742127656, -0.08068152824346515, -0.5405833705996843, 0.012475044935778421, -0.5073341426241611, 2.522349365361441, 0.3517906911660985, 1.9151763089821379, -0.5259507343607349, 0.318877346885674, 1.6346532895231607, -0.4960025111904835, 0.8378283537055438, -0.47869657829487194, 0.13724602167605102, 1.5622611765682457, 0.3314922744867981, -1.0339173294735036, -1.4342339375033137, -0.12034187367159747, 1.116081354377921, 0.0013167995142147027, 0.054418822660611356, 0.4772646894683678, -2.102195571517778, 0.7056417249155053, 1.2679630323856272, -0.39741786872362056, -0.20581930788934516, -0.26625973742705994, 0.4113342421389917, 0.4260135840326659, 2.697082492954176, -0.9534931583250714, 0.6543421208537638, 0.049855290025323164, 0.4063691608177558, 1.6001266482861962, -0.2436559175034847, 1.4326713287737838, 0.7480139899028384, 0.045693851577384884, 0.11613853185100208, 0.9002061271041789, -0.08656318675383086, 2.44348500380821, -0.29014079169540036, -0.3996645860082779, 0.7245424360972225, 0.36362685958307167, -1.0641826213185395, -0.190657411897268, -0.7699845221750786, -2.3498668250715102, -0.08822928319287104, 0.44292190018387306, 0.10830447299832259, -0.9202853530681268, 0.06427763400960183, 0.20649431385027964, 0.36667171846701563, 0.8480107145650952, 1.538786508669835, 1.1725577485493277, 2.6002319377835015, -0.7571000765600859, 0.33978980339331627, -1.80820189096953, 1.9526596163789565, -0.3632476717520061, 3.287846484024073, 2.0225250818567706, 2.2217504332035363, 1.5885971970575596, 0.34480795466317604, 0.5703587540940437, -0.6111198526101279, -0.049619482520134504, 1.3546601280255275, -1.3288143757022326, -0.9027017435319028, -1.614405520933665, -1.60467070186498, -0.9215287103445169, -0.17445347425956398, -0.5394176132449047, 0.06975132322510134, 0.9498245725366871, 1.9874004643211136, -0.3819897604498896, -0.9849312889444538, 1.1168537485361396, 1.3867553995811617, 0.47012967089803603, 0.25969489151680897, 2.661187651115556, 1.3637019495872897, 2.473915562898231, 0.10664521477868702, 1.0997741091869024, 1.5040629065735802, 1.0453263809749684, -0.15661231000868528, 0.9224632750583499, -1.4502451517079071, -1.3310275520969195, -0.37755074961405644, -0.5607742494959406, -0.32881285190251724, -0.7632677648333118, 1.9770902270570623, -0.9616220610377734, 0.24586203036786117, -0.19447641181840838, -0.35446269787075535, -0.9202774972329396, -0.2195389365520066, -0.048073315755090794, -1.8968933118539981, -0.9259682525502951, -1.447149612368482, 0.7868954291915273, 0.041392816812433286, 1.2274366723609484, 0.45205188071349395, 0.7894955331916936, 0.6410220461627063, -1.0564555128850375, -1.1879628398904525, 0.06534537324441227, 1.2437758645640564, 0.7146866313960641, -1.1998568606315054, 1.411240350619148, -0.8101798056470365, -0.39733007093435685, 0.7513792528945152, 0.3957485725346375, 1.9786077159531734, 0.2254057728007698, -1.4274750022237335, -0.30783165371960947, 0.3432335435371588, -0.9292977741168131, 0.018379293824179632, 0.6625267199725555, -0.6855119751594478, 0.3403375578623557, 0.7795399514275102, -0.008288119419062625, -0.330428372207931, 1.3408431344470468, 0.0660433013407598, -0.07285234688411983, 1.2382688816966467, -0.9290748154632594, -1.6779660065117927, 0.5451483083636435, -1.448185890361223, -1.8808753390638167, 0.336088498678187, 0.033758979436954266, 0.3771844414051603, -1.753218497582313, -0.6636689127056622, -0.9697598982988452, -0.3190647717053588, -0.14895080318346904, -1.6481860694137602, -0.1720959831256821, -1.8053562317075311, 0.2686487324911456, -1.2448242905032958, -0.7283191359756428, -1.1869010078143005, 0.2240536732887425, -1.3527592773544987, -2.305528367618016, -0.8595697704848495, -2.917413845920577, -2.563777410391712, -3.1365843346110616, -2.5124041276293063, -2.380701025111055, -1.001104135411496, 0.04208380349800348, -1.0166217563066042, -0.4235984883998278, -0.8160845787987417, -1.0300287782832735, 1.1589651495493476, 0.13900013191673397, -0.7762820072622979, 1.018358380122017, 0.7637538149430336, 1.341100626617401, 0.7013565560951941, -2.0623245121066534, -0.9116882176997888, -0.016263339514071693, 0.9414098565011868, -1.4056876599433676, -0.556314446831573, -0.7991911727327817, -1.3955777270294762, -0.5200500389339302, 1.3284274828146025, -2.5354107024617845, -1.4803698212207614, -1.134385246994217, -2.9497443579048856, -2.140531610897844, -2.622833660248084, -2.064223365987645, -0.42864310977330633, 0.0012286108057261804, -0.7404241478516446, 0.6762039321223992, 2.2460293747086135, -1.5496037351184329, -0.21520911607188298, -1.2243134909346514, -0.6319787225662246, -0.9874799534814318, -1.2213724731871949, -0.32666933038472284, 0.6333691987008065, -0.4160747640094887, -1.5727118309119763, 1.031417297355491, -0.9802242735036975, 0.31690053175398797, -0.9462090244324274, -0.7988042538050479, -0.7348157013482524, -1.0523477130520453, -2.080505854049956, -2.521552156615332, -1.1710065185843697, -1.5931667119574942, -1.1712755956470837, -0.1331842650607867, -0.9113109614839158, -0.48789025225100446, 0.5392708051928737, -1.1063286342583547, 0.21329817792873948, 0.9348579471117465, -0.2364363462409833, 0.2245863609043579, 0.7459633134694463, -0.29623710965996675, -0.6877869810975328, -0.357698009844971, -0.5420324525914931, -0.43504103762315327, -0.08328552212486241, 0.9524763660364659, -0.44908886436413376, 2.133642091733072, 1.0307589554450816, 0.44274294640132933, 0.17185542719189087, -0.5102456468397295, -0.9539701890789749, 0.5418217249248051, -1.706628643932783, -0.7645038156639745, -0.09729769362772975, -0.4818543986323026, 1.144208791532105, 0.31763676566339966, 0.4183649287445776, -1.0448422606063759, -0.06467435316135743, 1.274825498214091, -1.1227332461259554, 0.8017568257576858, 0.46248527462168226, 0.4959366929753491, -1.0430457464952934, 0.7630508728890765, 0.5918244651447812, -0.34307440157413077, 0.923397674660795, 0.28884256417762394, 0.45931820626732534, 0.38209674656662806, 1.207289772434015, 0.09654940736510001, -0.7361919899497481, -2.024931175575025, -1.5322698484481134, -1.318323112707897, 0.05225569167386255, 0.5833493955404712, -1.735121287012551, 1.3809398458784254, 0.1886052017867708, -2.35087685467388, -1.1134191921885424, -1.8625327376553849, 1.958009580334066, -0.30560340407389386, -0.7075296847099733, -0.5420821781946633, -0.34625355094296734, 0.13438603976220945, -0.31520624144164594, -1.0387846932056282, 2.423617883281086, -0.6124039715553188, 0.22680331235870843, 0.9062008747003895, 0.49703853822072797, -0.9456564675956318, -0.7115552030919546, 1.5475610393123516, -1.9754543424711424, 0.2894809944059681, -1.4551305348689074, -1.5842104395420684, -0.5835281910287164, 1.0642870588680249, 3.4323679593602665, -0.6600788741693795, 0.11496023583910861, -0.5532799804075954, 1.846748695539969, -1.2724221283766213, 1.9364941240009006, 1.2602417532796184, -0.45558899870707154, 0.8874148254455271, 1.0955511643783908, 2.30291353014573, -0.46313344396399264, -1.1278023302040947, -0.9247578950007029, -1.2788161928206694, -1.1122828754595817, 0.6627425750223519, 0.016276494192192615, -0.4820007294816466, 0.559649916902594, -1.595443969074717, 0.24181487928402434, -0.2103976656932204, 0.379310809441831, -0.058118596263540524, -1.041926754785015, 1.5138175731211534, -0.30476035571462284, 1.9839005803688328, -0.40753720635549834, 0.31336816291690694, 0.32972198836524724, -0.3315260281715601, 1.507073999879608, 0.3858217679690895, 1.8435401191611938, -1.0454161460766243, -0.6999951048508761, 0.6716156994423381, 0.4857097308990198, -1.053516275533097, -0.5634857259346855, -1.453425749864618, -3.873720415640287, 0.3620929628176686, -1.5847949923706361, -3.0900133299062804, -2.0968447676580917, -1.9730100432660302, -1.053094411182598, -1.7255226360551563, -0.9966258921667801, 2.1544017647227527, -0.14062498043928648, 0.5180674453628946, 0.022423016929244293, 1.486838839023565, -0.08421040123462716, -0.17591805024717536, 0.2618584878778594, 0.9877762122088034, -0.17845066604161397, 1.5441772294331735, 0.5618404581987505, -1.6473328334569277, 0.6386642440072474, 0.48396628987848234, -0.17921495735187412, 0.2820057988181875, -2.252143957727046, -5.71251527335978, -2.4091915337369376, -2.6143299061315903, -2.7389087534597607, -3.4017932584373516, -2.69012886089256, -1.8953433813570761, -1.6946649711858786, 1.5193252912745292, -0.0015867477605118778, 0.22510533524337256, 1.9610417682689376, 0.460210943947948, -0.21916816806143974, -1.2588367040234818, 0.20220341753001228, -0.9910596888395801, 1.3273618025545322, 0.444957570842783, 0.16903976659267608, 0.44105222915408326, 0.7324649127989483, -0.0007810865054168563, 0.9237678647662289, -0.39646921049033845, -0.17121619881251599, -0.6254375984766101, -1.3518794515401764, -1.2832259020234462, -4.519922227272272, -2.9505577080171297, -2.4202757329715867, -0.13231033792857047, -0.4011071353709188, 1.2780720282622207, -0.25248177099040636, 0.6099443998580979, 0.9729093541126926, 0.12996782906553317, -0.24555710743695106, 0.9369178731694842, 0.7000974068483733, -0.23880900989183676, -0.6268061513667851, -1.3646387259644852, -1.1425385129008918, 0.2250530509881292, 0.9779519096712064, 0.9315565150197072, 0.7457341269246538, 0.06428669272175103, -0.717387251407066, 1.2888174992392125, 0.27222766699588885, 0.8076022609324092, 0.32864969457133214, -0.625425208597503, -2.838278894217381, -0.6968354086612544, 0.34071137047503725, -1.6429376305766024, -0.7374083326336335, -1.625471547560271, 0.17415113493194048, 0.23520316368793726, 0.25690078992861987, -0.15076978395577864, 0.0035209741176290403, 0.4342176077515037, 0.25615830786969923, -0.5577000122921657, 0.9032633327517328, -0.26865950575539926, 1.1181024931264523, -0.40536102663520035, -0.12179114923179003, 0.6194943314396185, 1.2460696197024164, -0.87690001126708, 0.5344936018033049, 1.419469063436478, 0.2710218394915855, -0.5502039097160057, 1.7446326589469654, 0.46776733058135134, 0.10440263893388549, 1.1989557467855356, -0.6333235912043917, 0.8576073810785539, -0.4453291978999159, 1.301912470902029, 0.11966282340893333, -0.07739194547614515, -1.3833489604846623, 0.8694456632172338, -0.189521522933244, 0.3300961946698546, 1.1465313446903311, 0.7815047631401448, -0.04990483008666022, 0.20336396219943567, -1.0813689235180943, 0.40043953988949055, 0.4449360441682292, 0.5622816643142884, 0.26507658433348263, 0.46011397597520803, 2.49394944769256, 2.4242777455448934, 2.546650927823057, -0.9751378719097316, 1.916928045987363, 0.6119917580408716, -1.0282411019292101, 1.3363981823262265, 0.7713045752100338, 0.6372656919108599, 0.23642765044833525, 1.658432396913907, -0.24962549305007886, 1.2400013258337308, -0.5358187506034838, 1.0946483203970798, -0.3264706825942224, 1.1459762335930705, -0.07733602570913661, 1.2156860771517728, 1.5084638407813684, 0.608938216926026, -0.11495471146364247, 0.8630003242652093, 0.961408847653023, -0.24294114764824093, -0.3444916995268509, -0.09710398104419303, 0.7083846319863049, 0.3413203531527388, 1.2018841736050139, -0.46395962023485954, 1.0688915794643943, -0.03188348671432493, 3.3342500520862366, 0.48818909828869134, 1.1692543064150096, 0.3145632479339942, 0.8092816631887767, 0.7173999945532902, 1.3929842438388702, 1.648075923978092, -0.22154112466196618, -0.02470802925312963, 0.21943417246729538, -0.38235886895426385, 0.6550704189276383, 1.6403666589575134, -1.8873576376932428, -0.3743337232322289, -1.027893430540818, 0.22969332642866974, 1.9078507368607454, -0.2358144583631427, -1.8616381407921325, -1.2676648829368353, -0.25151307177277016, -1.0874620265379096, 0.7914182392766055, -0.6197348203246044, 3.2088768534512235, 2.7628807877664645, 0.9093924906785282, 2.2472367972268947, 1.0209083904981624, 1.1117190984536776, 1.080647050727257, -1.1651729620956153, 1.582578543940401, -0.6189166747295587, 0.25215018173244136, -0.3484490152294564, -0.42171223549345094, -0.35135731691686567, 0.18612622183798094, 1.2228813521087947, 0.12001221564231415, -0.7461139351004816, 0.035947058620330416, 1.5602216266689133, 0.03206486376181142, 0.6623747546639118, 0.05603188762216108, -0.39374836544992314, -1.183791318579092, 0.5372324716517313, 0.7580521255479911, -1.6228667175569647, -0.5518092530887303, 1.051207048719396, -0.38011505609219637, 1.2806422865613967, 0.8230194039146765, 0.44754914672749163, -0.3096023818774613, 1.193478050837642, -1.1874707115707426, -1.1411998764640159, -0.20314180610342666, 1.3851218807914218, -0.1773805848141372, -0.4391727578757473, 1.6813294646412547, 0.5550424220067681, -0.6846330786989913, -0.8540047543810492, -0.04130246955086497, 1.3133855803955956, 0.9020471368664686, -1.9033037468883387, 1.7646567891026619, 0.7173354616693273, 1.9943822195740735, -0.9603179026405549, -0.949556418960833, -1.680903401792319, -0.2909226547704596, -0.40939355100628494, -1.4999977167306735, 1.0004134156535125, 0.5074011381749636, 0.34786096437237657, -0.6636159174165138, 1.4080537697418625, 0.9408711909485362, 0.16760021887471668, -0.1826102067761694, 1.135043160169777, -0.06478802025118453, 1.6048010258286871, -0.04515692106408634, 0.4171030265629714, 0.4509671686221912, 0.9034080578563926, 1.075715581753495, 0.6855928261789006, -1.1351841477691162, -0.884782678659161, 1.0824959304253123, -1.9964840334928797, -1.0235579198663882, 0.4565124023976786, -0.8218789575278367, -0.7914824601205595, -0.31091132225748214, 0.0398662104147354, 0.5595438641957702, -1.5147905165389532, -1.0844171361528434, 0.736573686310212, 0.16383865113340607, 0.35892159346279495, 0.47448740276589435, 0.694457112560961, 0.06108475029302977, -0.5084173832559975, 0.11814358645453685, -0.21255334466712114, 0.7220932781883647, -0.1269779845524292, 1.1463994958009873, -0.5922179757548587, 1.7847495138746492, -0.28597362200468235, -0.9585487514930721], [-0.7641371139885761, 0.046342223980942766, 1.4874126261138088, -0.4473685661630389, 1.0572549567081828, 0.24847178660914815, 1.7457479764615922, 2.0733089867013805, -0.31517661061674196, 1.103308919082458, 2.3973033575487928, 2.306955754452711, 0.6036994440995532, -0.06706142264519704, -1.7847281415489251, -1.092284469741868, 2.53157582925677, -0.8057872632173675, -0.049231251877695836, -0.957004193964306, 0.15580740634266518, 1.4878908575682215, -1.6188378539980612, -2.1590362741553943, 0.31190780557074643, 1.7242921832575004, 0.5581818806528962, -0.2546526184692094, -0.4392977649418135, -0.18489703159471083, 0.513675417457693, -0.6664564579571068, 1.452390541410202, 1.123141661572158, -0.3583540922155522, -0.03703431003584191, 1.5530022085029636, 0.09961534581993062, -0.795400934125794, 0.28867868840304944, -0.07737435737328804, -0.716724535530592, 0.8873795479630494, 0.1586671208993905, -0.10719854159981189, 0.8894590886284439, 0.9346449921766512, -0.24303049988367317, 0.9168222454053117, -0.41289775222306685, -1.7834341955783193, 0.3331322545605294, -1.3198473228434413, -0.844753743078915, -0.48964385241929775, 0.527557835201379, -1.3395546148501216, 1.255833054910579, 0.3494162459077423, 1.1455651515944327, 0.16452029168631258, 0.06891413714843486, -0.6993858695297002, -0.8702849063582231, -0.1559077799543328, -0.3110365967927995, 0.9260150700140913, 1.4967132737969122, 0.7907273704917995, 0.5431960553078736, -0.7903473124829367, 0.22739437572706664, -0.6297551877570974, -1.5542699987388173, -0.5473070853466664, 2.401932249706924, 1.6112510878104662, -0.4466273307038089, 1.5382750120572988, -0.0039811288120197045, 0.31178208216810815, 0.15605309434823347, 1.4557792253100443, -0.42620417422730317, -0.8486510630373659, 0.3000252260304456, -0.17755360289511363, 0.33560151832805396, 0.7419592518648522, -0.4697765098371922, -0.03084973759634538, 0.8524198765453365, -0.17921242068936852, -0.035076379792340795, -0.2731282211651377, -1.3190867291654456, 1.8065656922598816, 1.0005604644097, -0.5728819078381678, 0.8415278901010954, 1.8251985568685556, -0.6267817983818266, -2.4415591649463426, 1.7070645556044766, 1.4958036659773994, 2.132631599790404, 0.026796128214662054, -1.45880298417008, 0.7750332711589234, -1.6768229756822055, -0.5918616761865687, -0.13032231671882155, 0.9567827082362192, -1.4640835044682996, -2.373153300867524, -0.8245291141257365, -0.9862488411222973, 0.30009801420298365, 0.7808870389839462, -0.3079036406904155, 0.6449468813039737, -1.451384804112683, -1.3351277688781704, -0.5041385340043573, -2.1009192625173867, -2.5444251468334005, -0.36641596597441634, 0.2637437501617714, 1.1918395585375234, 0.5930257173212785, 0.8164092082152552, -1.204153855468763, 0.5516432195961143, 2.722805395431949, -1.2170881475670543, 0.5341842473553198, 0.09955233248952339, -0.8724569197135942, 0.7572236609246282, 0.04201179819300837, -0.659373023381985, 0.05432678802640578, 1.424462551991243, -0.851716442636555, 1.8980071190533487, 0.894420334516826, -0.9014079242592817, -0.8165119309288227, -0.2754683850538625, -0.05198601149514553, -0.7817193472910098, -0.20472582391521008, 0.8021731382454619, -2.70911019778909, -2.893218678911818, -1.9035879475915385, -1.0866236600383843, -1.6008992623356888, -0.15194235989981644, 1.8003534305231301, 1.7206074145218229, -0.3741398355416987, 0.6234283023956391, 1.536993267439517, 1.8282839602375172, 1.191372156116639, 0.3010850230016676, 0.9574192669945479, 0.9734602801424304, 0.20377285858653224, 0.3360771728626685, -1.1846221405456585, -0.9680250363151175, -1.6633917733981394, -1.4851679547006962, -0.7607116664973405, -0.9235891233012818, -0.6487002479777373, -0.2264225842697046, 0.23942366817564745, -0.3487058277995622, -2.983337112569663, 0.6520858652986898, -0.06189487545656159, 0.4370724223886202, 2.6888025624201104, 2.667292978634552, 0.07673411667950487, 0.9708830889185934, 0.2726227483236895, 1.1430573449704253, -1.140801159870646, 0.704836300461851, 1.0813552006449818, 2.4157963217532297, 0.8190809203850283, 0.10397030288051708, -0.22791602513281917, 0.4550560933097683, -0.4930475090508631, -0.9742963673899869, -1.2908464325696112, 0.30923496741644774, 0.8503469687148991, -0.07217663371038605, -1.3572310037779156, -0.7077512147201089, -2.567459773998921, -0.24110122940043704, 0.8055603307029527, 1.2314226731361324, 1.9305467843153548, 0.3263992865037884, 2.125913146342133, 0.4983306312893153, -0.5795314108909128, 2.872013589387382, -0.21204918527110322, -2.1570266460786387, -1.0530434739682166, 0.025767083663525977, 0.7051292661361238, 0.7174387856301534, 0.7268523522213777, -0.18263746315732415, 0.9265748119866206, -1.7160800559254583, 0.2235225334381781, -0.6180225188107958, 0.01771796080636333, 0.17160640932167612, 1.2897560479259742, -0.8500411178470152, -0.3522805959858897, -0.06496135681307746, 0.8991424362678647, 1.8653005603570985, 1.309360569328885, -0.6308116821686085, -0.315955932747499, -1.8845759854860265, 0.6245380310262444, 1.7335771087499467, -1.0966761943990604, -1.4293899308255644, 0.06027381208705127, 0.9473819782928699, 0.3983911432140863, 0.30909094507162116, -0.9531857072537939, -0.9837096748303151, -0.6865224957820194, 1.33977719159441, -1.516242541421126, -0.139398142938823, -2.290816073868631, -0.03892781713420276, 1.02914752490302, 0.46847414232387175, -0.873972892228485, -0.0026719137942402115, -0.30250603201164017, 1.1801717516817918, 3.811014174921237, 1.6819473190861383, 0.32113023985091, 0.9131704085310818, 1.34320963268939, -2.1556594008223824, -1.5267290512918548, -2.7002488438585592, -1.910475882398424, -1.6557739449260482, -1.4188615488283014, -1.7265093039710968, -0.9060597937155556, -1.4941196842091264, -0.030614146107182078, 0.3514317513243065, 0.5821927200944362, 1.7563645368029601, -0.31195196039908685, 2.3649044611261303, -0.22123134817249637, -0.6640148626796248, 0.6984258104150728, -0.48119492354428556, -1.5832484414150585, -0.2114166824954903, -0.2179948709143103, 0.5170303821048239, -0.4319268757876143, -0.7270244982266016, 0.37466385934885804, 1.5732553342707136, -1.9128369597827597, -2.4421621862353535, -5.330242709715722, -1.952518244154654, -2.729039819169429, -1.317688067292697, -3.8144830160918755, -3.2755251672566947, 0.0782054411744791, -2.3677656641400446, 0.3064714323606431, -1.696351183782951, 0.6847847582887845, -0.355090059543749, -0.37463382681481117, 0.07236494889774651, -0.36675122752184974, -2.3615854019147133, -0.3004542626324138, 0.3502639296850171, -3.5350089616828484, -0.041099417063976594, -0.2683680134140999, -1.916202355295756, 0.14926979759589454, 0.21060165913108783, -0.34040675135413584, 3.0556322222162047, -0.21483937799219455, -0.5505454940280328, -0.5621395882222089, -0.10164458552747953, -1.6270689702455434, -2.6324296029992107, -0.531189726632867, -0.5090323439463447, -2.014622348003278, -0.6219841193099339, 0.573078099557074, -1.8559886990294718, -1.273721069415306, -0.6677295604870818, 0.03551959308032984, 1.1755662571846124, 0.9985415896324139, 0.08806992848418976, 0.2624825990320861, -0.8317212433245602, 0.34468139935853254, 0.9043735744711944, 1.4038913028080477, 2.7089988898770225, 1.8019639157862422, 1.2366322775079917, 0.6483308948869125, 1.2344882607842498, 0.32818205018770175, -1.3852839367042602, 1.646930645165606, 1.0249551976010745, -1.2432450814070075, -0.29484584160779653, -1.2971331745142498, 0.17091262051172912, -1.4859255143245358, -1.5726510740863613, -0.7465400867577239, 0.6430088572294471, 0.06275188865005624, 0.11377304460945013, 0.8543457510532312, 0.692095651534451, -0.6295995573250776, -1.6380594562965565, 0.9588118220828892, -1.264222058673855, 0.08393493970796496, -1.6146268601404863, -2.5121571424831197, 0.4671611621546408, 0.454385352124128, 0.2824187429128091, 0.056073936980633836, -0.6324962332398271, 0.2323342260018812, 1.277450406278276, 1.4121702728676635, 0.940377879808033, -0.05805217433308099, 0.040994994365061405, -0.6684835749878983, -0.5604643841469832, -0.960182054814662, -0.737647659059914, -0.5623872608661602, -0.40177880211302647, 1.436095412691812, 1.5013382161903457, -0.9154973329983074, -0.08180770363923265, -0.3939148923426585, 2.1193590193108456, 0.31649414328886344, -0.810473836164544, 0.7030970988261511, 0.8273057207960934, -1.7511405878097452, 0.8371341380135195, 0.8406299083000155, -0.09205731940921005, 0.6885440866602437, 0.7852734798582321, 0.7184605441867555, -0.6535202744614015, -2.3896677516828717, -0.12812272526517746, -1.5773792879701793, 0.1775761110112095, -0.3591961821381335, -2.579154966258061, -2.126373778171951, -0.3640434137755641, 0.16775064866483672, -1.0663866280170704, -1.4239360392356448, 0.4355973536319911, 0.9527606920008702, -1.9140723589354525, -0.7323246382777161, -0.08397729997688286, -1.8753083150321619, -0.31111836344068455, 0.09620009853416053, 0.0764988439977465, -0.6448932685304486, 0.44931799903788333, -1.8010086988111174, -1.897423547359736, 0.6679484202595241, 0.9038726352207972, -1.1783853773982849, -1.1013980935306726, -0.6412424125573487, 1.1908727985719865, -0.20049316288727287, -0.9326963390266001, -2.442067124543218, -0.0007363926760143083, -1.1608966003376235, 0.1855321028428486, -0.47542877780435866, -0.9654894450783309, -1.5117151193159886, -0.2444911487742907, -0.46961162534216544, -1.5499842792110934, 1.396170252168806, -0.9699344069037822, -0.8033576810679462, -0.2585464366361575, 0.3906412721027998, -0.33516309524243354, 0.3737131157367116, -0.6434719408020219, 1.2464388867839151, 0.7607614195909744, -0.24376128271939226, 0.902028561566696, -0.4616692646168443, 0.3255808970968727, -0.011801807775428707, 1.0623760142031875, 1.171523056382147, -0.6306148212542985, -0.8024178289317745, -0.03172522365738551, 0.269992845886818, 1.0192924840659348, 0.01995476559566249, 1.3002545638350236, 0.1925835023863227, -0.3403673589994726, -0.983095980747802, -0.8934115265593391, 1.123619329743075, -1.0703866029826634, -1.832845302751148, -0.20130209883707725, 0.8314669933863209, 0.5029686804042681, -0.9846746479277744, -0.6036178929335807, -0.33101918180547196, 1.0446357156463362, -0.3906203874152287, -1.651724436913346, 1.894672987575871, -0.5538406604232712, -0.2970204925331517, 0.1652887182208214, 1.877479601770631, -1.4592719667710778, 0.18085477325809646, -0.7994487759250672, 2.693203390940453, -0.377433830508335, 1.2485428261905511, 0.4606849319524499, -0.4459227241255556, -0.5236292808308155, 0.08957679026143812, -0.551451684496541, -1.1830094772640563, 0.29348033466222784, -0.5794031874473047, 0.32789483852501855, 0.5117756037979158, -1.8237074656685213, -1.8558563546821785, 2.114666283722778, 1.0383386349479928, -0.0883109963744949, -2.26961388155005, -0.4626906780170868, 1.323389237545357, -1.3944089627602962, -1.0526374150426965, 0.7209673482632992, 0.1076266134832509, -0.19466295682180043, 1.8242772543027472, 0.2133137204416517, 2.260238087267456, 1.0000112636495495, -1.0492794804533019, 0.9346520214777826, -0.6224000338434488, 0.05663074396093198, -0.5864156397072067, -0.5271442272164232, -0.5993414335909782, 0.5321303215560347, 1.4020731976206608, 0.7830372013983493, -0.382242909426786, -1.6890491822732763, 1.6274917739260766, 3.034852497698288, 1.4381109038419848, 0.8323841171161376, -2.393432577137037, 0.5270447740847741, 0.16192539525727728, -1.5181835969781754, -1.979815087469301, 0.11854221850822015, -0.011831667430285768, -0.5551734982722564, 2.222019443945236, 1.809490651635413, 1.2806022634778058, 1.8947176195966744, 0.3974376614401313, -0.3232342349668376, -1.35948823735407, 1.138601505001576, 0.12851524328827035, -0.9764525702961051, -0.7982753397190062, 0.168838725455346, 1.4252231202730978, 0.1771091835415091, 1.5265127197561734, 0.5408599192482558, -0.026392852129489885, 0.9880796561195612, -0.3654830610781442, -1.2186740653607055, -0.6530431190035162, 0.5741222177869522, -1.4046552357339823, 0.22128801178496338, 1.3919197529922889, 1.3467720850715965, 1.3440971523580751, 0.8428067512476876, 0.5807908906078478, 0.7929332931669417, -0.11529531848981438, 0.88416338397147, -0.468088581910436, -1.2387399222621966, -2.3094359880649513, 0.9020117276911028, -0.959583546868305, -1.4218780469891112, 0.15922027216921103, 1.8225162769568934, 0.08498292379708444, 0.35909545808917037, 0.4393091999119296, -0.2728225376968403, 0.5226069066074159, 1.0504318317045593, -0.36349643486228184, -1.4118239602671028, -0.387677479347761, -2.062406989296079, -1.8573645671641812, -0.5147908919568814, 0.19350246732879595, -0.6907643460373285, 1.2253695360993997, -0.41494601340985066, -0.2953585916674214, -0.4147731785193981, 0.0912368073839118, -0.8163240787450717, 1.6028925624967034, -0.5639166671662627, -0.04202043329259808, 1.9344447394986124, 0.4345908233397986, 0.6351925095286305, 0.7535555669455971, 0.6567188490658163, 0.5592673386636153, 0.15457106775403032, -0.6431639825831019, -0.965839439904731, -0.27815306050220223, -0.39179350237297017, 1.1781703593920028, 1.8817061671146535, -0.0449068635789928, -0.726674242843646, -0.34115544058032526, 0.379565470836941, 0.5364368919912648, -1.9152482695063515, -0.012948037204175167, 1.7994175613704946, 0.8677283815503306, 0.3506299086067893, 0.7558610264181713, 0.10553760514130017, -0.3387271895831928, 1.667624846593026, -0.8768116777515441, 0.3512239325951136, 0.12062326575575026, -1.039029269925543, 0.8088925789070253, -0.0118625402453003, 1.834696744809644, -0.285839387700155, -0.11322922187645429, -0.9444466397347097, -1.4140390323266465, 0.7973461310403351, -0.3385010712832566, -1.292767020920177, -0.38349987589643514, -0.3455649327944716, -0.07516689985400031, -1.11140815455224, -1.1435336161158216, -0.5890524380720323, 0.5182799660915051, 0.2752458440071303, -0.43072861575690297, 0.6357773542533005, 0.8422108867416757, 1.0934300491308464, -1.3082765442826871, 0.6414675346628358, -0.14099343011642343, 0.20718591698205432, -1.7980319622663408, 1.2736596885225178, -1.4430880401040962, -0.689009173222958, 0.2800418915413576, -1.1317806469744927, 0.10854864207174136, 0.28825934998115543, -0.08418210619587956, 0.8416596815893965, -0.6614450179872494, 1.3420845870870115, -0.23743771667842017, -1.7497779088929883, 0.7847275460445947, -0.5718376654297469, 0.49082294334802073, 1.1230473260629645, 0.8146112916196208, -0.41644716034363716, -0.4812690242894391, 1.1927151977714323, 1.3260640685446223, 1.3753186253520366, -0.6831604568476468, 0.5653011130219835, -0.5681150123480124, 0.6671666237408226, 0.22473673218639267, 0.6454183961322145, 0.9122989712866664, 1.534661173927347, -0.3077433583292311, 1.4156379908562515, -0.33128424817371555, -0.4698967987747903, -0.1820267437697354, 0.4366022655868945, -0.33968790628915746, 0.41570131566095164, -0.09466153006805263, 1.8359621114411893, -0.19559746431275257, 1.283256671305945, -0.07987317574164315, 1.5289030870464755, 0.11076560836247411, -0.19029363198583696, -0.31068216793678965, -0.3200209956163108, 0.30232966620637935, -0.46425578354939195, 0.19363587301535412, 0.01273987310642653, 1.1278312523264558, -0.8063514649330045, -0.9068411950720844, 0.9860134340346557, 1.9719035015591595, 0.24236993172279792, -0.9580402758179953, 0.25184146072093544, 2.018458104831876, -0.1361639920406191, -0.05836609239988541, -0.32092513583723736, 0.9664135489364981, 1.416378651133522, -0.4531176439941424, 2.7015978297000762, 1.2883732001205503, -0.1726261943404863, 0.2289126963429865, 2.6398365074222068, 1.5184227813125932, -0.5731286028302534, -0.6089375099077077, 1.1678484781262188, -3.005134090446379, 0.16506253241184554, 1.2472197413548238, -0.6079456194889018, -0.09106678040235024, 0.1319379205111956, 0.18875802888086454, 2.4628181593277403, 1.2328921269518482, -1.1903801378443615, -0.0830360059741719, 0.8150979752375477, 0.9996677393850674, -1.9618430369180078, 0.717003707363555, 0.703817400996345, 1.1399164343493324, 0.5474566688911835, -1.9019540441717349, -0.6293378094384685, 0.04647869335798898, -0.3918115268203375, -0.8358475322880244, 0.23095334890229696, -1.4297349230865444, 0.5647998522713188, -0.12635200032871216, 0.2584706330781721, -0.7298142427328699, -0.7197922808639466, -1.2025675574757944, -0.6993008951923755, -0.6286604517710681], [-0.4082244958417916, 0.03674511914996886, 0.5234823430436465, -1.7430115746755075, -0.9518855190241959, -1.3789706748790551, 0.05005857357602932, 0.7548321476629232, 0.39073933014427115, 0.10344135371308077, 0.15750280143829418, -0.24370096734905689, 1.5223646268834623, -0.126997970142433, 0.508984188281163, -0.33450408972913764, -0.6725488123998066, 0.33170144416423925, 0.508503094796786, 1.2183622334028514, 0.8151143607647682, 0.44498826514421064, 0.431302995426484, 0.6656837247011619, 1.183047838951973, -2.7445100968447718, 0.7832134243478894, 0.1142822497025071, 1.2390789105026887, -2.101865791288484, -0.48306186900282283, -1.7234915972004299, 1.3516511048434754, -1.6691109686864536, 0.3382328291670186, 0.3693472899609105, -0.5866501828856772, 0.11021100383078958, -1.9023198523668372, -0.7175461833795925, 1.7623486227330283, 0.01029079211020333, -1.0588337244736579, 0.3934822200592528, 0.1736011979125094, -0.2945765327309188, -0.3039458317585316, -0.57068351734294, -0.370038255470982, -0.25659205284387276, 1.1936161063458093, -0.9154330741382943, 0.692677132222395, -0.9310500452404044, 0.9676399031950068, -2.002176659264603, 1.5061126015105242, -0.8807992733594376, 0.20904932054953743, -1.2045598437072587, -0.3185539560850718, 0.1139624281736227, 0.006710666758637317, 0.6058963096782242, -0.18451216919932933, 0.4751421050868313, -1.0265777204650848, 1.8288840821476837, 0.9853421791277676, -0.6297362926005106, -1.7302492783827461, -0.6594235497063125, 0.9861920451908969, 1.7560028906676566, -0.2901433270993197, -0.45408455082368593, 1.080679349038361, 0.5682164148731742, -0.016247868874242743, -3.1219624935737995, 0.29733651190773597, 0.8059259810378498, -2.420103062495029, 0.8554025530663222, -0.6197605277880675, -0.3441417941557556, -0.40556273054331604, -1.2418989291600102, 0.9339649480952875, -0.37939627054783553, -0.17087926304435105, -0.4264322731863664, 0.27028051699821026, -0.569126313316998, 0.25708354419603735, -0.31560777021562875, 1.0828385870340334, 0.8550914796513633, 0.5189770620111981, -0.935291674370881, -0.04941324014474341, -1.6884027736413423, -0.18907091870946122, -0.9888684600264555, 0.9046643641586938, -1.8505062022157281, -1.0373470738541102, -0.32741840702204933, 1.1291672151880052, -0.5816373496573456, 1.8046241701120638, -1.0383043596953527, 1.3928038097770383, 1.669474649426969, -0.6688166726815984, 1.4383747291077245, -0.6005433412424656, 1.9228126307273525, -0.2644268423760165, 1.4142354580478853, -1.7107398524857307, 0.12317938783124588, -0.8461676777012613, 1.2455820492666134, 0.06912025168017921, 2.4621922246225623, 0.13546111266531058, -0.9486066677923803, 0.3134029364904559, -1.3621786643650682, -2.180049098160236, -0.6552241661401774, -0.7726149117132861, 0.09135265511102049, -2.19406446331392, 0.3848950208557714, -0.9485173259947065, -0.3689159077988596, 0.013892933035378223, -0.4361751336935818, 0.3112167296776154, 0.9416849340675983, 0.37024507408297647, -0.5783606113701172, 0.8176594978811237, 0.2918782440309163, 1.537334268451466, 0.7647932966028328, 1.7307841850863384, 1.8388396000774985, 1.5618471333207598, -0.014163884958327043, -0.5848353770373549, -1.3415052288895164, 0.8953304023234759, -0.910328498589053, -0.3606767831952164, -1.0258953539809428, -1.7004874973031792, -0.446689059789087, -1.5420361773019462, -2.614147037765902, -0.11532063722903156, 0.2353137174442995, 0.4022087296745304, 0.4338048298049759, -0.14053175927858258, 0.4432475885323777, -2.166500262743021, -1.4160669600855844, 1.178146082763307, 2.225044346913566, 0.16533881681165907, 1.9598015496436196, 1.2282801380239394, -0.2796498644361787, -0.15635537657908438, 0.4769494748991681, -1.1228427489686537, 1.2464232380898235, -0.8650788593760189, -1.388728445803661, 0.7434923392207698, -1.0860985223230821, 2.1459286665817254, 0.7913811069407043, -0.7697655698532833, -2.040952516553093, -2.3039423386519617, -1.3524056388691688, -1.4483993080479927, -1.359186380813489, -0.024843374814536617, 0.9473546650099385, -0.5439055489363608, 0.47211541384789063, -0.13423516864207619, -1.442497954973735, -0.8716404150672313, -0.5597826062295136, 1.5301275133763446, 0.664015944556572, 0.21155943336076433, -0.15081012046867454, -1.332205146503263, -0.19346468280773374, 0.2645252584995462, -0.8989457393086729, 0.8726205833043882, 2.6767415113272244, 0.9887024307273363, 3.7037580431503403, 0.045456239261828395, 0.18925411844894124, -1.4051198866017627, -1.2023360079476597, -1.1449264818707212, -2.4802879062094783, -0.25064210294460587, -1.2370335010829023, 0.09858607504879797, -0.011339905648294952, 0.567140014825984, -0.7480661469722695, -0.76801260559021, 0.3952318844392491, -0.06276738533933642, 1.6406378950816791, 0.2617308338321643, 0.9485771976254027, 0.9470651112162769, 0.676044713670481, 2.1542948531806405, 0.023107790700252605, -1.2952314699258454, -0.665483896998075, 0.38722584175115854, -1.7300440615967339, 2.1947630152571067, 2.6440821950929334, 2.733967973250384, -0.6227960454592056, -2.196471741230883, -2.1280966392961114, -0.40586805742553617, -0.8534169384428827, -1.1070290292353675, -1.0707502079009639, -0.03999441010810019, -0.8162858564745095, 0.7923782866827122, -2.5990254135321367, -1.374336552210122, 2.477248634105683, 0.5375282155502984, 1.1934130252455502, -0.3442459372224414, 0.8123119278252344, 2.594680831308507, 1.6322714520001012, -1.2801884332248823, -0.6967554864737394, 1.017512656266548, 0.7530299000606173, 1.1003979224375915, 2.188193787344051, 1.5192133246473014, 3.228698676708022, -0.406522735215659, 0.9550867468602248, -0.43328899702998985, -0.15052091247292582, -1.2699664034688285, -0.18336101460596402, -1.304110415011225, -1.1712132283477232, -0.4483588393446715, -1.0298981887510417, 0.9693208451856162, 1.091830003110179, 0.8742692142181616, -1.7222272076340235, 0.3444417630267285, 1.3316624470740015, -0.2324729856538254, -0.72112804910179, -0.42552952126662935, -0.8863318407103922, 0.019852528541505418, 0.008111531305496491, -0.9374916511738257, 1.0511682846980903, -0.174167366578532, 1.2825435748186909, 1.2385800943797933, 1.355908337644881, 1.6158006242891834, -0.5023746993254292, -1.2920272890773592, -0.7501882162581484, -0.5440524777085423, 1.0416561362885606, 0.5152414300007505, -0.7194310545303109, -0.6693980938766186, 0.09609349727067341, -0.7267448559239597, -0.12451355647410182, 0.48203152777781993, -0.18375111241116987, -1.2523356497619302, -1.5678831475423387, -2.054752719993435, 0.6025290260981848, 0.5119997170089441, 0.6707944757726452, -0.5961117421797859, 0.3418135177576269, -0.18359018240824243, -0.1482763568183716, 0.9829033271867796, 0.6602350462503926, -1.4054433911902566, 1.2224026932029357, 0.27764476789468984, 0.07618275326497126, -0.22728454299626705, 0.11935282668373312, 1.148327679444732, -0.8263391275856199, -1.2899015753605172, -0.04671080871746571, 0.376460007479918, -0.6513515116637817, 0.4937684656583629, -0.6655163164667759, -0.7368656183204287, 1.104932083055077, -2.011796865438483, 1.4358411065939192, -0.5888908669416267, 2.339167488752766, 1.0982839209532846, -1.1484169630864698, 1.9190915083871918, 0.2838111890427715, -0.2269159465085365, -1.1204776955102125, -1.4183922910366877, -0.9726551304139178, 0.7824954349909055, 0.2504161812979866, 0.23593738586720328, -1.7544516343494034, 0.00021125710632549654, 0.5322083188883037, -0.10259523888185984, -0.5017953602986372, -1.5143928666857056, -0.8025376076857563, -0.34811615776050964, -2.1432384686825627, -1.969643575507265, 0.13943203713059601, -1.5260778714287946, 1.673151334555467, 1.1670120884742685, 0.8867506623012766, 2.0296882958391507, 0.9623560615453334, -1.4626235889408792, 1.040686591202637, -1.3224732195064817, -2.569693723085663, -1.3390674149036637, -2.8551795826810946, -0.2008860509428609, 0.5629062908514448, 0.6394198344092712, 0.962753857687375, -0.7929096963802006, 2.4982251266704707, 2.4657809701763362, 1.3807652329738103, 0.6403267244245225, -0.16021714484085461, -0.5214826963392551, 1.3562153131623367, -0.4624198943022435, -1.031920962469363, 1.5518443758803793, 0.5164631361034258, 1.6425082770804265, -1.5541131904257037, -0.3716895519387089, -0.19050583718617656, 1.5858265766751047, 0.8082678535824382, -0.5387072476528245, -0.4296419038239528, -0.4956039257334243, -2.01939052968317, -0.49669109064148065, 0.15072755732299878, -2.366102612511946, -2.3749009133079895, 1.3280444882785827, -1.0301164309953552, 0.10396514002848112, -1.8718919133517697, 0.8247958429347143, 0.8037098728405356, 0.41372844647318957, 1.310061131483339, -0.10289595806146361, -0.11278763189335668, -1.4983088408379606, -0.32785873738374716, -0.42806521793015534, 1.2303661139654578, -0.911443626610439, 0.03410041257269816, -0.7984498903767829, -1.7420118164096434, 0.647804890743212, -0.9035735286917744, 0.71530193025144, 0.3381039130958116, -0.989409296091629, -0.6489425904661351, 0.9053829205750389, -0.7857664176902417, -1.998837823921468, -0.3532049118629855, -0.5359412835291197, 0.4216255878519293, 0.35629405767221556, 0.4796502261463589, 2.1679368373427095, 1.1667369788824993, -0.3004769431367389, 0.05001935908617012, 0.6755779984816109, -0.5987499647329887, -0.21573109702222543, -0.3114186030661455, 0.6644649675023234, -0.0793598936814784, 0.8890602034028826, -1.5805890562636649, 1.2098445258060249, 0.7085516251826444, -0.5863827681617145, 0.5616415133759878, -1.4043079543959338, 0.015062813394457886, -1.2434914066439704, 0.02159872252012937, 1.301574643519518, -0.8362268262022442, 0.25865323211093993, 0.9610632825476658, 1.462068308470516, 0.5123871131852832, -0.3801778474300873, 0.986751487509771, 0.09384550897069865, 0.9571262923698098, -0.9884127035319232, 0.5335047969189587, -0.34182378996044444, 0.6525755088145899, 0.36350121823308873, -0.5537123836825739, -0.9515276089300199, 0.7279757357472569, -0.10222578696157426, 0.5685680727998731, 1.1121137325855617, -2.198208102567978, 0.24817176539841904, 0.7275827392687106, -0.9183177164808776, -0.42278033171642176, -0.015598475602428448, -1.6830088507583367, -0.11442149866210141, -2.311198133239806, -1.240661526214087, -2.792293831023285, -1.2333977060009074, 1.7411866066618595, 2.4116070051343725, -0.668229260479282, 1.9849098811721562, -1.6477287392163074, 1.7608955627111964, 0.9919146309822371, -0.14592504551598437, 0.06348785385642362, -1.9481475432216, -0.8005815533211952, 0.10913324326281287, 1.4515983736313576, 0.5337578508148649, 0.3061510192852767, 0.7190990387296881, 1.1398526226369794, 1.1179365710804132, -1.128401985583195, -0.7896482708227911, -2.2754511065320004, -1.5817817524782487, -1.707302695459722, -0.01112703648200871, -3.4303142748543634, -2.077085108403997, -2.3691259327718517, 1.5961927693155153, 1.2829196926873112, 1.324530224578533, -1.6850679779837334, -0.12074112772747303, -2.424128926769727, -0.2092974095067719, 0.9334891504038654, -0.3221646313099423, -0.9919528961509134, -2.120615195566737, -0.7272961489855657, -1.3780923448771403, -0.22096343264511936, -0.5498173526831099, -0.27083336188999724, 0.9869038030529582, -0.4503690774191936, -0.6638605960844981, -0.8961958972557944, -2.316444538175451, -0.2474021950792627, -2.099881480915308, -0.5219335919226148, -2.5338307429701024, -1.137614374251831, -1.510172258126529, 0.0658565129451688, -0.6381320257091806, -1.3506265580152097, -1.5483091116481043, -0.8155997473470077, -0.6435208504917264, 0.7141724981388349, -0.15113673292294724, 0.3408995144388408, 0.9849107452114676, -0.8673203145747367, -0.2624121467279589, -0.8779349911117492, 0.8971328053683684, -1.0427538929164804, -0.3464556522373057, 0.8199770211844496, -1.4264584174891768, 0.23943851811644387, 1.453665794435116, -0.11268548204349949, -1.2150274911038785, -0.8905430402031931, -2.162859301422244, -1.3525317518049529, -2.677021490144759, -2.110423615898505, 0.14378058043443526, 0.5348296835931518, 0.5370579853154485, 1.2170988217267091, -0.8687230202680262, -0.49021882693661833, 0.9105599101488102, 0.9937247590207973, 1.5562827311533745, -0.7743859828541221, -0.23923267135010406, -0.44474263277801246, 0.7953774251783361, -0.5520706826438371, 1.0481708863647208, 0.024436173391738213, -0.9822528943232324, 0.8236313060469181, 0.7876868496901643, 0.21083566983883326, -0.7829669610263456, 0.5828478934198412, -2.073503193185273, -0.0786331564312039, -2.3804759699058886, -1.3024905667577575, 1.2344287205092346, -0.016143920035027133, -0.33730774239084865, -0.26907938656638564, 0.309281396356278, 0.16058307049719853, 0.2792692268871772, -0.5713578643911759, -1.9029142815331104, -0.043723881879912115, 2.613118935379354, -0.4497393102779329, -0.5349699275311833, 0.6887420558978463, -0.10377798365999438, 1.5232589170192412, 1.2712669266688141, -0.3677619712714816, -0.8731987452055764, 1.0256406157473827, -1.1342791969625639, -0.14989221143809853, -0.43491143020138434, -1.0605844215473363, -2.9766506517800857, -1.4396024354785504, -2.007173803726192, 0.8494948079538045, -0.15404428885549382, -0.6676953900967646, 0.41747073793194917, 0.22814284590103476, -1.0205824289672818, -1.144051323493131, -0.976338526297732, -0.6209728348712406, -2.4945426019466947, -2.1283560515525397, -2.243570140514469, -0.4302831072353895, -0.45631102480150193, 0.3697715870042614, -0.20821876001884188, -1.2673076871743667, -0.4077168696686402, 1.5305179305446355, 1.5210797224289863, -1.5795907172657464, -1.2973414356544384, 0.9457179125830506, 0.4515010646642084, 0.31137895034759827, -0.14700759255296755, -1.25509110898884, -1.4101488720341904, 0.7092265318171541, 1.2773150020646868, 2.146747654821127, 0.8684789466915102, -0.13750792678013196, 1.3707656552795253, -0.46580854550325346, 1.1915302598462403, -0.4606998761158584, -1.9309211373398012, -1.2360881336083702, -0.20902124136559877, -1.2888353741720735, -0.02982554910558441, -1.0278445359499326, -0.29242925608606973, -1.561694332080323, 1.4153922381941846, -0.5322026078987195, -0.07144981268331647, 0.3717794559585435, 1.20725964232352, 0.9947308038944782, -1.0910146798952565, -1.2811334907171157, 1.120523195725718, 0.5479531060760066, 1.040420972546042, -0.22366183682879873, -0.858477589368044, 0.6006709937183053, -2.409213156981963, -1.6282179724127654, -0.19211962470553853, 2.590706035749394, 0.6087932794837644, -0.3039117906200751, -2.920706209465858, -2.7298121693622535, 1.4693665151550612, 2.5781544204375986, -0.2874453713787931, 0.9180398009388345, -0.08765811548595559, 0.7585012162767656, 2.0750699739618015, -0.825098245804357, 1.5142858492982691, 2.645251369702545, -0.09329040358863218, -1.5615263755016533, -0.36298731394094613, -0.007531756924007089, -1.149849740606975, 0.33854591597338557, 1.8630696646618254, 1.339802120867359, 0.7306214134569422, 2.2879552973238853, 1.547926702477967, 1.1974465502720613, 0.509719775001143, 0.04895828331246188, 0.411873820642051, 0.5235781908225262, -0.001762074994704588, 1.6700629266989626, -0.09432177800974915, 0.2190388040543305, -0.0287277165914077, -0.10569641873749595, -0.2108914207094256, -0.7895457338844906, -1.4142375494952937, -0.6260426066662841, 1.0149991085175554, -0.5649947181181975, 1.6425435621216185, -2.131891965475027, 0.29288158058260144, 0.32929988321062553, 1.1980823028838012, -1.1872321667691565, 0.3154840958014723, -0.7836751076866606, 1.170329907737104, -0.9837544822803552, 1.4294090361893312, -0.45089373366259144, 0.6452894918344522, 0.7720356320553242, 1.0743570721617814, 1.1769355895095974, -0.09668894338073962, 0.31983041581216437, 1.914380686516207, 0.6359245433831675, -1.2423965166915314, 0.4236154397002481, -0.27906116592084207, -0.10884307061905173, 0.7443856958451701, -0.6216639112225141, -0.47999661399942894, 0.41204014291498897, -0.7434450346723, -0.251184879573691, -0.5187890021762174, -0.23689353626727563, -1.0493834377662488, 0.7374519469263108, -0.8067238602175043, 1.4954942385247212, 1.3969775379097573, 